FANN_FLO_2.1
num_layers=3
learning_rate=0.700000
connection_rate=1.000000
network_type=0
learning_momentum=0.000000
training_algorithm=2
train_error_function=1
train_stop_function=0
cascade_output_change_fraction=0.010000
quickprop_decay=-0.000100
quickprop_mu=1.750000
rprop_increase_factor=1.200000
rprop_decrease_factor=0.500000
rprop_delta_min=0.000000
rprop_delta_max=50.000000
rprop_delta_zero=0.100000
cascade_output_stagnation_epochs=12
cascade_candidate_change_fraction=0.010000
cascade_candidate_stagnation_epochs=12
cascade_max_out_epochs=150
cascade_min_out_epochs=50
cascade_max_cand_epochs=150
cascade_min_cand_epochs=50
cascade_num_candidate_groups=2
bit_fail_limit=3.49999999999999977796e-01
cascade_candidate_limit=1.00000000000000000000e+03
cascade_weight_multiplier=4.00000000000000022204e-01
cascade_activation_functions_count=10
cascade_activation_functions=3 5 7 8 10 11 14 15 16 17 
cascade_activation_steepnesses_count=4
cascade_activation_steepnesses=2.50000000000000000000e-01 5.00000000000000000000e-01 7.50000000000000000000e-01 1.00000000000000000000e+00 
layer_sizes=39 40 46 
scale_included=0
neurons (num_inputs, activation_function, activation_steepness)=(0, 0, 0.00000000000000000000e+00) (0, 0, 0.00000000000000000000e+00) (0, 0, 0.00000000000000000000e+00) (0, 0, 0.00000000000000000000e+00) (0, 0, 0.00000000000000000000e+00) (0, 0, 0.00000000000000000000e+00) (0, 0, 0.00000000000000000000e+00) (0, 0, 0.00000000000000000000e+00) (0, 0, 0.00000000000000000000e+00) (0, 0, 0.00000000000000000000e+00) (0, 0, 0.00000000000000000000e+00) (0, 0, 0.00000000000000000000e+00) (0, 0, 0.00000000000000000000e+00) (0, 0, 0.00000000000000000000e+00) (0, 0, 0.00000000000000000000e+00) (0, 0, 0.00000000000000000000e+00) (0, 0, 0.00000000000000000000e+00) (0, 0, 0.00000000000000000000e+00) (0, 0, 0.00000000000000000000e+00) (0, 0, 0.00000000000000000000e+00) (0, 0, 0.00000000000000000000e+00) (0, 0, 0.00000000000000000000e+00) (0, 0, 0.00000000000000000000e+00) (0, 0, 0.00000000000000000000e+00) (0, 0, 0.00000000000000000000e+00) (0, 0, 0.00000000000000000000e+00) (0, 0, 0.00000000000000000000e+00) (0, 0, 0.00000000000000000000e+00) (0, 0, 0.00000000000000000000e+00) (0, 0, 0.00000000000000000000e+00) (0, 0, 0.00000000000000000000e+00) (0, 0, 0.00000000000000000000e+00) (0, 0, 0.00000000000000000000e+00) (0, 0, 0.00000000000000000000e+00) (0, 0, 0.00000000000000000000e+00) (0, 0, 0.00000000000000000000e+00) (0, 0, 0.00000000000000000000e+00) (0, 0, 0.00000000000000000000e+00) (0, 0, 0.00000000000000000000e+00) (39, 5, 5.00000000000000000000e-01) (39, 5, 5.00000000000000000000e-01) (39, 5, 5.00000000000000000000e-01) (39, 5, 5.00000000000000000000e-01) (39, 5, 5.00000000000000000000e-01) (39, 5, 5.00000000000000000000e-01) (39, 5, 5.00000000000000000000e-01) (39, 5, 5.00000000000000000000e-01) (39, 5, 5.00000000000000000000e-01) (39, 5, 5.00000000000000000000e-01) (39, 5, 5.00000000000000000000e-01) (39, 5, 5.00000000000000000000e-01) (39, 5, 5.00000000000000000000e-01) (39, 5, 5.00000000000000000000e-01) (39, 5, 5.00000000000000000000e-01) (39, 5, 5.00000000000000000000e-01) (39, 5, 5.00000000000000000000e-01) (39, 5, 5.00000000000000000000e-01) (39, 5, 5.00000000000000000000e-01) (39, 5, 5.00000000000000000000e-01) (39, 5, 5.00000000000000000000e-01) (39, 5, 5.00000000000000000000e-01) (39, 5, 5.00000000000000000000e-01) (39, 5, 5.00000000000000000000e-01) (39, 5, 5.00000000000000000000e-01) (39, 5, 5.00000000000000000000e-01) (39, 5, 5.00000000000000000000e-01) (39, 5, 5.00000000000000000000e-01) (39, 5, 5.00000000000000000000e-01) (39, 5, 5.00000000000000000000e-01) (39, 5, 5.00000000000000000000e-01) (39, 5, 5.00000000000000000000e-01) (39, 5, 5.00000000000000000000e-01) (39, 5, 5.00000000000000000000e-01) (39, 5, 5.00000000000000000000e-01) (39, 5, 5.00000000000000000000e-01) (39, 5, 5.00000000000000000000e-01) (39, 5, 5.00000000000000000000e-01) (39, 5, 5.00000000000000000000e-01) (0, 5, 0.00000000000000000000e+00) (40, 5, 5.00000000000000000000e-01) (40, 5, 5.00000000000000000000e-01) (40, 5, 5.00000000000000000000e-01) (40, 5, 5.00000000000000000000e-01) (40, 5, 5.00000000000000000000e-01) (40, 5, 5.00000000000000000000e-01) (40, 5, 5.00000000000000000000e-01) (40, 5, 5.00000000000000000000e-01) (40, 5, 5.00000000000000000000e-01) (40, 5, 5.00000000000000000000e-01) (40, 5, 5.00000000000000000000e-01) (40, 5, 5.00000000000000000000e-01) (40, 5, 5.00000000000000000000e-01) (40, 5, 5.00000000000000000000e-01) (40, 5, 5.00000000000000000000e-01) (40, 5, 5.00000000000000000000e-01) (40, 5, 5.00000000000000000000e-01) (40, 5, 5.00000000000000000000e-01) (40, 5, 5.00000000000000000000e-01) (40, 5, 5.00000000000000000000e-01) (40, 5, 5.00000000000000000000e-01) (40, 5, 5.00000000000000000000e-01) (40, 5, 5.00000000000000000000e-01) (40, 5, 5.00000000000000000000e-01) (40, 5, 5.00000000000000000000e-01) (40, 5, 5.00000000000000000000e-01) (40, 5, 5.00000000000000000000e-01) (40, 5, 5.00000000000000000000e-01) (40, 5, 5.00000000000000000000e-01) (40, 5, 5.00000000000000000000e-01) (40, 5, 5.00000000000000000000e-01) (40, 5, 5.00000000000000000000e-01) (40, 5, 5.00000000000000000000e-01) (40, 5, 5.00000000000000000000e-01) (40, 5, 5.00000000000000000000e-01) (40, 5, 5.00000000000000000000e-01) (40, 5, 5.00000000000000000000e-01) (40, 5, 5.00000000000000000000e-01) (40, 5, 5.00000000000000000000e-01) (40, 5, 5.00000000000000000000e-01) (40, 5, 5.00000000000000000000e-01) (40, 5, 5.00000000000000000000e-01) (40, 5, 5.00000000000000000000e-01) (40, 5, 5.00000000000000000000e-01) (40, 5, 5.00000000000000000000e-01) (0, 5, 0.00000000000000000000e+00) 
connections (connected_to_neuron, weight)=(0, 5.12985202094012393559e+00) (1, 3.93188690884341440768e-01) (2, 2.87571281709265669235e+00) (3, -6.10528428275715837059e-02) (4, -1.26448858475349013020e+00) (5, 6.75139636306980595037e-01) (6, 1.37409532958882962816e+00) (7, 1.00336645867799956200e+00) (8, 3.78096883673749273314e-01) (9, -1.89634946706915075154e+00) (10, -5.87290030208900359909e-01) (11, -2.04996979284528890730e+00) (12, -5.71624114336188160479e+00) (13, 2.94810462163904407618e+00) (14, 2.85872296052473950922e+00) (15, -5.13932424180015723358e-01) (16, 3.83920362309185447813e+00) (17, -2.71803588259739026256e+00) (18, -1.95605920821221468398e-01) (19, 1.06502541454116483877e+00) (20, 2.39251290731179766524e+00) (21, -5.28731081510085410002e-01) (22, 1.86947010308700667380e+00) (23, 1.24748771031587968317e+00) (24, 7.09694306812876596346e-01) (25, 1.26914082248478554682e-01) (26, -4.51622824661102387211e-02) (27, 3.13744618555863796772e+00) (28, 1.02157921612220525809e+00) (29, 2.22203036251833532799e-02) (30, 4.43496170953856783115e+00) (31, 3.54199670937786703639e-01) (32, 7.41870232917404948125e-01) (33, 3.80863014271302369185e-01) (34, 9.75318015569062835013e-01) (35, 1.14371629414258824120e+00) (36, 8.69137667280952541660e-01) (37, 2.06790720613410305972e+00) (38, -5.28849676184240613530e-01) (0, 2.91091694727834138234e-01) (1, 3.69037877374921108320e-01) (2, -1.11238925387024139013e+01) (3, 4.17649360794287360932e+00) (4, 5.66540681524994815810e-01) (5, 1.76311530359823676051e+00) (6, 1.38374505966643845944e+00) (7, 2.97293872416975246686e-01) (8, 1.00408955042804004520e+00) (9, 9.54149787193665277485e-01) (10, -1.40559076880779598717e+00) (11, 2.47624537120651444511e+00) (12, -2.05259094599666713776e+00) (13, -1.75912441815442898221e-03) (14, 2.37112302070189695513e+00) (15, -7.69723341679867556486e-01) (16, -1.87697465111956640627e+00) (17, -8.57831224860214347494e-01) (18, 1.79759192119597055459e+00) (19, -9.87976910230251581524e-01) (20, 2.20781343996840817567e+00) (21, 2.46655435571535602834e-01) (22, -8.98719244139528083970e-01) (23, -9.10935896148199614197e-02) (24, 1.35109202865744765232e-01) (25, -9.37543205055076267485e-01) (26, -1.43453821336948994514e+00) (27, -1.18784554297569777681e+00) (28, -7.45699796413984167948e-03) (29, 4.48149466278168784328e+00) (30, 5.11500434825575833742e-01) (31, 4.02738350621098528670e-01) (32, -1.11059852122798741192e+00) (33, 3.51616907499556541339e+00) (34, 9.15008497712569007776e-02) (35, 1.38321723516482975036e+00) (36, -4.16148775916812194153e-02) (37, -1.10662846114956625598e+00) (38, 1.49570816474123929884e-01) (0, 2.39743763120816688605e-01) (1, 6.53639102168299901408e-01) (2, 2.50562224650436640161e+01) (3, -7.95286468333799234642e-01) (4, 9.64893089305169149306e-01) (5, 6.44775636983727307161e-01) (6, -1.06904601292217193986e+01) (7, 1.50000000000000000000e+03) (8, 1.82805003910747743134e+01) (9, -1.25405376976232241759e+03) (10, 8.34682616362799334464e-02) (11, 2.69141664680760968054e+01) (12, 1.50000000000000000000e+03) (13, 1.50000000000000000000e+03) (14, -8.47985563772756467671e-01) (15, 1.37305724293658784063e+02) (16, -7.86928882730619989161e+02) (17, 4.49339905050238574979e-01) (18, 9.83231998405794893614e-01) (19, 1.50000000000000000000e+03) (20, 2.09705260728590801023e+01) (21, 1.49988770450160063774e+03) (22, 1.50000000000000000000e+03) (23, 2.65237667269059007591e-02) (24, 7.65930449625325451279e+01) (25, -9.17079224880086840699e+00) (26, -7.62504670049512278673e-01) (27, 2.99796545394753366498e-01) (28, -1.14354778790177691317e-01) (29, 5.40319216297610593891e-01) (30, -1.09787827287850152658e+01) (31, 5.14510923933424124677e-01) (32, -4.82246110163040038465e-03) (33, 4.98163431208085114577e+02) (34, 1.02883304854045377397e+02) (35, 1.37677099110419742800e+00) (36, 7.13270745548159751381e-02) (37, -5.11410567437904695076e-01) (38, -1.50000000000000000000e+03) (0, -8.48693555029156332381e-02) (1, 1.53235726302061781023e-01) (2, 3.08590169743660103219e-01) (3, -1.59401962865292134985e+00) (4, 5.75853890562453396562e-01) (5, -1.60136326261139522176e-01) (6, 8.48441493833644311273e-01) (7, 4.10980981735619099737e+00) (8, 2.03876587043430729240e-02) (9, -1.10824582490001068841e-02) (10, -1.84167952986214522593e-01) (11, 3.57876268906849259732e-01) (12, 4.05868030020676562319e-01) (13, 7.86784392960287015661e-01) (14, -2.75583662066125612000e-02) (15, 2.32828665630659681351e-01) (16, 2.64510186305094596726e-01) (17, 1.22632894229184989665e-02) (18, 2.04830423871840278105e-01) (19, 6.18253269565177898670e-01) (20, -1.51707743215571522200e+00) (21, 6.23548919946929736113e-01) (22, 4.83262122398896820652e-01) (23, 1.69701463988626483070e-01) (24, 1.61695994224501649050e-01) (25, -2.57871091307220801081e-01) (26, 6.37744170620091477275e-01) (27, 5.56519828545613770565e-01) (28, 3.33570967822416297732e-01) (29, 1.10957193127488862316e+00) (30, 8.96692695842972731235e-01) (31, -3.63738304563853753759e-01) (32, 3.84070169140259987106e-01) (33, 2.79320386413827892458e-01) (34, -6.34668825574904726938e-02) (35, 5.95354359722995107873e-01) (36, 2.76819094712903390754e-01) (37, 2.70011099068464099915e-01) (38, -4.35063637681932902090e-01) (0, -1.94944092853543221588e-01) (1, 6.01418641348086424614e-01) (2, 1.04986767226526556129e+00) (3, -4.29657709537486425688e+02) (4, 1.60007756100593312443e-01) (5, 3.46374038442793241721e-01) (6, -8.87822214189802561002e-01) (7, 5.38485318555452252554e+01) (8, 2.58303141256293216088e+01) (9, -8.27496535736957298468e+02) (10, 3.70849616899509626489e-01) (11, 6.52957574185195532834e+00) (12, 1.50000000000000000000e+03) (13, 1.24215787214468900856e+03) (14, 5.58559022766556001471e-01) (15, 2.54575588831513002219e+01) (16, -1.19357350939084858510e+03) (17, 4.88510076120658026655e-02) (18, 6.10561613229896216204e-01) (19, 1.50000000000000000000e+03) (20, 1.36811644871430271309e+00) (21, 7.44866262696936161092e+01) (22, 5.35595437951774613339e+01) (23, 1.33879974138523205607e-01) (24, 4.49457188415157415928e-01) (25, 3.95748366966708689518e-02) (26, 2.10229588732145866725e-01) (27, 3.96868428831715469585e-01) (28, 6.03772966342436545606e-02) (29, 4.03231179970933828471e-01) (30, -5.26083161894987316742e+00) (31, 3.32044352215218552260e-01) (32, 2.49556112376854627444e-01) (33, 8.61843840571458031263e+02) (34, 8.88330430058135167570e-01) (35, 3.18052026605345616872e+00) (36, 2.47831381304682435429e-01) (37, 4.08591169728883161442e-04) (38, -1.50000000000000000000e+03) (0, -1.92278556141537322333e+01) (1, 4.54561671662023627505e+01) (2, 2.81456107039790026647e+00) (3, -7.02889272563204936528e-03) (4, 5.97193784015100970208e+00) (5, 1.27445889402769263477e+00) (6, -2.57400940208376987073e+01) (7, 4.62174490894898184479e+01) (8, 4.44396981466780083281e-01) (9, -1.05691297138741015260e+03) (10, 1.59354643020696440381e+00) (11, 1.54804157030392475214e+00) (12, 1.50000000000000000000e+03) (13, 2.92814177412979347537e+02) (14, 1.36482500032769371501e+03) (15, 1.69266190562842838707e-01) (16, -1.42716709420680103904e+03) (17, -7.19331283577431396248e-02) (18, 5.64136448729894879328e-01) (19, 1.50000000000000000000e+03) (20, 4.12350541681897275748e-01) (21, 2.04804205557793210346e+02) (22, 6.68498702355483374049e+02) (23, 5.12034893121525502835e-01) (24, 1.90454560056654031541e+02) (25, 1.22788861104381058498e-01) (26, 1.67863981517953397837e-01) (27, 4.02128397241803214879e-01) (28, -1.28059215864375861571e+01) (29, 1.35406579202393323458e-01) (30, -4.94750715123485340641e-02) (31, 6.56879010218840986290e-01) (32, -5.86257661108318295362e+00) (33, 9.00576920558664717475e+00) (34, 1.11640625477620503148e+01) (35, 5.13429080272350404357e+01) (36, 2.63198958234284741131e-01) (37, 2.66038184661049059709e-01) (38, -1.50000000000000000000e+03) (0, 3.78170890259796443900e-01) (1, 6.50924834784402661647e-01) (2, 8.22021004561175216985e-01) (3, -7.92088095902782995950e+00) (4, 4.51761318206784689977e+00) (5, 3.54554122605195010109e+00) (6, 4.50571761200775178224e+00) (7, 1.57541603532477170191e+00) (8, 1.32961767370067507343e+00) (9, 1.12680106070714547428e+00) (10, -2.12977319965909428490e+00) (11, 4.21910012697586378483e-02) (12, -2.04180964140567766663e+00) (13, 1.58952563919948763882e+00) (14, 1.48872313700095526556e+00) (15, 2.57893700842519113525e-01) (16, 1.08952936635926866948e+00) (17, 1.44783068251793389791e+00) (18, -3.09090402629364735532e+00) (19, 2.77280040591141041517e+00) (20, 1.22011076098468373985e+00) (21, 1.46755711003814592885e+00) (22, -5.56041745315842203534e-02) (23, -5.18824522710092828071e-01) (24, 4.00926334457406219336e-01) (25, 1.53699253588099749024e+00) (26, 6.19836556648115360318e-03) (27, 3.40447054670447712965e+00) (28, 3.53032235228234502269e-03) (29, 5.16262193962695237204e-01) (30, -2.52990242296912759556e+00) (31, -1.77347020020722800915e+00) (32, 6.61645397808033219889e+00) (33, 4.02233920633627450858e-01) (34, 2.89655181102170455887e+00) (35, 3.70867233462569279023e-01) (36, -5.86640560852212100684e+00) (37, -4.71631474442608333852e-01) (38, 5.22316158353665072056e-02) (0, 1.80524866605994271929e+00) (1, 3.12913515209220505220e-01) (2, -1.16026116194432971085e+00) (3, -1.05211982227872577478e-01) (4, 8.77009170103174917621e-01) (5, 2.44179120494986218182e-01) (6, -2.72738554286276968508e-01) (7, 9.34141197957561342236e-01) (8, 6.87311617454485351830e-02) (9, -2.85266155123345688249e-01) (10, 7.52874566442916920428e-02) (11, -4.59340595974375764943e-01) (12, -2.66965627676916672506e-01) (13, 7.91924900894233174675e-01) (14, 2.40177114954291504034e+00) (15, 5.61759442581733825506e-01) (16, 1.65896484090867490924e-01) (17, -5.34321898943529327575e-01) (18, 4.04337714640323808712e-01) (19, 2.23849207216973294932e-01) (20, 4.08105782290548002589e-01) (21, 9.39887951015906608632e-01) (22, 1.07913464276407644604e+00) (23, 7.01600911969985363559e-02) (24, 1.33053850784163674170e+00) (25, -2.44075680557212959521e-01) (26, 1.11978770415677719718e-01) (27, 6.39457637097868070164e-01) (28, -3.49911424888716016124e-01) (29, 1.28069522642048516659e-01) (30, 5.94026127537824688574e-01) (31, 1.83837942311345758917e+00) (32, 1.38659319556901361459e-01) (33, 1.63309646975240280176e-01) (34, 7.98734671875123813933e-01) (35, 1.39803150492351879741e+00) (36, 9.88862696187717965524e-02) (37, 4.63072490884489165741e-02) (38, 8.66544310004296880479e-02) (0, -4.93199217006569795574e-02) (1, 2.39397949082466565685e+00) (2, -1.40988071930795855202e+00) (3, 3.16613265951679989652e-01) (4, -2.48792298994748306562e-01) (5, -1.38670713337850859403e-01) (6, 2.49671754051126099094e-01) (7, 1.56657776194747322407e+00) (8, 2.63954297947787486223e+00) (9, 3.19841040286215960720e-01) (10, -4.44519331803820860749e-01) (11, 8.15549215947085404110e-01) (12, 6.93924220241950662214e-01) (13, -7.53602717035943947543e-01) (14, 1.40937146092365983563e+00) (15, -2.02605635014757506918e-01) (16, 8.96329761008756720209e-02) (17, 3.97544738135273778568e+00) (18, 3.48342370830944503268e+00) (19, 2.73629458241210710145e-01) (20, 2.67353264032937598671e+00) (21, 2.66820540585747467688e+00) (22, 2.50514610630495004884e+00) (23, -4.68633493408432411087e-01) (24, -2.88024147637078575812e+00) (25, -4.04123824994313485259e-01) (26, -7.41270329589928667069e-01) (27, 2.02148850180052574999e+00) (28, 1.84628591604657804615e-01) (29, 7.46110945361827093691e-01) (30, -5.33884658283976576421e-01) (31, -1.98480751931878363070e-01) (32, 3.01006310393577480866e+00) (33, -8.05152345346708764318e-01) (34, -2.72963564516028739382e-02) (35, 1.78408122352742704031e+00) (36, 7.24654143278340434620e-01) (37, 1.52328962889889529819e+00) (38, -4.51573461537060627524e-02) (0, -1.66640293243693839997e+01) (1, 1.14529469841817332920e+00) (2, 2.42692588254143054582e-01) (3, -9.69134290096530115477e+00) (4, 1.33542060818572294600e+00) (5, 8.02401782531699803158e-01) (6, -5.60407060263336553874e+00) (7, 1.07222806247396943036e+03) (8, 5.04497855192941884184e+01) (9, -1.46775141340639493137e+02) (10, 3.56139535938710327656e+00) (11, 1.24399000260912337978e+01) (12, 1.83691325189708187793e+01) (13, 3.51822759094754218268e+01) (14, 5.08082681069240305050e+00) (15, 1.46762910769515968923e+02) (16, -1.91428660544488877804e+01) (17, 8.50738470703244070714e-02) (18, 1.11758343366179091483e+00) (19, 1.50000000000000000000e+03) (20, 2.41890927704524250075e+00) (21, 1.49939827958019327525e+03) (22, 3.84846608065954054467e+00) (23, 3.28063025731259283457e-01) (24, 1.49647695237499021914e+02) (25, 2.73892359632341930720e-01) (26, 3.25289021695014807234e-02) (27, 7.91253533671270492533e-01) (28, 1.07416869449878604748e+00) (29, 4.88898975955422254724e-01) (30, -1.68057901795608160000e+01) (31, 5.83283266457265714422e+00) (32, -3.10416012183582668005e-01) (33, 6.37873252873683668440e+02) (34, 1.38142638496586411812e+00) (35, 2.46276115584175991913e+00) (36, 6.65967996237312176433e-02) (37, 1.20881465187369352421e+00) (38, -1.50000000000000000000e+03) (0, -5.10133401412077081005e-01) (1, 1.93183446507449074758e+00) (2, 5.58175821317183906700e-01) (3, 4.39107195580161580040e+00) (4, 4.70255062272951551705e-01) (5, 5.69388238626749698668e-01) (6, 2.32941352225645159635e+00) (7, -1.76623228952624322652e+00) (8, -2.59512617110581267355e-01) (9, -1.37135586390636343701e+00) (10, 4.67851870144783466010e-01) (11, 3.55144498284639231755e+00) (12, -7.38895567981722489748e+00) (13, -2.83046635472758711938e-01) (14, 5.52727697605722401164e+00) (15, 3.05338097347678649740e+00) (16, -5.48004858952995332899e-01) (17, -1.70142467986898093812e+00) (18, 3.30582289517638994170e+00) (19, -4.24848023912243188960e-01) (20, 5.96832148606735124474e+00) (21, 2.46974149142896393094e-01) (22, 2.87775602186839885022e+00) (23, 6.75056779525906813788e-01) (24, 4.18407937797427820215e+00) (25, 2.10064495387139382743e+00) (26, -6.05655073571675384159e+00) (27, 4.28729708943527576537e-01) (28, 1.30946644820441693291e+00) (29, 7.66406435812603703539e-01) (30, -2.01986194660708440196e+00) (31, -4.33112258076364131654e+00) (32, 4.89751822763356869928e+00) (33, 1.01130484785984797735e-02) (34, -7.25149247380368122684e-01) (35, 5.76081064005883636270e+00) (36, -2.63225569964736472173e+00) (37, -2.90435813421081423513e+00) (38, 6.02284480923335752145e-01) (0, 4.04913742909312190932e+00) (1, 6.03121339774121856259e-01) (2, -4.05027634083900966999e+00) (3, 8.75568229527799424261e+00) (4, -3.36717831751628571268e+00) (5, -5.71501176126076249062e+00) (6, 2.91291848718939538898e+00) (7, 1.86162527510102593364e-01) (8, 8.74730676236290305425e-01) (9, 5.81219125435881056596e-01) (10, -5.59703037260957603216e-01) (11, -2.69952303369811463796e-01) (12, -1.12650873519880945217e+00) (13, -3.15853731732460507597e-01) (14, 1.20613435832963777905e+00) (15, 3.87701088837813789834e-01) (16, -1.98239211474061316487e+00) (17, -1.19456292677190645257e+00) (18, -1.58685382801813235076e+00) (19, -7.67890863409181334553e-02) (20, -3.16588973842061804920e-01) (21, -3.85545448055503703344e+00) (22, 6.04044423218063286640e+00) (23, 4.59440542667516660380e-01) (24, 2.57558916674208226993e+00) (25, 1.85286145955148584541e+00) (26, -3.52357771777923289847e+00) (27, 1.26407900620685520465e+00) (28, 4.98995327832207236085e-01) (29, 1.21721400282751779365e+00) (30, 8.98827596442279919131e+00) (31, 6.26597500809409346800e-02) (32, 2.18533457386720852966e+00) (33, 2.92608831472016506225e+00) (34, -2.02230878394405078069e+00) (35, 2.32383213743352401437e+00) (36, 7.84835526549346962355e-01) (37, 5.51408841938671678840e-01) (38, 1.59607007244594378825e+00) (0, -3.76392363384470911569e+01) (1, 7.76812454743567415427e-01) (2, 2.29074024856212155044e+00) (3, 1.15306753246858738748e+03) (4, -6.28180408877897278330e-01) (5, 5.21343355323423374159e+00) (6, -1.40257595454884517494e+03) (7, 1.50000000000000000000e+03) (8, -4.21664659213710457664e+00) (9, -1.53028832334423128714e+02) (10, 6.03902586318275091948e-01) (11, 1.50403202778775080262e+00) (12, 1.50000000000000000000e+03) (13, 9.98908456089926062305e+02) (14, 1.92929093798931794446e+00) (15, 1.50000000000000000000e+03) (16, -5.25206136894847759322e+02) (17, 6.37229741065395582922e+00) (18, 1.77212502534540816690e+00) (19, 1.50000000000000000000e+03) (20, 1.26486581413086241810e+03) (21, 1.49303429320329291841e+03) (22, 1.50000000000000000000e+03) (23, 4.09128452477717008406e-01) (24, 1.05708735032532345599e+02) (25, 8.49131089505945069185e-01) (26, -3.76676185571444693823e-02) (27, 7.78282330480817186036e-01) (28, 6.32165667823207488851e-01) (29, 5.38452872942379978660e-01) (30, 1.05174270665848226258e+01) (31, 7.66697452137043655718e-01) (32, 3.34813883951490046109e-02) (33, 1.50000000000000000000e+03) (34, 1.21880994897287209255e+00) (35, -6.71655589833399790933e-01) (36, -9.38520889930129220691e-02) (37, 2.25471907813011007704e+00) (38, -1.50000000000000000000e+03) (0, 9.22620715812654118571e-02) (1, 5.36486891728937820290e-01) (2, 8.21030275563133904448e-01) (3, -4.52517771763137677254e-01) (4, 3.76373716823526327513e-01) (5, -1.00894758434181031070e+00) (6, 1.04625934713843204982e+00) (7, 4.35851802998954207524e-01) (8, 8.11045811168343011577e-02) (9, -3.83556147149756720971e-01) (10, -1.64540129098155046838e-01) (11, 7.06847226864247557554e-02) (12, 1.36385927269489304337e+00) (13, 3.06184625293284551351e-01) (14, 2.22205436477248607918e-01) (15, 5.44548540176605921914e-01) (16, -1.02392253749083916858e+00) (17, 5.88819142640118822762e-02) (18, 4.64153596438419580039e-01) (19, 3.63106842010857133740e-01) (20, -6.85476465041071847395e-01) (21, 2.78387314390831797084e+00) (22, 2.07436382945546604617e+00) (23, 3.16544629481917028091e-01) (24, 1.83817823830693094500e+00) (25, 2.33910328210993140319e-01) (26, 2.28054120102813229209e-01) (27, 4.97705624334990937019e-01) (28, -1.44467385647570126239e-02) (29, 4.19484394515362457589e-01) (30, 2.12976410546598549089e+00) (31, 1.69969239240901043297e-01) (32, 3.50523693851614748240e-01) (33, 7.46729388402280619408e-02) (34, 3.20665380043259728993e-01) (35, 3.30338234796270446836e-01) (36, 3.10431616238170393629e-01) (37, 1.62712258090105588160e-01) (38, -1.51967294295350252575e+00) (0, -7.78743100171306767976e-01) (1, 1.28901988993846461362e+00) (2, 3.81579940243537851785e+00) (3, -3.33338215945608973279e-01) (4, -1.72269400289323915132e+00) (5, 8.18813483696529176292e-01) (6, -1.47044967420207162156e+00) (7, 1.98019391853016840654e-01) (8, 9.39044897128289535182e-01) (9, 2.13712884632674482432e+00) (10, 4.14787416732748159820e-01) (11, -3.05458313159183758589e-01) (12, 2.27660294243766464506e-01) (13, -5.19450940689534720884e-02) (14, 1.60207678724851265706e+00) (15, 5.69704084282248723881e-01) (16, -6.41733858738834150870e-01) (17, 9.49405421662618431711e-01) (18, 1.15115650433859584290e+00) (19, 2.14931755475522079379e+00) (20, 1.68744708777643515063e+00) (21, 1.89205165730872093555e-01) (22, -2.36470890753946894058e-01) (23, -3.20440862286766603440e-02) (24, 5.75038165229933118106e-01) (25, 2.15695462352393718675e+00) (26, 2.34582177358147264679e-01) (27, 1.31832827191667645295e+00) (28, -1.54408232377223764153e+00) (29, -1.11713871974267653364e+00) (30, 1.48657344073214781055e+00) (31, -7.23914586757454903143e-01) (32, -2.49855046321306693835e-02) (33, 6.50532208729946215264e-01) (34, 1.47293998871262799000e+00) (35, 1.80274125868835044528e+00) (36, 5.53565886344132632169e-02) (37, 2.74460156885435235807e-01) (38, 6.14553258872289176473e-01) (0, -1.79038065775341648234e+00) (1, 2.10297899711702124259e-01) (2, 1.19856180529157785308e+00) (3, 3.54992664530968671244e+00) (4, 2.05072640286524943143e-01) (5, 1.63832435634147977055e+00) (6, 1.98909975223019741541e+00) (7, -2.64918834802569058695e+00) (8, -9.81282159357283467749e-01) (9, -3.65791918397226578641e-01) (10, -6.11531333648888120180e-01) (11, -4.96041927413236161115e-01) (12, 9.61660042787765401151e-01) (13, 2.96468843803043384522e-02) (14, 3.46809796470647524469e-01) (15, 1.70403878169252664954e+00) (16, 9.20475545278858775511e-02) (17, 2.16071013860425875652e-01) (18, 3.49977364808399249441e-01) (19, 1.73293276933989215394e-01) (20, 5.55537028500327068059e+00) (21, 1.21619458806891356240e+00) (22, -2.52905798529097625149e+00) (23, 6.84594013631409037401e-01) (24, 1.30880695260733026508e+00) (25, 1.41361210792525660018e+00) (26, 7.38491700745279699980e-01) (27, 5.05426564852455156851e-02) (28, -2.39179292824865136202e-01) (29, 1.60628940073631654162e-01) (30, 8.40106303789800223925e-01) (31, 3.96855700390356114227e-01) (32, -2.00426943037224913891e-01) (33, -2.45428528830336967204e+00) (34, 4.38394199324656091976e-02) (35, 2.17146437548597059930e+00) (36, 2.44495009808812113761e-01) (37, -5.43463274368870319364e-01) (38, -2.09083070992451103276e-01) (0, -8.81507914349824375222e+01) (1, 1.78580594777361199021e+01) (2, 2.38486743394404482332e-01) (3, 2.81948896737345855446e-01) (4, 1.83340826967373610179e-01) (5, 7.28076246077623001618e-01) (6, -1.65267913152234235952e+01) (7, 1.50000000000000000000e+03) (8, 4.74604359655850771560e+01) (9, -1.19691449596793268029e+03) (10, 1.54656237899401194369e+00) (11, 2.67350018323083427063e+00) (12, 1.50000000000000000000e+03) (13, 1.43075110116776681934e+03) (14, 2.91321995013821899434e+00) (15, 4.16136114057562792823e+02) (16, 7.54297646198546889451e+00) (17, 1.15093977523249169082e+00) (18, 2.21159710187742009069e+00) (19, 1.50000000000000000000e+03) (20, 1.50000000000000000000e+03) (21, 1.49844003788781446929e+03) (22, 1.02241661999717603493e+00) (23, 2.02323861750958566841e-01) (24, 4.20943793107191410741e+00) (25, 9.36701083210054047390e-02) (26, -2.68746408465447750302e+00) (27, 3.73833244383762197671e-01) (28, 1.05295948620528531658e-01) (29, 5.53028195784855070016e-01) (30, -1.44001871648611017918e+03) (31, 6.71769848946135450518e-01) (32, -3.38812604152651297706e-01) (33, 1.49972798416963905765e+03) (34, 3.31552793175392457314e+00) (35, 5.72215510948684702441e+00) (36, -4.72231073546404908625e-02) (37, 6.31635682168349088528e-01) (38, -1.50000000000000000000e+03) (0, 4.19930457413927538113e-01) (1, 9.41601392797540182045e-01) (2, 1.19404463534587321760e+01) (3, -1.79601707834756707527e-01) (4, 2.09238510106631458996e+00) (5, 6.15726076038797143219e-01) (6, -2.71353199356805641074e+00) (7, 1.50000000000000000000e+03) (8, 1.92958742976920056833e+01) (9, -1.04521642543045049933e+03) (10, -1.19352313844932111930e-01) (11, 1.47266710472673253207e+03) (12, 1.50000000000000000000e+03) (13, 1.50000000000000000000e+03) (14, -3.62535500967252288795e-01) (15, 1.18018315370636486250e+02) (16, -6.55183669811333174948e+02) (17, 4.56737256786000023201e-01) (18, 1.26931943308242622948e+00) (19, 1.50000000000000000000e+03) (20, 1.50000000000000000000e+03) (21, 1.05102651327271544801e+02) (22, 1.27180730042224149656e+03) (23, 8.09617675792997093520e-02) (24, 3.72164338451245768624e+01) (25, -2.36473905661329836247e-01) (26, -2.43889183669444564728e+00) (27, 2.21407117978168005434e-01) (28, -4.31467472877910540596e-02) (29, 6.13347781842398909191e-01) (30, -2.82265472663795780051e+00) (31, 1.11155488353025244663e+01) (32, 9.23780547750670599783e+00) (33, 7.75001519081168339653e+02) (34, 3.33501204753687652271e+00) (35, 1.42406527339158839318e+00) (36, 4.92307925597858936362e-02) (37, -1.21351180643193376496e-01) (38, -1.50000000000000000000e+03) (0, -9.24897592744975516332e-01) (1, -4.86863363644421454079e-01) (2, -6.23983641952978382306e-02) (3, 1.35811497042039919236e+00) (4, 7.11840734054447810131e-01) (5, -5.54933323925628130269e+00) (6, 1.39184529320568739497e-01) (7, 9.90039330848043341859e+00) (8, 5.87837357067159532731e-02) (9, 2.86701066178007002438e-01) (10, 7.91139141027222936309e-01) (11, 1.25035069150771316338e+00) (12, -2.57267707837253745140e+00) (13, -1.08442417695004911238e+00) (14, -2.86356338311940383790e+00) (15, -6.81436764869779110221e-01) (16, -1.32459060758311597539e+00) (17, -1.27155111234436501988e+00) (18, 1.92469874801520307583e-01) (19, 5.15366080683659411044e-01) (20, 2.14023853837040300974e+00) (21, 3.34924360981825008921e+00) (22, 1.12943278876767805308e+00) (23, 4.82845624664877293153e-01) (24, -2.24659254382627171509e+00) (25, 4.56128362365505191089e-01) (26, 1.49465121494964003901e+00) (27, 3.82542344581808524406e-01) (28, 2.18026932239809045910e+00) (29, 6.86176152352702461990e-01) (30, 2.62799350183108781920e+00) (31, -3.67928969720276777267e+00) (32, 1.90537668125468184765e-01) (33, -4.67057375718153033883e-01) (34, 2.64093666342780242218e+00) (35, 1.78852269072655145621e+00) (36, -7.68447771248035593761e-02) (37, 1.12039621013328605237e+00) (38, 1.33341961826063548635e+00) (0, -1.06424797470940760147e-01) (1, 5.20050683922328671471e-01) (2, -1.06131059756750939504e-01) (3, 2.39229740559367787256e+00) (4, 1.57652810086271233381e+00) (5, 1.96804749634336295649e+00) (6, 1.44673246562064816700e+00) (7, -3.27641965607972540653e+00) (8, -3.89930873255243448661e-01) (9, 3.90584373882745472528e-01) (10, 5.79379032023666162843e+00) (11, 2.05806577753042230228e+00) (12, -4.98197601288600289138e+00) (13, 1.29225852608106772657e+00) (14, 4.28564494942814733225e-01) (15, 9.38822179901068087915e-01) (16, -2.57318910618338181351e+00) (17, -1.34521919564360170618e+00) (18, 6.89126233072959615278e-01) (19, 3.98193982196514528749e-01) (20, 8.48608506753689151303e-01) (21, -3.17951803808366795234e-01) (22, -1.11578667142966025949e+00) (23, 8.89990811432586799434e-03) (24, -5.24682601527315828349e-01) (25, -1.90930780702306290841e+00) (26, -1.07934789817569432024e+00) (27, -1.19083098827857503110e+00) (28, -5.74787029085192635591e+00) (29, 7.10628469645017579737e-01) (30, 4.31539358357561919632e+00) (31, -1.30372519110191564806e+00) (32, -5.31760089545012437640e+00) (33, -1.26880960198170494868e-01) (34, 4.67230837435135049063e-01) (35, -3.50329159220927111029e-01) (36, 6.56271310169047605854e-02) (37, 1.42323714388335709202e+00) (38, 6.87468519416841394865e-01) (0, 2.73855302405605870175e-02) (1, -4.73046391656336218112e-01) (2, -2.16592629629579613848e+00) (3, 6.76246760895751974907e-01) (4, 1.48247737416415414913e+00) (5, 2.45032373635851341565e-01) (6, 1.96409467457992398254e-01) (7, 3.51795527884668113305e-01) (8, 1.12132831638620067416e+00) (9, 3.99954124497787943948e-01) (10, 4.59382180334937550992e-01) (11, 3.08397823115363012292e-01) (12, -2.36349087049049444431e+00) (13, 4.06326464944950338509e-01) (14, 2.77919401593555659424e-01) (15, 3.63711619955379927838e-01) (16, 8.14812326836739875269e-01) (17, 3.47257022330051623449e-01) (18, 2.13988102412149133746e-01) (19, -3.60938097477654720735e-02) (20, -1.90856603069557456687e-01) (21, 1.95120710226416027577e-02) (22, 3.49117809639581000436e-01) (23, 8.86201828896179127915e-02) (24, -1.04954577360508019557e-01) (25, -1.57510474427951518983e-02) (26, 1.67440672534088208501e+00) (27, 9.90529156231765739449e-01) (28, -1.65935707413025212986e-01) (29, -4.23383740900820537689e-01) (30, 1.35998577173717372091e+00) (31, 2.80584743386790236297e-01) (32, -7.57206789672326824325e-02) (33, 4.21401629214300410542e-01) (34, -2.49949264277810973001e-01) (35, -1.21893916116707856645e-01) (36, 9.69705031787635590712e-02) (37, 9.87253974066939904430e-02) (38, 5.58848375661516794111e-01) (0, -2.71340590039144610723e-02) (1, 6.07431139786094587141e-02) (2, -7.92295428355981323776e-01) (3, 1.68750259385675938084e+00) (4, 4.01262451856925750349e+00) (5, -2.80187773036887854960e-01) (6, -5.30969525638137818113e-01) (7, -2.24911570736865018549e-01) (8, -1.26363903920816089688e+00) (9, 7.42752516811103546956e-01) (10, -1.28353216937200850789e-02) (11, 1.97145991325086389345e+00) (12, 1.17561084021282891143e+00) (13, 5.28616977768351414824e+00) (14, -1.29647622768836590090e+00) (15, -9.12976225359228954481e-01) (16, 2.84549023761092989560e+00) (17, -2.11536054506378334850e+00) (18, 5.23497232733730943899e-01) (19, -4.28284015013541630168e+00) (20, 4.47048151697069073851e-01) (21, 3.34629617265635204149e+00) (22, 6.70003907565796419377e-01) (23, 7.58839938940370717368e-01) (24, -1.66381916670935270375e+00) (25, 2.98439861961376229349e-01) (26, 2.76141390202379088947e+00) (27, -1.97487691810952603610e+00) (28, 2.83979593498547622232e-01) (29, 1.19453975710123017073e+00) (30, 1.85395700926710788048e-01) (31, 1.36568118015284101219e+00) (32, 3.42804067299390002876e-01) (33, 1.65261766801091863899e-01) (34, 8.73046777740061230588e-01) (35, 5.87222267842228862200e-01) (36, -7.87314965019019208370e-01) (37, 1.51841255678707848231e-01) (38, 1.16980247748214383208e+00) (0, 5.16199867874091777864e-01) (1, 1.49121249377579101747e+03) (2, 8.05203742432453623223e+02) (3, 4.73143992558949344485e-01) (4, 5.72735052032577058867e+01) (5, 2.14714328115772090655e+00) (6, -3.45866360874552247751e-01) (7, 1.50000000000000000000e+03) (8, 2.11647624898285009465e+01) (9, -1.28101949673343005998e+03) (10, 5.11094132226560415866e-01) (11, 1.42323328274752958222e+00) (12, 9.49313010758183217774e+00) (13, 7.20821458680340612091e+01) (14, 1.02244220552963185900e-01) (15, 1.22094242386399201905e+02) (16, -7.34067080244102072584e+01) (17, 5.07764078990672329539e-01) (18, 1.06276360356011845276e+00) (19, 1.50000000000000000000e+03) (20, 4.81880223634180926418e-01) (21, 1.49844003788781446929e+03) (22, 2.70136978788091264292e+00) (23, 1.79132890397201316457e-01) (24, 1.49958942763159802780e+03) (25, -4.08201446154091818208e-01) (26, -1.55889222627057866255e+00) (27, 5.67419726021438641794e-01) (28, 6.99710819624484559043e-01) (29, 4.36019092169162902906e+01) (30, -8.46912612431954983094e+01) (31, 5.09992041989315247896e-01) (32, 8.71788914939465620080e+00) (33, 1.50000000000000000000e+03) (34, 3.90165757857262747166e+01) (35, 3.72324701552470838095e+00) (36, -1.40315564110411988841e-01) (37, -1.40385036157667419943e+00) (38, -1.50000000000000000000e+03) (0, -1.25307972775641340846e+00) (1, 6.45945985062105765273e-01) (2, 5.49848650129222238370e-01) (3, 5.28641605847024909082e-01) (4, 1.35537808389221114957e+00) (5, -1.67628673461630639530e+00) (6, 6.55138264004396231321e-01) (7, 1.24314080403096993699e+00) (8, 1.14824437256373657057e+00) (9, -1.64922459574951973948e+00) (10, 1.36619915585563383997e-01) (11, 2.23377757658055697831e+00) (12, -1.78398660986653445626e+00) (13, -8.03083045916673565756e-01) (14, 1.09024686463758713195e+00) (15, -2.45734360409612800913e-01) (16, 4.91173414495632343346e+00) (17, 8.37228997377282291303e-02) (18, 9.68782193122150747655e-01) (19, -6.88279301168775003994e-01) (20, -1.61951648810216819463e+00) (21, 3.04125223654849996535e+00) (22, 3.73958967125639307749e-01) (23, 2.02016108319228360202e+00) (24, -2.91672963055609191230e+00) (25, -2.05074497138622247050e+00) (26, 3.90589054921725065128e+00) (27, 8.05053619236347772770e-01) (28, 3.62746583839092362478e-01) (29, 4.85361534387270032731e-01) (30, -7.50971601009201350507e-01) (31, 1.73400255481825166237e-01) (32, -6.51014931699035015455e-01) (33, -9.50165562766237536962e-02) (34, 2.32463159769390781406e+00) (35, 1.85456757118657988848e+00) (36, 4.99504515448862385085e+00) (37, -6.11162579774802483534e-01) (38, 8.84974486678641175663e-02) (0, 4.95264101767875886129e-01) (1, 1.13922369072054174843e+00) (2, -3.86520914745794239020e-02) (3, -5.99651670606123787799e-01) (4, 6.07853156687069184905e-01) (5, -8.10210744710982644357e-01) (6, 5.06973807786593511082e-01) (7, 3.86746222606149270273e-01) (8, -3.03897748487420515939e-01) (9, 1.05975545631108047928e+00) (10, 1.52828108886689600920e-01) (11, -6.12356070053599377268e-01) (12, -1.51481811806933930331e-01) (13, 7.32284069544843707611e-01) (14, -3.16599007242572128007e+00) (15, 3.17005864212416943460e-01) (16, 1.01515239430641401874e+00) (17, -9.60782830548892463618e-01) (18, 2.37662254658335209134e-01) (19, 1.09569020280164375336e+00) (20, 2.77008478214755005098e+00) (21, 9.81296650552859403560e-03) (22, 1.19004320094449700385e+00) (23, 3.08304922937481740153e-01) (24, 5.88711805553380429501e-01) (25, -5.28386652491251163077e-02) (26, 4.15684507763067490060e+00) (27, 4.15492954840630801527e+00) (28, -2.19220470371894915473e+00) (29, -1.54187071576488782254e-01) (30, -1.71265180775181130590e-01) (31, 2.25376658674384255931e+00) (32, -9.33870488921503150159e-01) (33, 4.59792150732448834383e-01) (34, 2.73010981384112438874e+00) (35, 1.91132318491042907382e+00) (36, 3.14307327384488396915e-02) (37, 7.53834132631482800591e-01) (38, -2.12937226547157937295e-01) (0, 6.39846254259234387129e-02) (1, 3.74259280883158865216e-02) (2, -6.41757919237664120615e-01) (3, 6.71928433519642931415e-01) (4, 4.00776210708273072925e-01) (5, 4.38962771092341885737e-01) (6, 1.03509037569316220129e+00) (7, 1.54049133989652942134e+00) (8, 1.91254609683024878741e+00) (9, 7.79180345042835753588e+00) (10, -5.30516679290937154256e-02) (11, -1.77896727697534284829e+00) (12, -7.18630447911233538605e-01) (13, 5.52447936360612157358e+00) (14, 1.49168849322801144730e+00) (15, 5.18176568405095672176e+00) (16, 1.85467025439367749762e+00) (17, 2.41342995564441803458e-01) (18, -5.91354328337675649863e-01) (19, 4.21519267241678152747e-01) (20, 2.14955894321806312286e-01) (21, -5.20348278030787619874e-02) (22, 1.22953289923512565363e-01) (23, 3.78140833398321676850e-02) (24, -1.08193864238108242160e-01) (25, 2.12022528315932712317e+00) (26, 2.18581335608508098289e+00) (27, 1.72608487716077729779e-01) (28, 1.88262347310814881496e+00) (29, 9.72702852378535924582e-03) (30, -3.10659880223806417199e-01) (31, -9.44110389656646446788e-03) (32, -4.59427351649302706527e-01) (33, 1.78065955630735728299e+00) (34, 4.26399025469243309061e+00) (35, -1.04035517111189257378e+00) (36, -1.34193280588414021182e+00) (37, 2.65457614068100034022e-01) (38, -2.68549690938425678066e-01) (0, -4.97053451098524445850e-01) (1, -6.32635578293083034040e-01) (2, 2.76217545650989160233e-01) (3, 4.02913631097673707870e+00) (4, -1.23621416767827438377e-01) (5, 6.91640679982118311564e-01) (6, -9.87381182773643728545e-01) (7, 3.02422491250489366976e+00) (8, 1.26867253441081961896e-01) (9, 1.10035599755483892714e+00) (10, 3.28563695108552611401e+00) (11, 1.17806693451463373457e+00) (12, 3.72178496027970817650e+00) (13, -2.60893733722985354806e-01) (14, 9.43760268678263125608e-01) (15, 1.91836324103324157297e-01) (16, -3.51828867323881411266e-01) (17, -2.42389343063350359841e-01) (18, -1.12708164321448967016e+00) (19, -7.42554442083438875910e-02) (20, -3.26624769358715116851e+00) (21, 8.39566898482985379815e-01) (22, 3.80649785802579643246e+00) (23, 7.72850040593194981264e-02) (24, -1.47252262090801860905e-01) (25, 1.40177203014585138874e+00) (26, 6.89329252412902659941e-01) (27, -7.01475844193593212061e-01) (28, 5.59281467365730144969e-01) (29, 7.41027334183079200436e-02) (30, -3.25599657088143867867e+00) (31, -3.10384584598443535874e-01) (32, 3.15096281471964612120e-01) (33, 5.59499961554660862895e-01) (34, 1.02368750391336171823e+00) (35, 2.92627001191732727392e+00) (36, -5.69449324201553253033e-01) (37, 9.20166160780439001954e-01) (38, -9.09765900619900369506e-01) (0, 2.59091382632761346727e+00) (1, 1.41242658837147661011e+00) (2, -7.07280441719518093713e-01) (3, 1.54382296595850099230e+00) (4, 4.51308605905357096422e-01) (5, -6.08949292831357902323e-01) (6, 8.21898771083765078416e-01) (7, -4.45637967964173375979e-02) (8, -4.39896636761972770202e-02) (9, 7.31813901114325843222e-02) (10, 1.33638464826764424842e+00) (11, 2.50237415876053148622e+00) (12, 1.22027070166294748788e+00) (13, -1.51770513862057088161e-01) (14, 1.10914348341379809249e-01) (15, 1.52021946716150324619e-01) (16, 1.19388104614326207020e+00) (17, 5.03863606320116108606e+00) (18, 3.28133998357648382083e+00) (19, -1.20416109116683833768e+00) (20, -1.42305144861869004025e+00) (21, -1.44313731506814368899e-01) (22, -6.90563775434803295283e-01) (23, 1.52086179696096368552e+00) (24, 4.58289689504581687629e+00) (25, 2.73767098026103883335e-01) (26, -8.10249205234443325985e-01) (27, 1.13298374757598940832e+00) (28, 2.46686757153493374517e+00) (29, -2.74059586593932413834e+00) (30, -1.81431245403991669995e+00) (31, 1.04249506087851662173e+00) (32, -2.64707851840601282589e+00) (33, 4.11364258678698413441e-01) (34, -1.32359531035454947023e+00) (35, -1.46653401948078210282e+00) (36, 7.80102984952061984103e-01) (37, 2.16517904396215765672e+00) (38, 1.37731050309212676996e-01) (0, 2.50792793762590837670e-01) (1, -1.74271131026782333251e+00) (2, -4.34659009590702360981e+00) (3, -8.40882651910448281063e-02) (4, -2.05799820562749058439e+00) (5, -1.97498039309275310454e-03) (6, 5.10778566371740971874e+00) (7, -4.82904400560838553691e-01) (8, 1.14003583014763076875e+00) (9, 3.34147248270897412326e+00) (10, -9.52195548496574506459e-01) (11, 1.18309140710548144071e+00) (12, 3.83814260933233120099e-01) (13, 4.86279308584390834724e-01) (14, -2.90689552617567859016e+00) (15, 8.68903625893385433976e-01) (16, 6.69685286926726353052e-01) (17, 5.52764230311918569605e-01) (18, 7.98360445576278832114e-01) (19, 1.10553704936104124634e+00) (20, 5.90861950418093639925e-01) (21, -1.63010035533276820274e+00) (22, 8.85503324173479877679e-01) (23, -2.38164675292291128095e-01) (24, -5.26812686027134158273e-01) (25, -1.89194063206969054214e+00) (26, 5.83873447001570511361e-01) (27, 1.50642809469586369531e+00) (28, 2.72434658673502028137e-01) (29, -3.21994528617078890065e-01) (30, 2.47793486252337391562e+00) (31, 1.10337670791763864386e+00) (32, 1.19344473602522690991e-01) (33, -1.20543046053630767411e-01) (34, -1.49348795743877560405e+00) (35, -1.22862919917949309223e+00) (36, -1.41781712571210083418e-01) (37, 3.60801026050675632817e+00) (38, 9.69804173206173292243e-01) (0, -2.95447228644991677360e-01) (1, -3.18088970175323448863e-01) (2, -1.42321334902096707786e+00) (3, 6.14974503738824562760e-01) (4, -3.30079362998965386566e+00) (5, 4.41578199291533923798e+00) (6, 7.60227668108039655870e-01) (7, 6.78597878746603822009e-01) (8, 4.68016605283151809758e-01) (9, 6.33004402351018624628e-01) (10, 2.12825203684440200647e+00) (11, 2.57215607535384235827e-02) (12, -1.94293815591795371311e+00) (13, -3.40698002550801903876e-01) (14, 5.94817230464665058776e-01) (15, 6.97038849904037860483e-01) (16, -1.57260310316386875407e-01) (17, 4.00713482893971217891e+00) (18, 4.37524343474602694926e+00) (19, -4.14392731623261312279e+00) (20, 1.97923168822021300350e+00) (21, -4.13696897786032136146e-01) (22, -2.15583610454198959516e+00) (23, 4.99772961508746713100e-02) (24, -1.41812018407084322602e-01) (25, 3.34820685142570073634e-01) (26, 4.00067457143561977517e+00) (27, 1.69701249230341466578e+00) (28, 2.26693634356933126917e-01) (29, 1.59988701916365383404e+00) (30, 2.49989989190852218703e-01) (31, 2.12703877196204177435e-01) (32, 1.37159446266586915186e+00) (33, -2.75480839557511958393e-01) (34, 1.90812756801645044824e+00) (35, 8.69667560360408264941e-01) (36, -7.65290436708264243393e-01) (37, -2.67696309643411012313e-01) (38, 1.92466092413308142994e-01) (0, -6.43276956369662422652e-01) (1, 1.62946602168979004510e+00) (2, 6.98316368590892633250e-01) (3, 7.27871667530142429925e-01) (4, 1.21958231828333582558e-01) (5, 1.63410929328285359219e+00) (6, 6.36115588705402745795e-01) (7, -6.21722503742993315434e-01) (8, 8.73217076804056024919e-01) (9, -7.88686768655952330498e-01) (10, -1.19066305404944383639e+00) (11, 8.51611016358940764448e-01) (12, 7.75842361035348093701e-01) (13, 4.48126620702545719332e-01) (14, -8.95259057695142357325e-01) (15, 3.38899068971425854180e-01) (16, 5.66681436093004475829e-01) (17, -4.91149455379328914173e-01) (18, 7.42023995079700182664e-01) (19, 9.59307894722865484027e-01) (20, -2.22746204186647034362e-01) (21, 1.43068858384440100728e+00) (22, 2.28116014013871959420e+00) (23, 6.05356615116022789280e-01) (24, 1.04502169755919978311e-02) (25, 6.52010565546535136860e-01) (26, 9.13955262433882031914e-01) (27, -2.48226642081502829607e-01) (28, -6.79719673874338958797e-01) (29, 1.15793317060859113354e+00) (30, 2.65969079222609539048e-01) (31, 1.50785491508076685552e-01) (32, 2.71048731467267919881e-02) (33, 1.10153437924574837403e+00) (34, 9.60834450153048441612e-02) (35, 8.25871646136209225375e-01) (36, 2.62625337296410243937e-01) (37, -1.78512229670682920357e-01) (38, -2.32143231277507133825e+00) (0, 1.83512896201374120508e+00) (1, 1.14541507136510989362e+00) (2, 7.10754795687225882084e-01) (3, 3.76351837376626474629e-01) (4, 5.02453278827679650220e-01) (5, -1.04715814693153386195e+00) (6, 2.56312189443063553895e-01) (7, 8.35541653337218082065e-01) (8, -7.81503034899241000311e-01) (9, -3.39391457736023416381e-01) (10, -3.87612033239390918471e-01) (11, -2.84814434485536205344e+00) (12, -1.70303278710728589473e-01) (13, 3.83035951770269722516e+00) (14, -1.79854824295125087508e-01) (15, 1.18677556517071597364e-01) (16, 3.97331143493559302282e-01) (17, -7.42184398077343931988e-01) (18, 3.06120646214967218057e+00) (19, -3.11306084719873643607e-01) (20, -8.50734650568486239219e-02) (21, 2.91622170035664186882e-02) (22, -6.75790506741404328750e+00) (23, 3.59212888130278629184e-01) (24, 2.18641893209342519366e-01) (25, 2.19048689600403667654e+00) (26, 2.05034001020525735726e+00) (27, -3.66927026201895600810e-01) (28, 3.18984494193252254846e-01) (29, 7.07810071347683811283e-01) (30, 1.85832344848802688553e+00) (31, 2.87593325620303263968e-01) (32, 2.97377714021837380454e-01) (33, 3.51259816824465775920e-01) (34, -4.44042035027851500484e-01) (35, -1.13333723908581740503e+00) (36, 2.17449967237258789954e-01) (37, 3.22393315824826998117e-01) (38, -1.40357064692891303492e-01) (0, 3.65422491488843481644e-01) (1, -4.25174161603744993343e-01) (2, -3.87259839325342525296e-01) (3, 3.75675848409881107948e-01) (4, 2.73635691858469609627e+00) (5, 5.44655616991774671476e+00) (6, 3.64517113587576324640e-02) (7, 3.85029736760804819351e-01) (8, 1.43782484570050383965e+00) (9, -3.21310815723482479100e+00) (10, 2.24915888757322185443e-01) (11, 5.33708263552464146073e-01) (12, -4.55645782644988547871e-02) (13, 5.64959380491895646337e-01) (14, 5.14385950659179913558e-01) (15, 6.40313030209645805968e-01) (16, -3.71638703401675429827e-01) (17, 5.54006100389070610390e-01) (18, 1.65588393275913126068e-01) (19, 1.37568002975268433019e+00) (20, 8.59714635983320984991e-01) (21, 2.81500152647199908262e-01) (22, 5.10513014031729883691e-02) (23, 1.39666431423566411718e-01) (24, 9.98793737485286770017e-01) (25, -6.62065355401033651950e-03) (26, -7.76424661985388397945e-01) (27, -3.60749254907527605596e+00) (28, -2.30542207844216529011e-02) (29, -8.99541965139320165434e-01) (30, -4.89470921525056584800e-02) (31, 3.68961912132522107388e-01) (32, 7.11739826105638795362e-01) (33, 1.74168722321815433451e-01) (34, 1.47339223922579831694e+00) (35, -8.33210707114672599616e-01) (36, -5.72472105965648014880e-01) (37, 2.01188634957445966478e+00) (38, 8.11862966825592780040e-01) (0, -5.64723944125645610503e-02) (1, 8.97057687747750631679e-01) (2, 1.07123411614995891483e+01) (3, -9.09850178851909774380e-01) (4, 1.37288170866826031435e+00) (5, 7.04502785196829073300e-01) (6, -5.44984282524454101804e+02) (7, 1.50000000000000000000e+03) (8, 3.67306490229767912403e-01) (9, -9.38176755543598005715e+02) (10, 3.42496711042884205423e-01) (11, 1.02018570227498450720e+01) (12, 1.50000000000000000000e+03) (13, 1.50000000000000000000e+03) (14, 9.40306064428944821110e-01) (15, 1.50000000000000000000e+03) (16, -1.49879958033609204904e+03) (17, 3.69001007881315867820e+00) (18, 1.97000996139855977241e+00) (19, 1.50000000000000000000e+03) (20, 4.15390345434947619196e+02) (21, 1.49653409010646737443e+03) (22, 7.37663215090326751522e+00) (23, 1.04482765155507389965e-01) (24, 2.25570389084019424786e+01) (25, -1.28427916587734909371e+01) (26, -2.41644544448874482034e-01) (27, 5.14637130025396682953e-01) (28, 1.02338089002245211101e-01) (29, 1.12458877875060974105e+01) (30, -5.18966775058157850253e+02) (31, 7.54353903694440663941e-01) (32, -5.96648395365353079178e-01) (33, 1.71007662859232283381e+02) (34, 4.82282288401741368489e+02) (35, 1.75862316427050552337e-01) (36, -5.59755930492918454822e-02) (37, -2.16703550781237055389e+01) (38, -1.50000000000000000000e+03) (0, -8.29481769638233057407e-01) (1, 8.52284490378899861618e-01) (2, 3.38112472577879630276e-01) (3, 1.80536549075540486697e+00) (4, 9.09524466866323155756e-01) (5, 4.11575061237900607924e-01) (6, -4.51836659115693872746e-01) (7, 3.33194223530777822173e-01) (8, 1.55551967621864806191e+00) (9, -1.06432850852032312439e+00) (10, 6.29176466149395374750e-02) (11, 1.20208593769117211281e+00) (12, 5.87355776256366479693e-01) (13, -2.63325609729842924356e-01) (14, 1.98530671738831809847e+00) (15, 8.89714100390361584125e-01) (16, -1.69475843681437754462e+00) (17, -8.28867871503618069973e-01) (18, 2.38715711859854451404e+00) (19, 1.13537283022774126984e+00) (20, 1.76017105444685600935e-01) (21, 4.03019485863138238191e-01) (22, 8.66630063333213240817e-01) (23, 9.66843429046632674151e-01) (24, 1.10976401889563258685e+00) (25, 5.31761794304830504032e-01) (26, 1.01417617742724597285e+00) (27, -2.31409394663726480923e-01) (28, 1.41809942926492515980e+00) (29, 5.08054237382545181845e-01) (30, 8.26828449768716389201e-01) (31, 1.01687869744688375029e+00) (32, 4.55735552531688764555e-02) (33, 1.25727881899265692134e+00) (34, 1.93626296113763496365e+00) (35, 7.12399684664544619039e-01) (36, -1.93051828680801174087e-01) (37, 5.97932187619999999662e-01) (38, -5.68511330817991988873e-01) (0, -4.45749168033149179013e-01) (1, 3.73567386818992652753e-01) (2, 1.26594830623710863371e+00) (3, -9.45514655616610855127e-01) (4, 7.27598496852689358150e+00) (5, -1.19870159891379479689e+00) (6, 1.38499534514896427417e+00) (7, -1.47620558175686644731e-01) (8, 9.73383224371186239754e-02) (9, 2.37322576372085958241e+00) (10, -3.19133553451383777944e-01) (11, -2.62409081708420899304e+00) (12, 4.06051344337590380817e-01) (13, -1.78150216774625680394e+00) (14, 2.66365262400994229353e+00) (15, 6.35864938051065253788e-01) (16, 1.84297696065524974074e+00) (17, 6.22863636166108958214e-01) (18, -4.38788315235272841086e-02) (19, 3.26139611321917799458e+00) (20, -3.22828696801336745281e+00) (21, -1.53192409464094569937e-01) (22, 1.48332965913087466703e+00) (23, -3.86542114945449655217e-01) (24, 1.70607037761113411456e-01) (25, 3.45395483007391104757e-02) (26, -5.59794733260649879369e-01) (27, 1.54820388339493825169e-01) (28, -5.37941432493722504482e-01) (29, 2.95544013531428317876e+00) (30, 3.39257662609668431131e+00) (31, 3.71808322067049945581e-01) (32, 1.84751661256885668649e+00) (33, 4.14255488377705538561e-01) (34, -7.30455727849545488617e-01) (35, 2.59428675717947809787e+00) (36, -7.37792669614803275913e-01) (37, 3.43192328372926735991e-01) (38, 3.54906887872144694018e-01) (0, 2.70077958212433175134e-02) (1, 1.97528158045470725312e+01) (2, 1.96176641428117690680e+01) (3, -7.45481051619202750302e-01) (4, 2.65588137714706351566e-01) (5, 5.60626784813694030163e+02) (6, -5.80003337359064818912e+00) (7, 1.50000000000000000000e+03) (8, 1.15322833680321949146e+02) (9, -2.42853715003540706618e+01) (10, 3.78385315247333153810e-01) (11, 5.69727329186449304999e-01) (12, 1.50000000000000000000e+03) (13, 8.88706416598893724768e+02) (14, 2.91416918656283774336e-01) (15, 4.45201922807834993279e-01) (16, -4.35682390399554208216e+02) (17, 3.82200190034790374116e-02) (18, 1.54823395874500180369e+00) (19, 1.50000000000000000000e+03) (20, 2.16266375412751244767e+02) (21, 1.74072217022796649211e+00) (22, 1.50000000000000000000e+03) (23, 4.34234402462977064907e-01) (24, 2.70322506496579162416e+00) (25, -1.67363057900586614801e-01) (26, -2.31849959262574500940e+00) (27, 2.59684321854397937024e-01) (28, -4.11712323124324015566e+01) (29, 4.51627233812041326000e-02) (30, -1.32839288954281475874e+00) (31, 3.97042306055827520783e-01) (32, -4.29348399907865463376e+00) (33, 1.30829144185549716894e+03) (34, 5.86946258462503678288e+01) (35, 8.26061499680399879963e-01) (36, 1.74483493116365129261e-01) (37, -4.26557001036197841470e-02) (38, -1.50000000000000000000e+03) (0, 3.35458551769826918143e-02) (1, 1.29361838876196211245e+00) (2, 3.05621534140174899719e+00) (3, -3.22688300204523881298e-01) (4, 1.15639274689291715603e+00) (5, 8.25471534872867174215e-01) (6, -2.29605735280416851651e+01) (7, 1.50000000000000000000e+03) (8, 1.07588085229026706457e+01) (9, -1.50000000000000000000e+03) (10, 4.41741691882354237109e-01) (11, 2.73429138991985212215e+02) (12, 1.50000000000000000000e+03) (13, 1.50000000000000000000e+03) (14, -8.39803089359362542332e-01) (15, 1.50000000000000000000e+03) (16, -9.19116516615888031083e+02) (17, 4.89052577759976903060e-01) (18, 1.08141089812319335373e+00) (19, 1.50000000000000000000e+03) (20, 1.50000000000000000000e+03) (21, 1.49998050425529959284e+03) (22, 1.50000000000000000000e+03) (23, 9.65886335656967881524e-02) (24, 3.34130573527459432626e+02) (25, -3.77923477896561177403e+00) (26, -2.13798559362504192460e-01) (27, 4.20528375308630464335e-01) (28, -2.66592414743064853866e+00) (29, 4.20556416137938815503e-01) (30, -1.72900220698937914676e+02) (31, 4.51957106284371068483e+00) (32, -1.44233068944680447032e+01) (33, 3.54022180595165325556e+00) (34, 2.50874051813640875253e+02) (35, 2.71571098355407247738e+00) (36, -4.03607610602826211155e-02) (37, -2.89762420137780862817e+00) (38, -1.50000000000000000000e+03) (0, -6.26771639565306126762e-01) (1, 4.91489305334242600198e-03) (2, 2.57691526061754005994e+00) (3, 7.22232322051177488831e-01) (4, 4.62928337997947469962e-01) (5, 1.45230068987632665589e+00) (6, 3.64870497118228276356e-01) (7, 1.22934234128758723692e+00) (8, 2.18303179412032560824e-01) (9, -1.31244106054108855552e+00) (10, -7.95388272345563668297e-02) (11, 1.75763473537696346405e+00) (12, 1.18131149287871961562e+00) (13, 7.43321287330998781151e-01) (14, 1.82317565728264541214e+00) (15, 1.95997518429533590378e+00) (16, -7.53530500261330726808e-01) (17, -2.49287617864250909960e+00) (18, 4.16128905369228641042e-01) (19, 1.19718161237012798992e+00) (20, 2.86655493308364084371e+00) (21, 1.86299328953535431319e-01) (22, 2.98911605440461136673e-01) (23, 6.87244514798117323018e-01) (24, 5.30427676314532137170e-01) (25, 1.11904447281289926019e-01) (26, 2.67541557925264683604e+00) (27, 2.11860172693207227113e+00) (28, 4.45203835288444649265e-01) (29, 3.63291322798773574920e-01) (30, -2.34581326831543268696e+00) (31, 2.13711828298045558583e+00) (32, -1.93764216718421589114e-01) (33, 3.56689927716833166116e+00) (34, 3.20649546535849960804e+00) (35, -8.03638779563296101749e-01) (36, -2.08851198068926408036e-01) (37, 2.65039995200904821004e+00) (38, -1.52868242348603522451e+00) (39, 2.87393760979165069358e+00) (40, 1.18292714486228001114e+00) (41, 7.74821256066270502849e-01) (42, 2.35967516481382189042e+00) (43, 1.46011878461726896106e+00) (44, 1.45406550825723401843e+00) (45, 5.77434804409360591393e+00) (46, 1.50820857603853775153e+00) (47, 1.82433155851562028849e-01) (48, 7.17121992970414567914e-01) (49, 2.95350650383248636288e+00) (50, 3.24483072094456259649e+00) (51, 7.99805347586580062114e-01) (52, 1.42433877700596256410e+00) (53, 4.91841801386154742204e-01) (54, -5.41006810814418237499e+00) (55, 6.89628650213189531293e-01) (56, 7.90827725792833002849e-01) (57, 1.89366691017575350386e+00) (58, 2.56377918463185583420e+00) (59, 4.96040299519140859275e-01) (60, -5.62780031984717377114e-01) (61, 8.05392463470407271586e-01) (62, -3.30283653973015978167e+00) (63, 3.27843509890931139594e+00) (64, 2.12013237573249702095e+00) (65, 6.72891298178344143821e-01) (66, -5.02536694316887480594e-02) (67, 3.42397016502186291032e-01) (68, 4.54419905250068811853e+00) (69, 5.25202809201537501593e-01) (70, 1.72500019804343951435e+00) (71, 6.07709977096415432385e+00) (72, 1.15678822676987613782e+00) (73, 2.76670756624906866161e-01) (74, 3.00727097687154820704e+00) (75, 8.01471006632753946164e-01) (76, 6.63383361662335913067e-01) (77, -4.79210443181368114796e-02) (78, -1.05136846744744172355e+00) (39, 1.81009264222883836659e+00) (40, -2.83346858218657438044e+00) (41, 1.34584287290268789228e+00) (42, 8.71122579426661242108e-02) (43, 3.52513625358735704918e-01) (44, 7.10043192732452088656e-01) (45, -7.44444386501212362894e-02) (46, -4.39378724918294438773e-01) (47, -2.80647072785269124928e-01) (48, 6.44224140358011898577e-01) (49, -1.93227177468110311587e+00) (50, 1.44401227310800450709e+00) (51, 8.58212825274048962676e-01) (52, 5.19208372201216183939e-01) (53, -9.88528818633735095744e-01) (54, 2.27061530136945277647e+00) (55, 1.34711440388852010663e+00) (56, 1.31957091872387777265e+00) (57, 5.11275299036230190808e+00) (58, -5.60502097389321329857e-01) (59, -8.08712567196199749731e+00) (60, -3.66535017083630076939e+00) (61, 5.89340763745319295985e-01) (62, 4.22848953412609640523e-01) (63, -2.55975805737271233653e+00) (64, -2.02536503102402232201e+00) (65, -1.57352149541674002364e+00) (66, 5.42708129708651298984e+00) (67, 3.95178618481030730081e+00) (68, 6.17226016323120507678e+00) (69, 5.46012655588242301619e-01) (70, 6.00194184746537517938e-01) (71, -2.72990577762642327997e+00) (72, 1.16476729257892119840e+00) (73, 3.41845940386283464463e-01) (74, -6.99973680756213911813e-01) (75, 9.53455740048759547989e-01) (76, 7.76857710276171564701e-01) (77, 1.60458087400839000125e-01) (78, -3.86597136241592620465e+00) (39, 4.10897941663620613895e+00) (40, -2.37795570321703036987e-01) (41, 1.36174524371305705195e+00) (42, 6.06395151207169469387e+00) (43, 1.13463417130214461181e+00) (44, 8.48848521638960518132e-01) (45, 1.58026329653745689630e-01) (46, 4.96868235324980123124e+00) (47, -1.33881384014801807503e+00) (48, 1.39963047002235629890e+00) (49, 3.54957785521427293673e+00) (50, -1.26487637542860231754e+00) (51, 1.04605589089075134979e+00) (52, 6.80060070313138642639e-01) (53, 3.88632884118376376037e-01) (54, 3.59800501671232764167e+00) (55, 1.07932020005861328826e+00) (56, 1.17668712153134635834e+00) (57, 1.60726013456653404887e+00) (58, -4.59620725549027497880e-01) (59, 1.01243960323010373514e+01) (60, -4.04459101126167563933e+00) (61, 1.41418306325355747077e+00) (62, 4.29454130871765482613e-01) (63, -3.25099278165256688755e-01) (64, -2.02165631423261737964e+00) (65, -8.86982272540372984615e-01) (66, -1.23212331465185687129e+00) (67, 1.03195263907662382330e+00) (68, -3.34312410330681242243e+00) (69, 1.00562102181073664831e+00) (70, 7.32867866039357718222e+00) (71, 3.49808579560727572755e+00) (72, 1.32578749005476215217e+00) (73, 5.63892931702083322065e-01) (74, -4.49709162412863427960e+00) (75, 1.20272542943585758479e+00) (76, 1.08237497895059897601e+00) (77, 6.01240445904872466976e-01) (78, -2.19626884627280860585e+00) (39, 5.78044678220294261273e-01) (40, 6.39890574018016078384e-01) (41, 7.62820712873611417315e-01) (42, 8.59075687796303277821e+00) (43, 9.46788316915752603542e-01) (44, 1.44055202475367361004e+00) (45, 2.89285666837543697927e-01) (46, 2.52552453399242304855e+00) (47, -2.29414636199121790838e+00) (48, 7.82645947882804837725e-01) (49, 2.18223495299980818629e+00) (50, -7.20581092774992715277e-01) (51, 7.40492269048366513751e-01) (52, 5.06242019881526505998e+00) (53, -1.60278040953323297479e+00) (54, 4.68247338448780581199e-01) (55, 8.35478998372230496905e-01) (56, 6.91510647186908911088e-01) (57, -7.96113544562333963484e-01) (58, -3.02867245254334171989e-01) (59, -3.16284371442155043397e+00) (60, -8.21700923482589738744e-03) (61, 7.48277336010608640215e-01) (62, 4.00060032433941017982e-02) (63, -3.49357296144467621701e+00) (64, -1.89924626171090560334e+00) (65, -9.93553144174897484575e-01) (66, 7.94860533292065962740e+00) (67, -2.11623824740264510069e+00) (68, 2.03255698385165634035e-01) (69, 2.00903082125499093946e-01) (70, 5.48767592453248198581e+00) (71, -5.19564026001224110729e+00) (72, 1.25204180875507753434e+00) (73, 2.92561573667574126301e-01) (74, 9.65145336354367056053e-01) (75, 1.39949167715296640679e+00) (76, 7.05370295444402661822e-01) (77, 3.14657224055686024489e-01) (78, -1.17473094976149061708e+00) (39, 1.01198149019953520522e+00) (40, -3.71792847212166543969e-01) (41, 2.87044769750723349766e-01) (42, 3.60901558454393978081e-01) (43, 4.78083060757909017457e-01) (44, 5.46673888220545411976e-01) (45, -1.24492929942356966855e+00) (46, 1.37058335197101310854e+00) (47, 7.61204406400113420261e+00) (48, 3.17468312139407127237e-01) (49, -3.74248352494430003290e+00) (50, -4.61298282894962885514e-01) (51, -7.54980583442382141568e-02) (52, 2.56546027134654224255e+01) (53, 1.04792359847829841257e+00) (54, 2.32737714272456264197e+00) (55, 1.67069818126030465721e-02) (56, 3.00639292822966142094e-01) (57, 2.73590589716676335641e+00) (58, -4.55050214289989374272e-01) (59, -7.31238557838293701252e+00) (60, 3.40014840031873211146e-01) (61, 1.92432406024822227897e-01) (62, 4.87187494179573798991e-01) (63, -2.66858396904727745991e+00) (64, -1.09183180294133963528e+00) (65, -9.41130708143964866963e+00) (66, 1.82203527554007727041e+00) (67, -3.49061055602696308081e-03) (68, -1.17652572792224807685e+00) (69, 6.72106821355629713288e-01) (70, -7.00287164634861958312e-01) (71, 3.54202362289824845831e+00) (72, 2.37221459113641369720e-01) (73, 5.64456616365483609954e-01) (74, 8.68404425827380954672e+00) (75, 4.21211799650746343548e-01) (76, 3.36218046211286925029e-01) (77, 2.66401579716256886599e-01) (78, -7.85460272138923665253e-01) (39, -2.69948871889899733034e+00) (40, 5.34278602553228676442e+00) (41, 1.55676910509842603147e+00) (42, 1.99757942123056142503e-01) (43, 8.42991687912759357637e-01) (44, 7.53834692808551531940e-01) (45, 8.05852718504165110858e+00) (46, 2.18198551701041187911e+00) (47, 6.39292074076415772765e+00) (48, 1.60742989411133496702e+00) (49, 1.33756002849910315966e+00) (50, 2.34144295709493244217e+00) (51, 1.01386237451539473753e+00) (52, 1.31103745519006997799e-01) (53, -1.91182690648056180516e-01) (54, 3.35349148971748922676e+00) (55, 1.53852527817267148436e+00) (56, 1.63447618713158338011e+00) (57, -2.64297055091431420948e-01) (58, -6.32393095350135991950e-01) (59, -1.68286148888876097018e+00) (60, 2.05232356559912093585e-01) (61, 1.50387423341649739683e+00) (62, 5.06692993188585960596e-01) (63, 1.30969394128331440008e+00) (64, 1.82206026288941447255e+00) (65, 2.79070205197070464465e+00) (66, -1.78770206801369480054e+00) (67, -1.38707506664413976472e-01) (68, 1.01836081378431431155e+00) (69, 3.21228406660393372984e-01) (70, 3.22208046877298848187e+00) (71, -5.02744256256286270457e+00) (72, 1.51529837628382413328e+00) (73, 4.13301280731210085584e-01) (74, -7.04293206491247270051e-01) (75, 8.55994798798379474825e-01) (76, 1.61953072478550641478e+00) (77, -2.78867803933053395871e-02) (78, -1.21002187371503300284e+00) (39, 1.17856644450749414865e+00) (40, 1.75164950951234121845e+00) (41, 2.04490988583544597290e+00) (42, 9.63545615798354210257e-02) (43, 6.11834506720705939564e-01) (44, 1.02775452561738056545e+00) (45, -6.39224885494440453471e-01) (46, 1.92396073632642412576e+01) (47, -1.03373720925812069282e+01) (48, 1.56200400150963747414e+00) (49, 5.80131303420186927866e-01) (50, -8.87398686485927346013e-01) (51, 1.02075032016185729411e+00) (52, 3.82596434577237798358e-01) (53, -4.16792261145355835694e-01) (54, 2.32867108900586872178e-01) (55, 1.42898054950590758239e+00) (56, 2.00917565311421020269e+00) (57, -3.35083099138354545410e-01) (58, 3.94246659349591599408e+00) (59, 7.98400304881805134016e-01) (60, 1.09001527106217133145e+00) (61, 1.44609518505284229128e+00) (62, -1.04481179667204693295e+00) (63, 5.88964216622391151246e-02) (64, 2.40261199932721325467e+00) (65, 5.28753013926279979984e+00) (66, 1.57002423231608428944e-01) (67, -1.63908971488575277986e-01) (68, 1.31265900634749543840e+00) (69, 5.49030696316334831941e-01) (70, -5.97423870629589570669e-01) (71, 1.85428820402009275625e+00) (72, 2.01377879705827300683e+00) (73, 7.64049634929131332717e-02) (74, 1.93966039588985328379e+00) (75, 1.10399579518049772986e+00) (76, 2.04805751767556820653e+00) (77, 5.01244848387797481415e-01) (78, -2.35257347367852087672e+00) (39, -5.94438937748221896129e+00) (40, -4.55232117738256025774e+00) (41, 5.26383302403054975649e-01) (42, 1.37184872793466272611e+01) (43, 5.29815599202228204589e-01) (44, 4.81430407952069205901e-01) (45, 6.42021594922197103017e+00) (46, 4.75116745994459677149e+00) (47, 2.55410355846460346285e+00) (48, 1.24014283916311460199e-01) (49, -3.31028109994461861021e+00) (50, 8.80239656560111249917e+00) (51, 2.24721610000686577990e-01) (52, 2.08227272362307891385e+00) (53, -2.38529648631051971464e+00) (54, -2.10590426274031794485e-01) (55, 1.22753869196729856195e-01) (56, 5.65700347763859023864e-01) (57, 2.23690605446037960036e+00) (58, -1.82639108913800884970e+00) (59, 1.42726030012515781031e+00) (60, -5.13557773746628254408e-01) (61, 2.46631444435217839217e-01) (62, -1.73093553675777522827e+00) (63, 3.19261163775588086011e+00) (64, 3.88686069113644616646e-01) (65, 2.99900799256054728659e-01) (66, 1.77537612656630788832e-01) (67, 1.15431874716844484752e+00) (68, -1.73090466765521244774e+00) (69, 4.79910870195079475309e+00) (70, -7.30481554706560065604e-01) (71, 2.53167441770239820542e+00) (72, 5.09830787075123970098e-01) (73, 1.80366497334367603678e-01) (74, -1.60662744401589874244e+00) (75, 5.94346246318415150078e-01) (76, 6.93892269623838542358e-01) (77, 5.70136372966736654916e-03) (78, 1.22691622960614130089e-01) (39, -4.57911870902795836713e+00) (40, -3.32274676022716430879e-01) (41, 7.37352130506699343648e-01) (42, 3.30922595546796483035e-01) (43, 6.32256569781853849932e-01) (44, 7.19463815282052721045e-01) (45, 3.35671175024978740709e+00) (46, 1.54758595292733645010e+01) (47, 7.57671203046713426232e-01) (48, 7.15172228906815421468e-01) (49, -5.32949954831818661916e+00) (50, -3.70656826374694059467e+00) (51, 5.48016255304780819380e-01) (52, 3.05687061777716651001e-01) (53, 9.44001343980914420229e+00) (54, 1.51457285785379286436e-01) (55, 7.43564975951378603902e-01) (56, 5.78259495590394023701e-01) (57, 1.42651664368489283774e+00) (58, -2.69381426621287634049e+00) (59, 1.98616149264177521694e+00) (60, 2.40905869496298219445e+00) (61, 6.41400103960698131367e-01) (62, 6.46297562612338505339e-01) (63, 3.18147313910427276262e-01) (64, 1.57269826636803444764e-01) (65, -1.14919020988510922621e+00) (66, -6.49433168768041163554e-02) (67, 3.54527012507079453130e+00) (68, 2.35939672807192346582e+00) (69, 1.48103469661314268713e-01) (70, -3.12195630979475202693e+00) (71, -9.43407784247371067332e-02) (72, 1.00361876504836211588e+00) (73, 3.54711636315814260456e-01) (74, 2.63497334361755397580e+00) (75, 6.94506182193940668768e-01) (76, 1.06017596282297765775e+00) (77, -2.73502647348307148523e-01) (78, -8.37758539796405576894e-01) (39, 7.15123779044373408809e-01) (40, -8.60641309067473825323e-01) (41, 7.42593203049733419085e-01) (42, 1.21578429756794226257e+00) (43, 2.25906544244508245001e+00) (44, 1.05996091318746743504e+00) (45, 1.52932287433739794169e-02) (46, 1.32926923731249324589e+01) (47, 3.25222412281697070835e-01) (48, 8.89611896437241811419e-01) (49, -2.20363974446842947330e+00) (50, 4.65823375576296494494e-01) (51, 8.81620329183175344134e-01) (52, 6.20474865223361593536e+00) (53, 3.18659881788232013378e+00) (54, -4.03963480951703424182e+00) (55, 8.11557349127366323138e-01) (56, 7.73834146869017636128e-01) (57, 2.96743492455648150141e+00) (58, -3.86724651322868373526e+00) (59, -1.47575560717273579492e+00) (60, 5.81766880754050852431e+00) (61, 7.88285542589261312152e-01) (62, -1.04589782009924689987e+01) (63, -2.33758963952605258729e-01) (64, -7.68048493761450457029e-01) (65, -1.58635454256133967554e+00) (66, 8.44359435844279304639e-01) (67, -3.75622624224276657756e+00) (68, -4.54037189455164191809e-01) (69, 5.27996890744313773780e-01) (70, -4.47604868899033636609e+00) (71, -2.47062722274608370654e+00) (72, 7.51299333137109059955e-01) (73, 6.26859303565423520155e-01) (74, -1.37049117529625297252e+00) (75, 2.71447507281237510046e-01) (76, 8.14592022758557576800e-01) (77, 2.73198809852518820218e-01) (78, -7.57360546884994545458e-01) (39, 3.53787449835015799238e+00) (40, -6.84720633478375417802e-01) (41, 7.92209638121450843151e-01) (42, -4.01531801026281054412e-01) (43, 8.07891416346725677045e-01) (44, 9.77141666656274887615e-01) (45, -1.01085941778138499458e+00) (46, -3.17949549840546952240e+00) (47, -9.18000110519016754296e-01) (48, 1.81737726649312536509e-01) (49, 3.76817849541043081718e-01) (50, 1.93385031933902218348e-01) (51, 1.82279051564218468051e-02) (52, 7.83762350497839932473e-01) (53, -9.47519532875175585218e+00) (54, -5.05311202788652075180e-02) (55, 1.73176207396154024920e-01) (56, 8.55790491722627222337e-01) (57, -9.49621507190940017384e-02) (58, 5.59089969275868514664e-01) (59, -1.02954760428033136321e+01) (60, -2.42108155677842962206e+00) (61, 8.87232781896107658426e-01) (62, 5.12044267913780082324e+00) (63, -5.07323475179754845854e-01) (64, -1.27281244820675798479e+00) (65, 1.64646323327090926547e+00) (66, 1.68345613844912334045e+00) (67, -2.15697477522800129535e+00) (68, -1.23643822717974560810e+00) (69, 1.58856093937753435341e+01) (70, -4.74384734047724077044e+00) (71, -4.22351333524326744140e-01) (72, 7.49612185488662929878e-01) (73, 3.16541814852012645676e-02) (74, 3.10992230600263319662e-01) (75, 8.17851215245049778524e-01) (76, 7.58464443813286037788e-01) (77, 1.14508122359186637063e+00) (78, -1.51536552895977727484e-01) (39, 2.27740962118676948389e-01) (40, 2.58660081161103638792e+00) (41, 8.65552247257676876657e-01) (42, -1.30227290127334999204e-01) (43, 6.42550594217024872989e-01) (44, 5.50542161510431116156e-01) (45, 4.87245311757070886927e+00) (46, 5.85857681383222317351e+00) (47, -5.69223037175022650302e+00) (48, 5.77197629810490497881e-01) (49, 7.52605219218342558207e-01) (50, -2.19554691862977202632e+00) (51, 5.15503683115540622950e-01) (52, 4.26235147864954977415e-01) (53, 4.98262735188755856441e-01) (54, 7.78976331340095029532e+00) (55, 5.29818751762353157275e-01) (56, 1.00229585984512903352e+00) (57, -4.11482456979224764382e+00) (58, 1.89502717684498356299e+00) (59, -9.36070640780297780204e-01) (60, -1.00443434148896448832e+00) (61, 4.89551179955445447955e-01) (62, -8.54869251420582787482e-01) (63, 8.69512559843036747509e+00) (64, 3.14197345041810294219e+00) (65, 5.38942832879784550215e+00) (66, -2.12196057653096292750e-01) (67, 1.29329670144236819063e+00) (68, -3.41843892972184404400e+00) (69, 4.13702746416302058474e-01) (70, 8.55140788566228549072e-01) (71, 1.33420432993330528859e+00) (72, 7.98678577832229952271e-01) (73, 2.91030923626384774305e-01) (74, 3.14967464144621445143e+00) (75, 6.09563448176824396185e-01) (76, 8.81519319873207751748e-01) (77, 1.52541043335694247868e-02) (78, -3.60218708322825820201e-01) (39, 4.10980613845124675976e+00) (40, -6.19520998522539723119e-02) (41, 6.24566380820255062645e-01) (42, 4.90701046026935039368e-01) (43, 2.85854326832226723898e-01) (44, 2.14373442078043291437e-01) (45, 4.96265349085290630171e+00) (46, -2.31845694361608567480e-01) (47, 6.05610642779553831616e+00) (48, 8.59045714137471154437e-03) (49, -4.66500393765981458127e-01) (50, -5.79927757692910716969e-01) (51, 1.90798436403249588311e-01) (52, 1.10721207353133355156e+00) (53, 1.23396181919213665523e+00) (54, 6.50625146975645751724e+00) (55, 6.65462586283436935419e-02) (56, 5.24124421819878283380e-01) (57, -7.37020916193660902138e+00) (58, -1.06292902100991026870e+00) (59, -1.66726783514483245519e+00) (60, -3.95784957907506618202e-01) (61, 6.28712539515476009910e-01) (62, 3.31126031089656347461e+00) (63, 1.96065093198694784249e+00) (64, 1.58818794734282925374e-01) (65, 4.16949546517818792069e+00) (66, 1.86559721754682383832e+00) (67, 7.71221481281659904106e-01) (68, 7.95679423534090091152e+00) (69, 1.04323365703063064558e+01) (70, 5.42235702555555421078e-01) (71, -7.68299067562528380237e-03) (72, 5.88800539216975837853e-01) (73, -6.83427026592900582758e-02) (74, -9.49300300556187082179e-01) (75, 8.82148686003641935294e-01) (76, 4.67830847054123533102e-01) (77, 1.98930337159305281602e+00) (78, 2.51529317576444921833e-01) (39, -1.79398943827627954661e+00) (40, 6.45283262775140098455e+00) (41, 1.02640772625179965694e+00) (42, 3.00903989226280321745e+00) (43, 4.85203895984422761689e-01) (44, 3.41850246543782099184e-01) (45, -1.30902827257067455591e+00) (46, -3.81090317994459315543e+00) (47, -3.18171510123344791765e+00) (48, 5.85459314586832535454e-01) (49, -1.45779964538218531622e+00) (50, -3.74735213272087003267e-02) (51, 6.02725829760334508300e-01) (52, 5.81099419264172079025e-01) (53, -5.25946089512896119977e-01) (54, 1.31324355613933363429e+00) (55, 5.91120340230181229302e-01) (56, 1.09214046611758108796e+00) (57, -1.64145444638761550671e+00) (58, -2.49877213021772881518e+00) (59, -6.06258494036910278169e+00) (60, 2.60538813111625122687e+00) (61, 1.01253625019760806758e+00) (62, -8.90223746056393849813e+00) (63, 1.46394251470163339057e+00) (64, 2.33650699348363177776e+00) (65, 2.32906522909454949399e+00) (66, 3.24754013004246600005e+00) (67, 1.02176548389660548644e+00) (68, 6.52459800330622341491e-01) (69, 4.15534713855162696206e+00) (70, 2.91385193534144049110e+00) (71, 4.50555961945826644044e-01) (72, 1.19323857142897571393e+00) (73, 4.75840106896784187374e-01) (74, 5.57015881139935409294e+00) (75, 7.01706233168831849945e-01) (76, 1.00612913086386446260e+00) (77, 1.82953711925742140698e-01) (78, -7.37130879701187402553e-01) (39, -3.49458301684045080648e+00) (40, -1.58283361482153606126e+00) (41, 5.86817256101591300244e-01) (42, -6.77746663164347284969e-01) (43, 5.25121403622926696819e-01) (44, 6.57490487321226946271e-01) (45, -4.58235729734902896837e+00) (46, -3.52103687668286757795e-01) (47, -3.85560923623377105329e+00) (48, 2.82467135592527451848e-01) (49, 2.38155071915459437548e+00) (50, -3.35612529155727790098e+00) (51, 1.20589204754955617305e-01) (52, 2.85724952653868755070e-02) (53, -1.58549759557755770567e-01) (54, -8.41358766521929313242e-01) (55, 1.19019171107338561644e-01) (56, 1.03181645512266295661e+00) (57, 8.91939899669325297893e-01) (58, 6.33889773712791204652e-01) (59, -4.05527287954118964564e-01) (60, -1.39148865681313016474e+00) (61, 1.93890668800258347826e-01) (62, -2.04529862019208907853e+00) (63, -1.34094345425796590554e+00) (64, 3.94821711658919349830e+00) (65, -2.91918764592432555816e+00) (66, 2.29311345463448279514e-01) (67, 3.58704938937724282511e+00) (68, 2.09499494889770465633e+00) (69, 1.58319366201189737353e+01) (70, -3.13077404136505688115e+00) (71, -5.40227083456068069012e-01) (72, 6.53839493374693603300e-01) (73, 2.59878451952791744706e-01) (74, -2.66847929991547605511e-01) (75, 5.78358695425939761670e-01) (76, 6.95286569684608224406e-01) (77, 2.23164033675203710150e-01) (78, -3.72327393739496845249e-02) (39, -5.82895657463400418408e+00) (40, -6.91102866594860004712e-02) (41, 5.74033057290069370637e-01) (42, -2.06562741452257295216e-02) (43, 1.36575835686642399480e+00) (44, 1.13031453017890681778e+00) (45, 2.13078585377847762317e+00) (46, -1.12460410785412801005e+00) (47, -9.02420750158076101499e-01) (48, 2.12441554423319300948e-01) (49, -1.15352326521148373928e+00) (50, 2.15079169218435772848e+00) (51, 1.78124830613048297512e-02) (52, 3.76810130275586963045e-01) (53, 7.25282581226839351274e+00) (54, -4.46881177735676704543e-01) (55, 2.14497706051813563644e-01) (56, 5.56485293406001724215e-01) (57, -8.38727336156823266577e-01) (58, -1.39852670720014660155e+00) (59, 1.39940945964680735214e-01) (60, -4.60343296672229396194e+00) (61, 1.64299061652170674819e-01) (62, -2.99492664637125916016e+00) (63, 1.07544204560193912279e+00) (64, -4.02105765257235336918e+00) (65, 3.05548258811218964581e+00) (66, 4.40978032171835110375e+00) (67, -3.33805810653477363914e+00) (68, 2.89022597968439365346e+00) (69, 6.15887116807985246503e-01) (70, -1.72444387599423237800e-01) (71, 5.13685969530881192391e-01) (72, 5.80957269268981724153e-01) (73, 3.75335108787368643135e-01) (74, 8.79902150086835144194e-01) (75, 8.32440840977286766744e-01) (76, 5.10759760643047511230e-01) (77, 7.11010334014473954767e+00) (78, 2.13909401891817896324e-01) (39, 2.43395652772898118954e+00) (40, 1.71353920889781230485e+00) (41, 7.39348467442882295586e-01) (42, 7.17648569746630116128e+00) (43, 1.15366074824362274676e+00) (44, 3.88338547158132152415e-01) (45, -2.97937764035951424546e+00) (46, 1.62187563467142119578e+01) (47, -3.43711359799564852846e-01) (48, 1.86700619917997384656e-01) (49, 4.15057172165272003639e+00) (50, -4.82837561682241400707e-02) (51, 2.92759802353271980646e-01) (52, 7.00598620018707318735e+00) (53, 1.08567226757180645969e+00) (54, 1.49373358470647726870e-01) (55, 1.74859833133110070813e-01) (56, 7.39102159166621919262e-01) (57, -1.94023913216797394554e+00) (58, 2.71434416184559212937e+00) (59, -2.81331032423030313883e-01) (60, -6.65426788374290545391e+00) (61, 1.52370717537292393873e-01) (62, -6.10770546850521012239e-01) (63, -1.29608909234632352359e+00) (64, -3.67464062971286997694e+00) (65, 1.65192414130489670376e-02) (66, -2.44081118094919835571e+00) (67, -1.50100329426219897266e-01) (68, -3.62160221771917356648e+00) (69, 1.59776320869033572336e+00) (70, 7.10656098187817275580e-01) (71, 2.65173023196444557215e+00) (72, 7.20917563888919588067e-01) (73, 7.65625109535249315229e-01) (74, 9.18914454140812431149e+00) (75, 1.87995466482718032175e-01) (76, 2.92382579457649727228e-01) (77, 3.79325168897533149259e-01) (78, -1.03203476513519631919e-01) (39, 1.43711167166463971157e+00) (40, -1.28837196443747270536e+00) (41, 8.51959156818509977249e-01) (42, 6.12214289495653263273e-01) (43, 1.56879644755859404270e+00) (44, 9.02602411266821613722e-01) (45, 5.07836568917432895631e-01) (46, -4.07500789480082503680e-02) (47, 4.89379760473331260062e-01) (48, 4.45864477982869988892e-01) (49, 8.67652766715620193949e-01) (50, 5.50329088035254887501e+00) (51, 5.40142478278032078798e-01) (52, 1.07352444442196204299e+00) (53, 2.41811682479897838149e+00) (54, -1.63493571711461532781e-01) (55, 5.96920090899582977961e-01) (56, 8.56616368216629675558e-01) (57, -9.05845818348818415666e-02) (58, -3.59935365166269061188e-01) (59, 5.62215454020912552835e-01) (60, 5.71019429077237794523e-01) (61, 3.77507226398340001161e-01) (62, 6.15090065623633774905e-01) (63, -3.19622308812771471764e+00) (64, -1.11578263464791205273e+00) (65, 2.42767007558347769347e+00) (66, -3.02207272847049246423e+00) (67, -2.48535945058680107778e+00) (68, -4.27943375026148709050e-01) (69, 7.66775087515190856280e-01) (70, 2.92455650804136446652e+00) (71, -8.00604564163230669749e+00) (72, 1.00512941337859240676e+00) (73, 1.50566168379555304080e-01) (74, -6.39338488250203229590e-01) (75, 8.25105032821905837181e-01) (76, 9.45051954758520773581e-01) (77, 5.80555534212546398010e+00) (78, -6.12951119582731407398e-01) (39, -9.09628826794805611655e-01) (40, 1.23894384232832299730e+00) (41, 1.27110583989760228540e+00) (42, 4.32561711785227828719e-02) (43, 1.05543605328699952040e+00) (44, 1.17679622859856447548e+00) (45, -1.17111915687632961447e-02) (46, 1.12078079554307734611e+01) (47, 4.74415703545393174778e+00) (48, 1.21196555255791493799e+00) (49, 3.18670416715664561735e+00) (50, -1.42335016736876918131e+00) (51, 1.20665247321147561799e+00) (52, 1.28639647381234789592e-01) (53, -7.34418680402726398171e-01) (54, -5.78589614574768074107e+00) (55, 1.11706442295452901270e+00) (56, 1.19196081071039983179e+00) (57, -5.00800026667784559109e-01) (58, 6.69988657213063887319e-01) (59, -6.15680675146427258682e+00) (60, -5.02583587930618552742e-02) (61, 1.28404520361563556641e+00) (62, -1.77423825155809433696e+00) (63, -6.19452167505270767656e-01) (64, 5.08045304720098034323e+00) (65, 7.41862271985106058736e+00) (66, 3.15349946097727906746e+00) (67, -5.69280947546536686410e-01) (68, 7.04210770981697375959e-01) (69, 7.15098716105860621184e-01) (70, -3.54795989753021123736e-01) (71, -5.79092236496374290766e+00) (72, 1.28407788186213367432e+00) (73, 3.14041290510918946755e-01) (74, -1.64644706065121382288e+00) (75, 5.43097798780545759634e-01) (76, 1.25898958329797716615e+00) (77, 1.58719789709312358861e-01) (78, -1.00180824255301925696e+00) (39, -5.92364347661374357479e-02) (40, -5.32131125446967057080e-01) (41, 4.33257773373601884348e-01) (42, 1.89018569993207172786e+01) (43, 2.35465183922104498437e-01) (44, 1.19619992344712447463e-01) (45, 1.94477555248347733219e+00) (46, 1.45299474936255723634e-02) (47, 8.45772953586236297951e+00) (48, 3.02347387973545045359e-01) (49, 2.16160327875824842536e+00) (50, -1.95547357755544570779e+00) (51, 2.81886987243173681161e-01) (52, 4.76807016133483085873e-01) (53, -1.32377223919252018369e+00) (54, 7.93712097761259949280e-01) (55, 2.95272469375608415110e-01) (56, 3.70368689153669328196e-01) (57, 2.52608483331910305125e+00) (58, 7.85120408468092101373e+00) (59, 4.50140155479276105055e-01) (60, 1.65419042758649798008e-01) (61, 4.39660310600278825266e-01) (62, 2.63745349427315689539e+00) (63, 2.22108844776018132805e+00) (64, 5.08695628892478768357e-01) (65, 6.95078651492170851434e-01) (66, -4.72157034010512788313e+00) (67, 2.42127305593259301020e+00) (68, -6.96780080633817000546e+00) (69, 1.19225220348289950856e+00) (70, -2.18326124820531930482e+00) (71, -1.79871068079837437281e+00) (72, 7.81557444172065074461e-01) (73, 3.27127938360003478468e-01) (74, 1.04602094305966897281e+00) (75, 5.02123367108316287499e-01) (76, 3.91395807121274919016e-01) (77, 8.61610001694980986997e+00) (78, 9.55390937246171356723e-03) (39, 2.36883884552877388430e+00) (40, -4.66996121987204859671e-01) (41, 3.72158772547205085601e-01) (42, 9.29721660234628721753e+00) (43, 8.88214664012756061062e-01) (44, 4.35761283765801477053e-01) (45, 4.38474430529608927287e+00) (46, -4.32521226874800102102e-01) (47, -5.11592145543477982983e-01) (48, 9.81534661125711832552e-02) (49, 3.94243411141272925846e-01) (50, -6.75690922169540986175e+00) (51, 8.15704555582575374650e-02) (52, 1.85164933899470547374e+01) (53, 4.40522934553617151465e+00) (54, 1.60759482099283035339e+00) (55, 8.95182204957528475375e-03) (56, 2.49623454410989986663e-01) (57, 8.94850770083463892268e-02) (58, -7.34415024708916619467e-01) (59, -3.48930211391463185322e+00) (60, -6.78417069721298005014e-01) (61, 6.00626559328607881327e-02) (62, 5.64783190396813794543e-01) (63, 2.73685131677658621818e-01) (64, 1.66288090433560675763e+00) (65, 7.06980804715260013893e+00) (66, -1.21789448490813922987e+00) (67, -7.47320564592458436159e-01) (68, -2.60403570298991082765e+00) (69, 3.02391540651077650459e-01) (70, 2.10009256572644686933e-02) (71, -6.92985878321845572003e+00) (72, 1.97422146100957540682e-01) (73, 7.10606025254933732632e-03) (74, -4.64346160866390000876e+00) (75, 5.88077168895409396754e-01) (76, 2.96368724901636348967e-01) (77, -1.96153266833208950182e+00) (78, -3.81310743413344754860e-01) (39, 2.58343573641971779864e+00) (40, -5.97947456458355008913e-01) (41, 8.38674228055733550491e-01) (42, 9.58908607895613052108e+00) (43, 9.97975761625280122225e-01) (44, 2.00737470239829773888e+00) (45, 1.56034699500004125916e+00) (46, -9.51421272731518441468e-01) (47, -7.91642844653615451733e-01) (48, 4.79822524610173217763e-01) (49, -1.08024786057690636021e+00) (50, 4.20435407159499519025e+00) (51, 7.34699255027879916113e-01) (52, 2.07006788679068548520e-01) (53, -7.83370389602457417588e-01) (54, 6.38121110612447495214e+00) (55, 7.60121024562376623734e-01) (56, 7.65494244582737182192e-01) (57, -1.96014314292920555083e+00) (58, -2.18290695272219625878e+00) (59, -8.70521821851465915643e+00) (60, 1.34925257497245332239e+00) (61, 8.61630781712848237142e-01) (62, 2.53779446070963876636e+00) (63, 2.04492749133965467934e+00) (64, 5.47074874237636343821e+00) (65, 1.57166048285246162663e+00) (66, 2.70153934013882546239e+00) (67, 6.64709014125359320957e-01) (68, 1.16712832398121868493e+00) (69, 8.40614809504578563981e-01) (70, -1.00800310569457796106e+00) (71, 2.21535262430762758257e+00) (72, 4.35316229942547983089e-01) (73, 5.47598867221127383331e-01) (74, -3.42328888182901192039e-01) (75, 9.34890886724637937277e-01) (76, 5.50554088716164624628e-01) (77, -1.65089909939275192308e-01) (78, 2.66814299378362457249e-02) (39, -4.05518528936006095176e-01) (40, -4.36059229111253332523e-01) (41, 1.09678361675384250518e+00) (42, 1.80572489751300302441e-01) (43, 1.10801635415523125339e+00) (44, 1.10555550880056374652e+00) (45, 1.25644536188883569616e-02) (46, -4.60350638262589206828e-01) (47, 2.50442335485853018184e+00) (48, 8.93970511546159030125e-01) (49, 4.72598863629118337570e+00) (50, -5.10684206714716704134e-01) (51, 8.02805697668929174604e-01) (52, 8.88755519972919239002e-01) (53, 2.55616301821344249490e+00) (54, 6.48174834081228889993e-01) (55, 8.80186937441849948094e-01) (56, 1.16181950754168283879e+00) (57, 7.27887064728575117201e-02) (58, -9.63990246169562414735e-01) (59, -7.98815162155412483713e-01) (60, 1.19797158666634290247e-01) (61, 1.19617515540364016680e+00) (62, -5.31005854591185211255e-01) (63, 1.02529275037490172906e+01) (64, 1.22153884888171387901e-01) (65, 5.74910797697322895061e+00) (66, 7.79625497237688036556e-01) (67, -3.19187716833318235743e+00) (68, 1.87237282633868784565e+00) (69, 1.18853233727889806559e+00) (70, 5.83379226565740260924e+00) (71, -3.63293148294354084626e+00) (72, 1.23920570051911060894e+00) (73, -2.74978493317073080515e-01) (74, -3.69484266290274332434e+00) (75, 1.35518947667768796528e+00) (76, 1.18538170275225374084e+00) (77, 3.00588628293065540653e-01) (78, -1.03244244563415565885e+00) (39, -2.01652601344268739281e-01) (40, 1.54182596106714275841e+00) (41, 8.23656109412478798504e-01) (42, 2.56890845328547612336e-01) (43, 6.40626167214114472515e-01) (44, 5.51712484716856743638e-01) (45, 6.66168089336182855931e+00) (46, -1.42115360059803141901e+00) (47, 4.39930879959104448318e+00) (48, 6.81752904505077528263e-01) (49, 5.15479073249136443557e-01) (50, 3.22919405084117316918e+00) (51, 5.89058973151495735010e+00) (52, 5.25614328576644695978e-01) (53, 2.82553630264141997230e+00) (54, 1.31533362356364569301e+00) (55, 7.64168163080977791424e-01) (56, 6.92505204369592064495e-01) (57, -1.51381722096024073920e+00) (58, -6.86490970520761401019e+00) (59, -1.86105683890145456871e+00) (60, -2.76068104800685087952e+00) (61, 8.10175478420118833078e-01) (62, -1.99488196008850859897e+00) (63, -1.14740938615041465631e+00) (64, -3.51290004439551539761e+00) (65, 1.30251779650453802795e+00) (66, 5.94040652439122296435e-01) (67, 1.63335872573774043559e+00) (68, -6.05978582470394400161e+00) (69, 8.60102753628260052743e-01) (70, -1.63302349839027050038e+00) (71, 6.92356927056122173347e-01) (72, 7.68693950497435829483e-01) (73, 5.92353727643322724994e-01) (74, 2.43166868570135275007e+00) (75, 7.28581407182594786853e-01) (76, 1.14703289449902579022e+00) (77, 1.30270745839731438842e+00) (78, -1.64269968228196994176e+00) (39, -4.33141855584417367897e-01) (40, 2.14564008402923844798e+00) (41, 4.17976171145625852166e-01) (42, 1.04177580824528590031e-01) (43, 8.11307109852809182904e-01) (44, 4.16280796985906231811e+00) (45, 5.41045518208741693655e+00) (46, -3.65934946969361973856e+00) (47, 5.90352514275969908475e-01) (48, 6.06972538302131714438e-01) (49, 3.04830215590265085623e+00) (50, 2.99657948631544712725e+00) (51, 4.39724712767661507495e-01) (52, 8.28573012957126597833e-01) (53, 1.81830536421488470067e-01) (54, -7.35611248467479938995e-01) (55, 9.67263943119210156674e-01) (56, 4.89201471576877600089e-01) (57, -4.30837661333747856673e+00) (58, 6.44112508121364069069e+00) (59, 7.87287346244454289135e-01) (60, -5.02171178501168102848e-01) (61, 4.43648234377094274894e-01) (62, -1.77045230635417216725e+00) (63, 9.66302109031446399001e+00) (64, -2.12145938958113156048e+01) (65, -1.19085435049799026608e+00) (66, -6.99062725209698854201e+00) (67, 3.33895952397052983573e-02) (68, 3.86551333811096364812e+00) (69, 2.22537210833524534692e+00) (70, 1.17103643982396454781e+00) (71, -1.57012562622942564161e+00) (72, 4.22281898925491339103e-01) (73, 2.81102878308914512218e+01) (74, 2.78917617079825763682e-01) (75, 5.17999522209977358855e-01) (76, 4.47006848076768881217e-01) (77, 4.55419735408930159704e-01) (78, -5.83192014995257079768e-01) (39, 5.01700331068104299348e-01) (40, -5.19363734958970368893e-01) (41, 1.10522355826042817384e+00) (42, 5.23640854366428862288e-03) (43, 1.16017297118739248774e+00) (44, 1.32615805433362621280e+00) (45, 2.98402396040512840614e+00) (46, 2.70516621795686695862e+00) (47, -7.88065276091327260310e-01) (48, 5.07854751817209293385e-01) (49, -4.78773275350611626777e+00) (50, -9.07723851849430718453e-01) (51, 5.38142457179052402516e-01) (52, 1.01325104673661514632e+00) (53, -5.90110818881149867821e+00) (54, 8.41967614331517566484e+00) (55, 5.21683245471937118154e-01) (56, 1.08965174050472901612e+00) (57, -6.88640881842757845988e-01) (58, -6.20133220227289783111e-01) (59, -8.31470274049973667729e+00) (60, 2.23201260776760790350e+00) (61, 1.04966624022864030152e+00) (62, -1.96557275717752810706e+00) (63, 6.47023889464710588726e+00) (64, -4.26128098334370442046e+00) (65, 4.04480280594924224147e+00) (66, -2.49144265907575102048e+00) (67, -4.49149876639027556546e-02) (68, 2.73262668412135178997e+00) (69, 6.86629918406179817758e-01) (70, 2.51239282175820966003e+00) (71, 5.46459674507685377876e+00) (72, 9.24953265550966352571e-01) (73, 3.98582750918254402617e-01) (74, 2.44474444591888362410e+00) (75, 1.02957624481652820769e+00) (76, 9.61513446856775311211e-01) (77, 3.01063258839466607597e-01) (78, -6.44326376862657923539e-01) (39, -4.55622533275055552338e+00) (40, -4.50345091831123367498e-01) (41, 3.64925424277926735428e-01) (42, -8.82109678996630841574e-01) (43, 1.14966315715197175962e+00) (44, 5.26276512279640673597e-01) (45, 2.23820681738937077299e+00) (46, -1.94460753846015105273e-02) (47, -1.99357702520929813694e+00) (48, 5.32966912737713571779e-01) (49, 2.75058763298726427493e+00) (50, -4.88630390269430781025e-01) (51, 3.38005161651462660011e-01) (52, 7.03565213076976614381e-01) (53, 5.59503410056242156401e-01) (54, 1.59257259863540889810e+00) (55, 5.33918740868713825876e-01) (56, 4.59122660279418282059e-01) (57, -2.22256196901635805219e+00) (58, -5.30828490110440309735e-01) (59, -2.82049804804473558395e-01) (60, 3.91068247661707779628e-02) (61, 4.74449878412780801096e-01) (62, 9.84394297142884067142e-01) (63, -1.18136370924184919140e+00) (64, -2.89760388338453767076e+00) (65, 1.86347957318144374916e+00) (66, 3.40511251070031786825e-02) (67, 7.75727896409809547507e-01) (68, -4.44777622186747656485e+00) (69, 1.28927427012818025531e+01) (70, 4.82584312156845385289e+00) (71, 4.48502900289446682081e+00) (72, 4.26538681151901910571e-01) (73, 4.68007248308807077830e-01) (74, 1.61896137734318990020e+00) (75, 1.00975988900112390034e+00) (76, 4.25520042274981136199e-01) (77, 2.20368970146847392710e-01) (78, 4.47901140955682883216e-02) (39, 7.25767271220154497335e-01) (40, 1.10752586147079989942e+00) (41, 3.43792090596283905768e-01) (42, 2.18663595693962570232e-01) (43, 4.21912354228484276497e-01) (44, 2.29353345481206583045e+00) (45, -7.21338752687592177359e-01) (46, 6.53652146966132452377e+00) (47, -2.44723342690413181444e+00) (48, 3.20667887510384663763e-01) (49, -2.32351731738432443208e+00) (50, 1.72983341892402764373e+00) (51, 3.64183531960959427920e-01) (52, 2.84154797690618687867e-01) (53, 1.96744119767165792645e+00) (54, 1.42265667638351178681e+01) (55, 4.04408226193512909674e-01) (56, 3.47831139744843476080e-01) (57, 7.13413142639020114721e-01) (58, 3.30727666991311419764e+00) (59, -5.82062625641222686212e-01) (60, -2.24167308975276835525e+00) (61, 3.59928275231368055564e-01) (62, -2.11365717575554956653e+00) (63, 7.50266287497912909288e+00) (64, 7.53673718322357966137e-01) (65, -5.17581772867835243623e-01) (66, -5.38939374943561144704e+00) (67, 1.58961219298716482928e-01) (68, 1.29643127905148025647e+00) (69, 2.89324528673063796624e-01) (70, 4.54615731041190507256e+00) (71, 9.78193613009951223880e-01) (72, 7.10790576659769191004e-01) (73, 4.09719790528906668836e-01) (74, -3.75300386838502486597e+00) (75, 7.24154871097379082556e-01) (76, 6.99826741837591304041e-01) (77, 1.16088626851953140573e+01) (78, -5.66074565243255722891e-01) (39, 4.35271092788284352793e+00) (40, 8.61770859201246786085e+00) (41, 1.04320669415891220666e+00) (42, 1.51560223113288223828e+01) (43, 7.55050729919074514740e-01) (44, 9.61712690393329738825e-01) (45, -3.16686279208269949592e+00) (46, 8.16011490806180717072e+00) (47, 2.16878067902472171369e+00) (48, 6.33973988484735961890e-01) (49, 1.31428364423093690938e+00) (50, -1.84126039504008098824e+00) (51, 5.89375558089609508094e-01) (52, 4.39610979567822579561e-01) (53, -6.20551338632617799362e-01) (54, -2.25472599996501876785e-01) (55, 6.59911426495905395484e-01) (56, 1.05968898776471642798e+00) (57, 2.74483944563489545843e+00) (58, -3.24331142614997736118e+00) (59, 4.47368159933849485199e-01) (60, -1.60267546010080974561e-01) (61, 5.09503393214341238071e-01) (62, 4.22330345804969908841e+00) (63, 6.54736174225207623323e+00) (64, -3.46447186789444527832e+00) (65, 5.41738458532278688295e+00) (66, 1.04240602278194227637e+00) (67, 8.85786905964331405805e-01) (68, 4.35265297813804430405e+00) (69, 2.96775190040543535019e-01) (70, 4.68290220694989400840e+00) (71, -3.73254312752614655913e-02) (72, 1.50560488582341234221e+00) (73, 7.46366800880104430682e-01) (74, 1.40412446466760015840e-01) (75, 8.24291440050006984919e-01) (76, 9.86757870661059022233e-01) (77, 1.82568393883779545028e-01) (78, -1.13831142704492660478e+00) (39, 5.47557406077428954205e+00) (40, 6.95068019092697220174e+00) (41, 1.30434252995411781306e+00) (42, 1.08212690821470503000e-01) (43, 8.70947259917963179099e-01) (44, 1.11953284699158883697e+00) (45, 2.65593931879549183250e+00) (46, 7.59723714201214761488e+00) (47, -2.27793230930292966985e-01) (48, 1.28611420768658546443e+00) (49, -2.51400282264547469957e-01) (50, 4.80529691590692253911e-01) (51, 7.89133860765402261883e-01) (52, 3.92552678958637407680e-02) (53, 4.67354378345267384987e+00) (54, -1.43731531295710390772e+00) (55, 1.27390368956486588203e+00) (56, 9.00314907192635627275e-01) (57, -1.92100732021284414941e+00) (58, 6.12133297023064293363e-01) (59, 1.50022824566251128386e-01) (60, -8.62545002785844339144e+00) (61, 1.32820220965306190486e+00) (62, 6.35437371014431873206e-01) (63, 5.49077469763823966531e+00) (64, -5.68435282609909497964e-01) (65, -1.12992979433166024217e-01) (66, 5.31623220913750693661e-01) (67, -6.64929988269432059589e-02) (68, 3.79334370279807320259e+00) (69, 3.47194799066557535649e-01) (70, 7.57144193171265200704e+00) (71, 4.45820757376017895446e-01) (72, 1.24736694175164108955e+00) (73, 3.98004876850101996233e-01) (74, -9.88440352798593657724e-01) (75, 9.59853828920540275149e-01) (76, 1.25851817357699280464e+00) (77, 2.52153235558190980115e+00) (78, -4.18180108377235626449e+00) (39, 7.96863339347672727797e+00) (40, 1.53255669839225827644e+00) (41, 3.07101362171373737375e-01) (42, 1.95742092811019396947e-01) (43, 5.30609629853531217236e-01) (44, 5.22875837837554646725e-01) (45, 3.61441795448758262932e-01) (46, 4.76019847329591794249e+00) (47, 9.65446186597615785274e+00) (48, 4.30311494293413532297e-01) (49, 2.01015591557162265346e+00) (50, 5.93671752129908747442e-01) (51, 4.69517033717149701033e-01) (52, 1.05055122016397523010e-01) (53, -5.23782089237768699874e-01) (54, -7.03356061998696269200e+00) (55, 5.67640744279781395143e-01) (56, 2.82540128352842589976e-01) (57, -1.53632521810759854475e+01) (58, 1.40302828172080462643e+00) (59, 2.63423123975789874596e-01) (60, 3.34251611833118245087e-01) (61, 2.81413637819490691783e-01) (62, -9.97294754257816551402e-01) (63, -4.86236248720150976421e-01) (64, -3.89276276261054168804e-02) (65, -1.01093531461129759741e+00) (66, -9.13593703628159481411e+00) (67, 1.06124267044048065101e-02) (68, 1.90230157701851310126e-01) (69, 1.93794744416101311080e-01) (70, 7.40962436951361258508e+00) (71, 2.89026713608224561369e+00) (72, 4.64253004770437405213e-01) (73, 4.40850899677192629156e+01) (74, -1.80225696670558876988e+00) (75, -1.54127846573751114967e-01) (76, 4.50448461007038281068e-01) (77, 1.20399922567846970334e-04) (78, -5.15789292462774606740e-01) (39, 1.22107156775160419215e+00) (40, -1.02939387880367827499e+00) (41, 1.25467597538976005644e+00) (42, -1.67897622574147620256e+00) (43, 1.95541270048365989354e+00) (44, 8.05793602813497544801e-01) (45, -5.77766241888081122369e-01) (46, 6.55308914138897247170e-01) (47, 8.89681099300710931388e-01) (48, 3.16536885978238979877e-01) (49, -3.78843507071574769896e+00) (50, 6.21607681044464177589e-01) (51, 7.07553429708539294296e-01) (52, 5.29953272334661829035e-01) (53, -1.26522060579209405518e+00) (54, -6.39904202302587421514e+00) (55, 8.79143028066432297152e-01) (56, 1.33315318668631888066e+00) (57, 2.60268183360978844210e-01) (58, -3.70349159592299082000e-01) (59, 1.83298573353231297745e-01) (60, 2.67521849543202394628e+00) (61, 5.78072584411014944727e-01) (62, 4.43016970711729185517e-01) (63, 9.69234903935312974710e-01) (64, 2.99363618362752603730e+00) (65, -8.27000037799937720573e-02) (66, 2.32049507048159187050e+00) (67, -4.40730975556592419196e+00) (68, -5.24024814768999758208e-01) (69, 2.59096580754209160347e+00) (70, 2.28206410330762432537e+00) (71, 4.24836672994084629806e+00) (72, 8.31551562457087833913e-01) (73, 2.74716000165353413376e-01) (74, -1.76589641348243642227e+00) (75, 2.24864755361706558645e+00) (76, 1.08793590354499891681e+00) (77, 7.57429316136749020139e-01) (78, -1.11030495044585975073e+00) (39, -1.76707056043246453214e+01) (40, -3.54517405854151235189e+00) (41, 4.42038059838191221829e-01) (42, 2.09747852362849040997e-01) (43, 4.21362343966348640301e-01) (44, 3.76821236724578456645e-01) (45, 3.95649826101450008409e+00) (46, -4.67467581196212345063e-01) (47, -1.32691141661000049368e+01) (48, 4.15113036193028528409e-01) (49, 8.96769300491906534711e-02) (50, 1.64309765357198998004e+01) (51, 3.99151299752369959073e-01) (52, 2.92555474938578918831e-02) (53, -2.26352610245701990621e+00) (54, -4.40491205068459235061e-01) (55, 4.40469347544089506741e-01) (56, 5.29430412359610969020e-01) (57, -1.69379471199504365586e+01) (58, 5.60151224176425932555e-01) (59, 2.06435433490027797632e-01) (60, -7.13186597500299601649e+00) (61, 5.01222395010367027801e-01) (62, 2.61261425814676206958e-01) (63, 1.91358750290896795221e+00) (64, 3.35239472446560993202e-01) (65, 5.49489032585489423077e-01) (66, -2.30526620321247183165e-01) (67, 2.44558856792096268595e-01) (68, 5.97949921014963137189e-01) (69, -1.75034937714054039670e-01) (70, -3.60228396789826488256e-01) (71, -1.10114080850446560689e+00) (72, 4.52210903771296690579e-01) (73, 6.82978399747252384877e-01) (74, 2.11454186112655158070e+01) (75, 4.36984140248919739058e-01) (76, 3.87337431915179442043e-01) (77, 7.77046641201700793999e+01) (78, -7.42580794073797179067e-02) (39, 5.26163176970648183151e-02) (40, 