FANN_FLO_2.1
num_layers=3
learning_rate=0.700000
connection_rate=1.000000
network_type=0
learning_momentum=0.000000
training_algorithm=2
train_error_function=1
train_stop_function=0
cascade_output_change_fraction=0.010000
quickprop_decay=-0.000100
quickprop_mu=1.750000
rprop_increase_factor=1.200000
rprop_decrease_factor=0.500000
rprop_delta_min=0.000000
rprop_delta_max=50.000000
rprop_delta_zero=0.100000
cascade_output_stagnation_epochs=12
cascade_candidate_change_fraction=0.010000
cascade_candidate_stagnation_epochs=12
cascade_max_out_epochs=150
cascade_min_out_epochs=50
cascade_max_cand_epochs=150
cascade_min_cand_epochs=50
cascade_num_candidate_groups=2
bit_fail_limit=3.49999999999999977796e-01
cascade_candidate_limit=1.00000000000000000000e+03
cascade_weight_multiplier=4.00000000000000022204e-01
cascade_activation_functions_count=10
cascade_activation_functions=3 5 7 8 10 11 14 15 16 17 
cascade_activation_steepnesses_count=4
cascade_activation_steepnesses=2.50000000000000000000e-01 5.00000000000000000000e-01 7.50000000000000000000e-01 1.00000000000000000000e+00 
layer_sizes=226 227 2 
scale_included=0
neurons (num_inputs, activation_function, activation_steepness)=(0, 0, 0.00000000000000000000e+00) (0, 0, 0.00000000000000000000e+00) (0, 0, 0.00000000000000000000e+00) (0, 0, 0.00000000000000000000e+00) (0, 0, 0.00000000000000000000e+00) (0, 0, 0.00000000000000000000e+00) (0, 0, 0.00000000000000000000e+00) (0, 0, 0.00000000000000000000e+00) (0, 0, 0.00000000000000000000e+00) (0, 0, 0.00000000000000000000e+00) (0, 0, 0.00000000000000000000e+00) (0, 0, 0.00000000000000000000e+00) (0, 0, 0.00000000000000000000e+00) (0, 0, 0.00000000000000000000e+00) (0, 0, 0.00000000000000000000e+00) (0, 0, 0.00000000000000000000e+00) (0, 0, 0.00000000000000000000e+00) (0, 0, 0.00000000000000000000e+00) (0, 0, 0.00000000000000000000e+00) (0, 0, 0.00000000000000000000e+00) (0, 0, 0.00000000000000000000e+00) (0, 0, 0.00000000000000000000e+00) (0, 0, 0.00000000000000000000e+00) (0, 0, 0.00000000000000000000e+00) (0, 0, 0.00000000000000000000e+00) (0, 0, 0.00000000000000000000e+00) (0, 0, 0.00000000000000000000e+00) (0, 0, 0.00000000000000000000e+00) (0, 0, 0.00000000000000000000e+00) (0, 0, 0.00000000000000000000e+00) (0, 0, 0.00000000000000000000e+00) (0, 0, 0.00000000000000000000e+00) (0, 0, 0.00000000000000000000e+00) (0, 0, 0.00000000000000000000e+00) (0, 0, 0.00000000000000000000e+00) (0, 0, 0.00000000000000000000e+00) (0, 0, 0.00000000000000000000e+00) (0, 0, 0.00000000000000000000e+00) (0, 0, 0.00000000000000000000e+00) (0, 0, 0.00000000000000000000e+00) (0, 0, 0.00000000000000000000e+00) (0, 0, 0.00000000000000000000e+00) (0, 0, 0.00000000000000000000e+00) (0, 0, 0.00000000000000000000e+00) (0, 0, 0.00000000000000000000e+00) (0, 0, 0.00000000000000000000e+00) (0, 0, 0.00000000000000000000e+00) (0, 0, 0.00000000000000000000e+00) (0, 0, 0.00000000000000000000e+00) (0, 0, 0.00000000000000000000e+00) (0, 0, 0.00000000000000000000e+00) (0, 0, 0.00000000000000000000e+00) (0, 0, 0.00000000000000000000e+00) (0, 0, 0.00000000000000000000e+00) (0, 0, 0.00000000000000000000e+00) (0, 0, 0.00000000000000000000e+00) (0, 0, 0.00000000000000000000e+00) (0, 0, 0.00000000000000000000e+00) (0, 0, 0.00000000000000000000e+00) (0, 0, 0.00000000000000000000e+00) (0, 0, 0.00000000000000000000e+00) (0, 0, 0.00000000000000000000e+00) (0, 0, 0.00000000000000000000e+00) (0, 0, 0.00000000000000000000e+00) (0, 0, 0.00000000000000000000e+00) (0, 0, 0.00000000000000000000e+00) (0, 0, 0.00000000000000000000e+00) (0, 0, 0.00000000000000000000e+00) (0, 0, 0.00000000000000000000e+00) (0, 0, 0.00000000000000000000e+00) (0, 0, 0.00000000000000000000e+00) (0, 0, 0.00000000000000000000e+00) (0, 0, 0.00000000000000000000e+00) (0, 0, 0.00000000000000000000e+00) (0, 0, 0.00000000000000000000e+00) (0, 0, 0.00000000000000000000e+00) (0, 0, 0.00000000000000000000e+00) (0, 0, 0.00000000000000000000e+00) (0, 0, 0.00000000000000000000e+00) (0, 0, 0.00000000000000000000e+00) (0, 0, 0.00000000000000000000e+00) (0, 0, 0.00000000000000000000e+00) (0, 0, 0.00000000000000000000e+00) (0, 0, 0.00000000000000000000e+00) (0, 0, 0.00000000000000000000e+00) (0, 0, 0.00000000000000000000e+00) (0, 0, 0.00000000000000000000e+00) (0, 0, 0.00000000000000000000e+00) (0, 0, 0.00000000000000000000e+00) (0, 0, 0.00000000000000000000e+00) (0, 0, 0.00000000000000000000e+00) (0, 0, 0.00000000000000000000e+00) (0, 0, 0.00000000000000000000e+00) (0, 0, 0.00000000000000000000e+00) (0, 0, 0.00000000000000000000e+00) (0, 0, 0.00000000000000000000e+00) (0, 0, 0.00000000000000000000e+00) (0, 0, 0.00000000000000000000e+00) (0, 0, 0.00000000000000000000e+00) (0, 0, 0.00000000000000000000e+00) (0, 0, 0.00000000000000000000e+00) (0, 0, 0.00000000000000000000e+00) (0, 0, 0.00000000000000000000e+00) (0, 0, 0.00000000000000000000e+00) (0, 0, 0.00000000000000000000e+00) (0, 0, 0.00000000000000000000e+00) (0, 0, 0.00000000000000000000e+00) (0, 0, 0.00000000000000000000e+00) (0, 0, 0.00000000000000000000e+00) (0, 0, 0.00000000000000000000e+00) (0, 0, 0.00000000000000000000e+00) (0, 0, 0.00000000000000000000e+00) (0, 0, 0.00000000000000000000e+00) (0, 0, 0.00000000000000000000e+00) (0, 0, 0.00000000000000000000e+00) (0, 0, 0.00000000000000000000e+00) (0, 0, 0.00000000000000000000e+00) (0, 0, 0.00000000000000000000e+00) (0, 0, 0.00000000000000000000e+00) (0, 0, 0.00000000000000000000e+00) (0, 0, 0.00000000000000000000e+00) (0, 0, 0.00000000000000000000e+00) (0, 0, 0.00000000000000000000e+00) (0, 0, 0.00000000000000000000e+00) (0, 0, 0.00000000000000000000e+00) (0, 0, 0.00000000000000000000e+00) (0, 0, 0.00000000000000000000e+00) (0, 0, 0.00000000000000000000e+00) (0, 0, 0.00000000000000000000e+00) (0, 0, 0.00000000000000000000e+00) (0, 0, 0.00000000000000000000e+00) (0, 0, 0.00000000000000000000e+00) (0, 0, 0.00000000000000000000e+00) (0, 0, 0.00000000000000000000e+00) (0, 0, 0.00000000000000000000e+00) (0, 0, 0.00000000000000000000e+00) (0, 0, 0.00000000000000000000e+00) (0, 0, 0.00000000000000000000e+00) (0, 0, 0.00000000000000000000e+00) (0, 0, 0.00000000000000000000e+00) (0, 0, 0.00000000000000000000e+00) (0, 0, 0.00000000000000000000e+00) (0, 0, 0.00000000000000000000e+00) (0, 0, 0.00000000000000000000e+00) (0, 0, 0.00000000000000000000e+00) (0, 0, 0.00000000000000000000e+00) (0, 0, 0.00000000000000000000e+00) (0, 0, 0.00000000000000000000e+00) (0, 0, 0.00000000000000000000e+00) (0, 0, 0.00000000000000000000e+00) (0, 0, 0.00000000000000000000e+00) (0, 0, 0.00000000000000000000e+00) (0, 0, 0.00000000000000000000e+00) (0, 0, 0.00000000000000000000e+00) (0, 0, 0.00000000000000000000e+00) (0, 0, 0.00000000000000000000e+00) (0, 0, 0.00000000000000000000e+00) (0, 0, 0.00000000000000000000e+00) (0, 0, 0.00000000000000000000e+00) (0, 0, 0.00000000000000000000e+00) (0, 0, 0.00000000000000000000e+00) (0, 0, 0.00000000000000000000e+00) (0, 0, 0.00000000000000000000e+00) (0, 0, 0.00000000000000000000e+00) (0, 0, 0.00000000000000000000e+00) (0, 0, 0.00000000000000000000e+00) (0, 0, 0.00000000000000000000e+00) (0, 0, 0.00000000000000000000e+00) (0, 0, 0.00000000000000000000e+00) (0, 0, 0.00000000000000000000e+00) (0, 0, 0.00000000000000000000e+00) (0, 0, 0.00000000000000000000e+00) (0, 0, 0.00000000000000000000e+00) (0, 0, 0.00000000000000000000e+00) (0, 0, 0.00000000000000000000e+00) (0, 0, 0.00000000000000000000e+00) (0, 0, 0.00000000000000000000e+00) (0, 0, 0.00000000000000000000e+00) (0, 0, 0.00000000000000000000e+00) (0, 0, 0.00000000000000000000e+00) (0, 0, 0.00000000000000000000e+00) (0, 0, 0.00000000000000000000e+00) (0, 0, 0.00000000000000000000e+00) (0, 0, 0.00000000000000000000e+00) (0, 0, 0.00000000000000000000e+00) (0, 0, 0.00000000000000000000e+00) (0, 0, 0.00000000000000000000e+00) (0, 0, 0.00000000000000000000e+00) (0, 0, 0.00000000000000000000e+00) (0, 0, 0.00000000000000000000e+00) (0, 0, 0.00000000000000000000e+00) (0, 0, 0.00000000000000000000e+00) (0, 0, 0.00000000000000000000e+00) (0, 0, 0.00000000000000000000e+00) (0, 0, 0.00000000000000000000e+00) (0, 0, 0.00000000000000000000e+00) (0, 0, 0.00000000000000000000e+00) (0, 0, 0.00000000000000000000e+00) (0, 0, 0.00000000000000000000e+00) (0, 0, 0.00000000000000000000e+00) (0, 0, 0.00000000000000000000e+00) (0, 0, 0.00000000000000000000e+00) (0, 0, 0.00000000000000000000e+00) (0, 0, 0.00000000000000000000e+00) (0, 0, 0.00000000000000000000e+00) (0, 0, 0.00000000000000000000e+00) (0, 0, 0.00000000000000000000e+00) (0, 0, 0.00000000000000000000e+00) (0, 0, 0.00000000000000000000e+00) (0, 0, 0.00000000000000000000e+00) (0, 0, 0.00000000000000000000e+00) (0, 0, 0.00000000000000000000e+00) (0, 0, 0.00000000000000000000e+00) (0, 0, 0.00000000000000000000e+00) (0, 0, 0.00000000000000000000e+00) (0, 0, 0.00000000000000000000e+00) (0, 0, 0.00000000000000000000e+00) (0, 0, 0.00000000000000000000e+00) (0, 0, 0.00000000000000000000e+00) (0, 0, 0.00000000000000000000e+00) (0, 0, 0.00000000000000000000e+00) (0, 0, 0.00000000000000000000e+00) (0, 0, 0.00000000000000000000e+00) (0, 0, 0.00000000000000000000e+00) (0, 0, 0.00000000000000000000e+00) (0, 0, 0.00000000000000000000e+00) (226, 5, 5.00000000000000000000e-01) (226, 5, 5.00000000000000000000e-01) (226, 5, 5.00000000000000000000e-01) (226, 5, 5.00000000000000000000e-01) (226, 5, 5.00000000000000000000e-01) (226, 5, 5.00000000000000000000e-01) (226, 5, 5.00000000000000000000e-01) (226, 5, 5.00000000000000000000e-01) (226, 5, 5.00000000000000000000e-01) (226, 5, 5.00000000000000000000e-01) (226, 5, 5.00000000000000000000e-01) (226, 5, 5.00000000000000000000e-01) (226, 5, 5.00000000000000000000e-01) (226, 5, 5.00000000000000000000e-01) (226, 5, 5.00000000000000000000e-01) (226, 5, 5.00000000000000000000e-01) (226, 5, 5.00000000000000000000e-01) (226, 5, 5.00000000000000000000e-01) (226, 5, 5.00000000000000000000e-01) (226, 5, 5.00000000000000000000e-01) (226, 5, 5.00000000000000000000e-01) (226, 5, 5.00000000000000000000e-01) (226, 5, 5.00000000000000000000e-01) (226, 5, 5.00000000000000000000e-01) (226, 5, 5.00000000000000000000e-01) (226, 5, 5.00000000000000000000e-01) (226, 5, 5.00000000000000000000e-01) (226, 5, 5.00000000000000000000e-01) (226, 5, 5.00000000000000000000e-01) (226, 5, 5.00000000000000000000e-01) (226, 5, 5.00000000000000000000e-01) (226, 5, 5.00000000000000000000e-01) (226, 5, 5.00000000000000000000e-01) (226, 5, 5.00000000000000000000e-01) (226, 5, 5.00000000000000000000e-01) (226, 5, 5.00000000000000000000e-01) (226, 5, 5.00000000000000000000e-01) (226, 5, 5.00000000000000000000e-01) (226, 5, 5.00000000000000000000e-01) (226, 5, 5.00000000000000000000e-01) (226, 5, 5.00000000000000000000e-01) (226, 5, 5.00000000000000000000e-01) (226, 5, 5.00000000000000000000e-01) (226, 5, 5.00000000000000000000e-01) (226, 5, 5.00000000000000000000e-01) (226, 5, 5.00000000000000000000e-01) (226, 5, 5.00000000000000000000e-01) (226, 5, 5.00000000000000000000e-01) (226, 5, 5.00000000000000000000e-01) (226, 5, 5.00000000000000000000e-01) (226, 5, 5.00000000000000000000e-01) (226, 5, 5.00000000000000000000e-01) (226, 5, 5.00000000000000000000e-01) (226, 5, 5.00000000000000000000e-01) (226, 5, 5.00000000000000000000e-01) (226, 5, 5.00000000000000000000e-01) (226, 5, 5.00000000000000000000e-01) (226, 5, 5.00000000000000000000e-01) (226, 5, 5.00000000000000000000e-01) (226, 5, 5.00000000000000000000e-01) (226, 5, 5.00000000000000000000e-01) (226, 5, 5.00000000000000000000e-01) (226, 5, 5.00000000000000000000e-01) (226, 5, 5.00000000000000000000e-01) (226, 5, 5.00000000000000000000e-01) (226, 5, 5.00000000000000000000e-01) (226, 5, 5.00000000000000000000e-01) (226, 5, 5.00000000000000000000e-01) (226, 5, 5.00000000000000000000e-01) (226, 5, 5.00000000000000000000e-01) (226, 5, 5.00000000000000000000e-01) (226, 5, 5.00000000000000000000e-01) (226, 5, 5.00000000000000000000e-01) (226, 5, 5.00000000000000000000e-01) (226, 5, 5.00000000000000000000e-01) (226, 5, 5.00000000000000000000e-01) (226, 5, 5.00000000000000000000e-01) (226, 5, 5.00000000000000000000e-01) (226, 5, 5.00000000000000000000e-01) (226, 5, 5.00000000000000000000e-01) (226, 5, 5.00000000000000000000e-01) (226, 5, 5.00000000000000000000e-01) (226, 5, 5.00000000000000000000e-01) (226, 5, 5.00000000000000000000e-01) (226, 5, 5.00000000000000000000e-01) (226, 5, 5.00000000000000000000e-01) (226, 5, 5.00000000000000000000e-01) (226, 5, 5.00000000000000000000e-01) (226, 5, 5.00000000000000000000e-01) (226, 5, 5.00000000000000000000e-01) (226, 5, 5.00000000000000000000e-01) (226, 5, 5.00000000000000000000e-01) (226, 5, 5.00000000000000000000e-01) (226, 5, 5.00000000000000000000e-01) (226, 5, 5.00000000000000000000e-01) (226, 5, 5.00000000000000000000e-01) (226, 5, 5.00000000000000000000e-01) (226, 5, 5.00000000000000000000e-01) (226, 5, 5.00000000000000000000e-01) (226, 5, 5.00000000000000000000e-01) (226, 5, 5.00000000000000000000e-01) (226, 5, 5.00000000000000000000e-01) (226, 5, 5.00000000000000000000e-01) (226, 5, 5.00000000000000000000e-01) (226, 5, 5.00000000000000000000e-01) (226, 5, 5.00000000000000000000e-01) (226, 5, 5.00000000000000000000e-01) (226, 5, 5.00000000000000000000e-01) (226, 5, 5.00000000000000000000e-01) (226, 5, 5.00000000000000000000e-01) (226, 5, 5.00000000000000000000e-01) (226, 5, 5.00000000000000000000e-01) (226, 5, 5.00000000000000000000e-01) (226, 5, 5.00000000000000000000e-01) (226, 5, 5.00000000000000000000e-01) (226, 5, 5.00000000000000000000e-01) (226, 5, 5.00000000000000000000e-01) (226, 5, 5.00000000000000000000e-01) (226, 5, 5.00000000000000000000e-01) (226, 5, 5.00000000000000000000e-01) (226, 5, 5.00000000000000000000e-01) (226, 5, 5.00000000000000000000e-01) (226, 5, 5.00000000000000000000e-01) (226, 5, 5.00000000000000000000e-01) (226, 5, 5.00000000000000000000e-01) (226, 5, 5.00000000000000000000e-01) (226, 5, 5.00000000000000000000e-01) (226, 5, 5.00000000000000000000e-01) (226, 5, 5.00000000000000000000e-01) (226, 5, 5.00000000000000000000e-01) (226, 5, 5.00000000000000000000e-01) (226, 5, 5.00000000000000000000e-01) (226, 5, 5.00000000000000000000e-01) (226, 5, 5.00000000000000000000e-01) (226, 5, 5.00000000000000000000e-01) (226, 5, 5.00000000000000000000e-01) (226, 5, 5.00000000000000000000e-01) (226, 5, 5.00000000000000000000e-01) (226, 5, 5.00000000000000000000e-01) (226, 5, 5.00000000000000000000e-01) (226, 5, 5.00000000000000000000e-01) (226, 5, 5.00000000000000000000e-01) (226, 5, 5.00000000000000000000e-01) (226, 5, 5.00000000000000000000e-01) (226, 5, 5.00000000000000000000e-01) (226, 5, 5.00000000000000000000e-01) (226, 5, 5.00000000000000000000e-01) (226, 5, 5.00000000000000000000e-01) (226, 5, 5.00000000000000000000e-01) (226, 5, 5.00000000000000000000e-01) (226, 5, 5.00000000000000000000e-01) (226, 5, 5.00000000000000000000e-01) (226, 5, 5.00000000000000000000e-01) (226, 5, 5.00000000000000000000e-01) (226, 5, 5.00000000000000000000e-01) (226, 5, 5.00000000000000000000e-01) (226, 5, 5.00000000000000000000e-01) (226, 5, 5.00000000000000000000e-01) (226, 5, 5.00000000000000000000e-01) (226, 5, 5.00000000000000000000e-01) (226, 5, 5.00000000000000000000e-01) (226, 5, 5.00000000000000000000e-01) (226, 5, 5.00000000000000000000e-01) (226, 5, 5.00000000000000000000e-01) (226, 5, 5.00000000000000000000e-01) (226, 5, 5.00000000000000000000e-01) (226, 5, 5.00000000000000000000e-01) (226, 5, 5.00000000000000000000e-01) (226, 5, 5.00000000000000000000e-01) (226, 5, 5.00000000000000000000e-01) (226, 5, 5.00000000000000000000e-01) (226, 5, 5.00000000000000000000e-01) (226, 5, 5.00000000000000000000e-01) (226, 5, 5.00000000000000000000e-01) (226, 5, 5.00000000000000000000e-01) (226, 5, 5.00000000000000000000e-01) (226, 5, 5.00000000000000000000e-01) (226, 5, 5.00000000000000000000e-01) (226, 5, 5.00000000000000000000e-01) (226, 5, 5.00000000000000000000e-01) (226, 5, 5.00000000000000000000e-01) (226, 5, 5.00000000000000000000e-01) (226, 5, 5.00000000000000000000e-01) (226, 5, 5.00000000000000000000e-01) (226, 5, 5.00000000000000000000e-01) (226, 5, 5.00000000000000000000e-01) (226, 5, 5.00000000000000000000e-01) (226, 5, 5.00000000000000000000e-01) (226, 5, 5.00000000000000000000e-01) (226, 5, 5.00000000000000000000e-01) (226, 5, 5.00000000000000000000e-01) (226, 5, 5.00000000000000000000e-01) (226, 5, 5.00000000000000000000e-01) (226, 5, 5.00000000000000000000e-01) (226, 5, 5.00000000000000000000e-01) (226, 5, 5.00000000000000000000e-01) (226, 5, 5.00000000000000000000e-01) (226, 5, 5.00000000000000000000e-01) (226, 5, 5.00000000000000000000e-01) (226, 5, 5.00000000000000000000e-01) (226, 5, 5.00000000000000000000e-01) (226, 5, 5.00000000000000000000e-01) (226, 5, 5.00000000000000000000e-01) (226, 5, 5.00000000000000000000e-01) (226, 5, 5.00000000000000000000e-01) (226, 5, 5.00000000000000000000e-01) (226, 5, 5.00000000000000000000e-01) (226, 5, 5.00000000000000000000e-01) (226, 5, 5.00000000000000000000e-01) (226, 5, 5.00000000000000000000e-01) (226, 5, 5.00000000000000000000e-01) (226, 5, 5.00000000000000000000e-01) (226, 5, 5.00000000000000000000e-01) (226, 5, 5.00000000000000000000e-01) (226, 5, 5.00000000000000000000e-01) (226, 5, 5.00000000000000000000e-01) (226, 5, 5.00000000000000000000e-01) (226, 5, 5.00000000000000000000e-01) (226, 5, 5.00000000000000000000e-01) (226, 5, 5.00000000000000000000e-01) (226, 5, 5.00000000000000000000e-01) (226, 5, 5.00000000000000000000e-01) (226, 5, 5.00000000000000000000e-01) (226, 5, 5.00000000000000000000e-01) (226, 5, 5.00000000000000000000e-01) (226, 5, 5.00000000000000000000e-01) (0, 5, 0.00000000000000000000e+00) (227, 5, 5.00000000000000000000e-01) (0, 5, 0.00000000000000000000e+00) 
connections (connected_to_neuron, weight)=(0, 3.67081532165614843333e-01) (1, 3.96015548989383459055e-01) (2, 2.99124165526484186994e-01) (3, 3.78613272730775829444e-01) (4, 3.51951781525271178985e-01) (5, 2.33943266686379540420e-02) (6, -1.65641324167313391813e-01) (7, -1.10405781810345632321e-01) (8, 2.83991048161455150733e-01) (9, 3.24136729440544779646e-01) (10, 3.32749272785042460310e-01) (11, 2.83749683848475153791e-01) (12, -1.69675884869254639531e-01) (13, -1.87714016165889341359e-01) (14, -1.70114914170386599679e-01) (15, -2.70605040651689443543e-01) (16, -3.48345460810436824417e-01) (17, -3.76261551233268098926e-01) (18, -3.75752260993353237595e-01) (19, -2.46427974776927932732e-01) (20, 3.91226591591306682716e-01) (21, 5.44127192213194499359e-01) (22, 6.86907303762376741929e-01) (23, 6.67067264449537233872e-01) (24, 2.70337450406407053816e-01) (25, 3.60257590238519664894e-01) (26, 3.67848256651826854835e-01) (27, 3.12224830589150126325e-01) (28, 3.61517692033716198097e-01) (29, 3.46430795316167827735e-01) (30, 3.48903472623680765974e-01) (31, 3.87377101085041697370e-01) (32, 4.13661914965962107527e-01) (33, 4.14482908372350689064e-01) (34, 6.45888195615947680039e-01) (35, 3.45825294081636425148e-01) (36, 4.04342116836973186622e-01) (37, 2.96581061605878826271e-01) (38, 3.24422354898308451521e-01) (39, 3.33192172548626597273e-01) (40, 3.27479924163674052107e-01) (41, 3.21710313758705790388e-01) (42, 3.51916718385075266706e-01) (43, 4.21842122361270666087e-01) (44, 3.57432270333377599680e-01) (45, 4.20912558123676061594e-01) (46, 3.34050470873920202219e-01) (47, 2.42869550273029144449e-01) (48, 3.65223953411189794505e-01) (49, 3.75667491838542699778e-01) (50, 3.00307148978320836985e-01) (51, 3.18919235751239538157e-01) (52, 3.41307136318539316999e-01) (53, -1.02735252623620015866e-01) (54, 1.44183526736157974213e-01) (55, 1.30711446505445083588e-01) (56, -8.67792158771180655030e-02) (57, -7.48885213781022296420e-02) (58, -2.79906704474114607917e-02) (59, -9.28791008159562808677e-02) (60, -2.40408926384155313682e-01) (61, -1.95900743928111631398e-01) (62, -1.49000262942470124150e-01) (63, -1.07890444091441398133e-01) (64, -4.13756693483300630465e-01) (65, -4.10687064836851356553e-01) (66, -4.61688764693475084400e-01) (67, -4.26766965838408784961e-01) (68, -4.60094893791450965104e-01) (69, -1.04671603169597171590e-01) (70, -1.62067869250836188444e-01) (71, 2.68379594397485488066e-01) (72, 3.36402292561471805143e-01) (73, 9.51107019983188639589e-02) (74, 1.37589110662783814520e-01) (75, -2.47538795795596511251e-01) (76, -2.07858569101993656547e-01) (77, 4.21891293179650683776e-01) (78, 6.29672400355635542013e-01) (79, 4.07155874273632700788e-01) (80, 4.26363760516254186594e-01) (81, 6.07914902915801413918e-01) (82, 3.17856820211021184885e-01) (83, 2.76234382674304723704e-01) (84, 5.83532341470565207864e-01) (85, 6.24129657722738762082e-01) (86, 7.53890176546514467759e-01) (87, 5.71119367778597730734e-01) (88, 5.74580087960062879660e-01) (89, 5.42445272436294700924e-01) (90, 4.04515402330076434545e-01) (91, 6.17738179564772504904e-01) (92, 6.96871883869467634298e-01) (93, 4.19739657923785924876e-01) (94, 4.21141842290965795481e-01) (95, 3.87620070859996557200e-01) (96, 3.87301290318576574290e-01) (97, 4.29461249992458105051e-01) (98, 4.11844337269870519602e-01) (99, 3.24412414714900732005e-01) (100, 2.56169179365245525126e-01) (101, 2.92090205386487722361e-01) (102, -6.95446721479341251060e-02) (103, 1.82436094235754464599e-02) (104, 3.59549028691231661869e-02) (105, 1.32216746908086379975e-01) (106, 1.27561525058126901122e-02) (107, 1.58311114262915109130e-02) (108, -1.03373432104649526364e-01) (109, -6.77683495203080521474e-02) (110, 2.04165501246080544062e-01) (111, -1.81851060613407757016e-02) (112, -1.20080084495188185723e-01) (113, -2.66682695236306943620e-01) (114, -4.25959015439602572961e-01) (115, -2.72821528921953493363e-01) (116, -3.55691302867865877246e-01) (117, -3.27470619531607942676e-01) (118, -3.86514442481770137405e-01) (119, -3.93303359628625337496e-01) (120, 1.56080112408972238036e-02) (121, 2.66815195989549391875e-01) (122, 2.43439275038182995070e-01) (123, 6.57135906122581492372e-02) (124, -3.25104193119438611426e-01) (125, -1.76011958448322874959e-01) (126, -1.17128020253337447598e-01) (127, 6.54154278634240693435e-01) (128, 6.12234969712523002805e-01) (129, 5.63012178689537901022e-01) (130, 2.39722171709148224039e-01) (131, 4.80703199261691860311e-01) (132, 3.71711268575184272667e-01) (133, 2.73270558120005058189e-01) (134, 6.20079323370486878986e-01) (135, 5.64519554198323780803e-01) (136, 6.67428027482116159597e-01) (137, 5.26163085997401358540e-01) (138, 5.97870990862998885618e-01) (139, 6.14892766108665389524e-01) (140, 4.29573418511068561010e-01) (141, 5.71504526069316787229e-01) (142, 6.70174576044379133322e-01) (143, 2.53434836924181172702e-01) (144, 2.57486494168845836406e-01) (145, 2.32217343434898193522e-01) (146, 3.17920868094107189616e-01) (147, 1.38209448181942778922e-01) (148, 2.09122070097283258017e-01) (149, 3.52621944532005071604e-01) (150, 9.45571060817206010540e+00) (151, 4.43797245592855738039e+00) (152, 2.02171847351372591106e+00) (153, 1.16320793013422973949e+00) (154, 1.26572037360881095580e+00) (155, 5.99069384169519603134e-01) (156, 4.62004588965841289649e-01) (157, 4.29897712592550274024e-01) (158, 4.09526081804700847755e-01) (159, 5.03576394035475383149e-01) (160, -1.40646710444115967398e-02) (161, -1.61575207059445197233e-01) (162, -1.71189607625069434294e-01) (163, -2.59027971055663441824e-01) (164, -1.28214737501300385381e-01) (165, -1.50119101729548981572e-01) (166, -9.67704114581713903398e-02) (167, -2.65520444240725850271e-01) (168, -2.47178731587088945654e-01) (169, 3.30078871831504583323e-01) (170, 2.92343722567168950999e-01) (171, 2.77639651581851720774e-01) (172, 3.46338840112296819651e-01) (173, 3.73511785552112340891e-01) (174, 2.69252961412278890574e-01) (175, 6.28736844100742597874e+00) (176, 2.70867223796780320910e+00) (177, 3.15990061831888446875e+00) (178, 1.80275339186047345308e+00) (179, 8.22836303871929963805e-01) (180, 6.98968328764591140256e-01) (181, 6.31250073444784121079e-01) (182, 1.91973372560680172194e-01) (183, -1.42753639762463441221e-01) (184, 1.55247609120267499039e-01) (185, -1.07382820491852742917e-01) (186, -1.59698048179211488096e-01) (187, -2.17740252066277693854e-02) (188, -2.31444230404056067174e-01) (189, -1.28268158164180329228e-01) (190, -2.48193403806842238790e-01) (191, -2.31652287867225165074e-01) (192, -2.25121254202283488377e-01) (193, -2.58086918022788380789e-01) (194, -1.12030303206599748944e-01) (195, 3.69504416272250890696e-01) (196, 3.17337961778251409495e-01) (197, 3.55851137921420812571e-01) (198, 2.46801311060993011637e-01) (199, 2.46382327661125000162e-01) (200, -2.30093029085975597781e+00) (201, -1.35934819974379372809e+01) (202, -3.59631949557585173238e+00) (203, 3.93719284771582245241e-01) (204, 4.26635837348865232244e-01) (205, 2.16245948038934043822e+00) (206, 7.73657088410795168443e-01) (207, 2.26645278942525646437e-01) (208, -1.19946315336846680288e-02) (209, -1.70414873902859503874e-01) (210, -1.39454656784596314756e-01) (211, 8.91312813275818571768e-03) (212, -2.50668770746891089729e-01) (213, -2.33126947757161612218e-01) (214, -2.09720647063411341771e-01) (215, -2.20035662975467311009e-01) (216, -1.84473736312545377736e-01) (217, -9.52612516547808874101e-02) (218, -1.01085698332942508504e-01) (219, -1.92504717137969572072e-01) (220, 2.36269885584918792887e-01) (221, 2.44723664507476623697e-01) (222, 3.27318774447051763499e-01) (223, 3.03346263155547857249e-01) (224, 3.97342527196017980540e-01) (225, 3.92736146137325048411e-01) (0, -4.52102529419745862577e-03) (1, -1.45336290770901155334e-01) (2, -3.50238746911275822260e-02) (3, -6.68274870480057431310e-02) (4, 3.61330032658313426985e-01) (5, 3.67780283403133068099e-01) (6, 4.38930751327182067101e-01) (7, 2.58405216007933868916e-01) (8, 3.05228941112265950153e-01) (9, -1.35470864084107439629e-01) (10, 2.13852964970725895055e-01) (11, 2.22705897572893024572e-01) (12, 5.67206130604735014877e-01) (13, 6.83240452091684713487e-01) (14, 3.51318988713472890595e-01) (15, 3.92383938885736582858e-01) (16, 4.38909714084540658607e-01) (17, 5.14031165139953394316e-01) (18, 5.08012858177047110786e-01) (19, 4.52576064897612873050e-01) (20, 3.31278094593192351525e-01) (21, -2.22866539883877862183e-01) (22, -1.53524171408509962911e-01) (23, -1.56179111298417799825e-01) (24, -1.52426447676583726176e-01) (25, -1.37329745885228865498e-01) (26, -1.76447305675840132588e-01) (27, -1.21564333736781616732e-03) (28, -5.50354394212075048731e-02) (29, -1.73872632075817240560e-01) (30, -4.34336951881635624506e-02) (31, 1.33646362513315242193e-02) (32, 2.28793256968271192797e-02) (33, -9.09548672929115648023e-02) (34, -7.17315870418854389934e-02) (35, 1.39209655031851953222e-02) (36, -2.37357589497872098483e-02) (37, -1.20036264051467958525e-01) (38, -1.56178093463170981209e-02) (39, -8.65171325678491531797e-02) (40, -1.48962579416718476910e-01) (41, -6.95804355020189363445e-02) (42, -9.38072053069734790309e-02) (43, -6.40636812390216886515e-02) (44, -7.88240860642322460627e-02) (45, 4.30425126610866348731e-02) (46, -1.45086547309292268615e-01) (47, -3.01034654916652634482e-02) (48, -1.09357232177389518402e-01) (49, -1.27480281466377659561e-01) (50, -1.21560430103672414970e-01) (51, -2.66451443971523239951e-02) (52, 4.76387643648223224613e-01) (53, 3.32344596776868117516e-01) (54, 3.69862318348621044173e-01) (55, 3.69951337885593090071e-01) (56, 1.61251664131389055301e-01) (57, 2.45597630708918851505e-01) (58, 2.48225681453452334813e-01) (59, 2.78717034194129964497e-01) (60, 2.05463111688268473820e-01) (61, 3.85380831705984028268e-01) (62, 8.01288780757845153779e-01) (63, 7.48918106661958793424e-01) (64, 5.39467611726673013095e-01) (65, 5.90120700145583487739e-01) (66, 5.66788540082256098174e-01) (67, 6.36387661891261835478e-01) (68, 5.71528349977408645088e-01) (69, 5.16646420813608453493e-01) (70, 3.82808574978019011681e-01) (71, 3.79667872134352935021e-01) (72, 3.93973761740828765099e-01) (73, 4.65231101384211920280e-01) (74, 4.84938959946681402702e-01) (75, 5.14958675375034036215e-01) (76, 4.48118781933190324374e-01) (77, -1.68714202703977744768e-01) (78, -4.28924254089582401850e-02) (79, -8.95047924429167029992e-02) (80, -9.59803554655441204524e-02) (81, -1.02355541610849753997e-01) (82, -5.00840898097881376261e-02) (83, -1.23818306201828376434e-01) (84, 2.52328385172954604287e-02) (85, -1.17067416341027255577e-01) (86, -8.73929746329030893159e-03) (87, -6.67019558424616076930e-02) (88, -1.15262157964196226834e-01) (89, -6.65702072257662036403e-02) (90, -1.07124406216304174366e-01) (91, -1.48633070039238923687e-01) (92, -1.31525709974255583523e-01) (93, 3.36930606613575277068e-04) (94, 4.48802877722850671049e-02) (95, -5.74531014503368436808e-02) (96, 2.51904745160213515420e-02) (97, 1.57551635562053725381e-02) (98, 3.65902353583446374174e-02) (99, 1.14966054020992289320e-02) (100, -1.37123485976589631896e-01) (101, 5.06214988814507067111e-03) (102, 3.80976857079104724857e-01) (103, 3.63324427548552764122e-01) (104, 2.47754685890411024962e-01) (105, 3.06938790094588909163e-01) (106, 3.09297837286696797321e-01) (107, 2.57618479400382294209e-01) (108, 7.20541648379077637188e-01) (109, 5.42960860258849153936e-01) (110, 4.87247685905761507286e-01) (111, 7.05906963061797121384e-01) (112, 5.74465258132922151901e-01) (113, 8.17588246665142737157e-01) (114, 9.10552920061504567073e-01) (115, 1.02362891367521902097e+00) (116, 1.32237241658076554174e+00) (117, 1.25059195848807580553e+00) (118, 1.19517464742147638823e+00) (119, 1.07122883112648481507e+00) (120, 8.52243010495418618078e-01) (121, 8.93181142006630013341e-01) (122, 4.72070650700236460473e-01) (123, 4.39480099251319311637e-01) (124, 5.15340841478197808634e-01) (125, 4.95800636888744705733e-01) (126, 3.49950678115951929747e-01) (127, -5.15418348331701040022e-02) (128, -1.37642642285913469058e-01) (129, 1.18419908970605874260e-02) (130, 3.94189823924175064551e-02) (131, -3.06098539389448552617e-02) (132, -1.15776464716322996518e-01) (133, -1.10862024501689054867e-01) (134, -1.16407713620385253050e-01) (135, -5.17252967480845565751e-02) (136, -1.08367068579606040668e-01) (137, 2.71710383420324351478e-02) (138, 8.02036399892330428840e-03) (139, -6.36014298774408015635e-02) (140, -6.41650886513398799327e-02) (141, -1.37596893427531674625e-01) (142, -9.96851732308531024440e-02) (143, 2.33264728506696501775e-02) (144, -9.06673278154262463069e-02) (145, -6.29977690590705508705e-03) (146, -2.78634402717188832399e-02) (147, 8.72182978147888893217e-02) (148, 1.91391540522003501812e-02) (149, -8.97316019476779858088e-02) (150, -9.18638849368565679754e+00) (151, -2.77741379393935927666e+00) (152, -5.50476917421666822605e-01) (153, -1.97073545783233078366e-01) (154, -2.16156330946570135465e-01) (155, -1.30787675370247019613e-01) (156, -1.38507976975536101216e-01) (157, -1.78924027677869551534e-01) (158, -5.15025815332886549580e-02) (159, 3.26888792526458415999e-01) (160, 3.75533693972731841271e-01) (161, 3.10756848696376097863e-01) (162, 4.06371006313468230431e-01) (163, 4.25528201630164526481e-01) (164, 8.10564531052107350995e-01) (165, 7.59481674098963277508e-01) (166, 8.09880984985823171307e-01) (167, 8.71077535712713735272e-01) (168, 8.00269338210384595378e-01) (169, 8.12369326968948590739e-01) (170, -1.02633161419762031219e-01) (171, -1.16027703458202735565e-01) (172, -3.80441899837383398775e-02) (173, 3.07938177643886472346e-02) (174, -8.80941557301368263766e-03) (175, -5.13992435889410881344e+00) (176, -1.94254069813990781768e+00) (177, -1.91223358574642099406e+00) (178, -2.23445297412798365988e-01) (179, -1.54445995823734990790e-03) (180, -1.00686316788081665560e-03) (181, -1.42872277494764082784e-01) (182, 3.38159752581025374596e-01) (183, 3.66976806465293181603e-01) (184, 2.33392037760947884673e-01) (185, 3.75760318282748473351e-01) (186, 3.19670760575438750450e-01) (187, 4.22491149548197997277e-01) (188, 3.56918114593078039665e-01) (189, 4.68564431538630865592e-01) (190, 5.08029501309444131429e-01) (191, 8.09805577659601705243e-01) (192, 3.91508738865901373405e-01) (193, 4.33152410557319067497e-01) (194, 3.37791934078800593078e-01) (195, 3.18846423684230675932e-02) (196, -7.54611696542628884732e-02) (197, -3.63352726639637121919e-02) (198, -4.74562476815113126749e-02) (199, 4.22257651148906509864e-02) (200, 3.50075926082629207414e+00) (201, 6.91820306714291888284e+00) (202, 1.74153345012857463381e+00) (203, -1.16428275039832815341e-01) (204, -2.73447607434789512204e-02) (205, -2.00890812553609104940e-01) (206, -1.21281079795455618009e-01) (207, 8.89615994487518380041e-01) (208, 3.52592439893389952843e-01) (209, 3.37122840378190291588e-01) (210, 3.39532358143235457604e-01) (211, 4.36360077503825438683e-01) (212, 4.44931173158721271488e-01) (213, 4.75732843747187994499e-01) (214, 3.87558590045024298210e-01) (215, 4.42962008884002111930e-01) (216, 4.08371578326274298210e-01) (217, 4.46868743171740911979e-01) (218, 4.68197419708835993468e-01) (219, 4.24929625755417261779e-01) (220, 4.23229023283588801085e-01) (221, -2.69908662380107834677e-02) (222, 3.96852386580620348361e-03) (223, -6.13848771394619047159e-02) (224, -5.60946966947444974894e-02) (225, -1.44027223760021638732e-01) (0, 1.49813995478660200167e-01) (1, 9.19783495049778243580e-02) (2, 7.00713170251874711836e-02) (3, 1.57584903140669058130e-01) (4, -2.47159461138306557615e-02) (5, -5.85936727581082214544e-02) (6, -3.33483858668868982100e-01) (7, -2.80872336292331659102e-01) (8, -2.39060728514259274169e-01) (9, 2.09882343889329775477e-01) (10, 2.92054435939643808329e-01) (11, -2.39773158228106714196e-01) (12, -3.51678784237066777152e-01) (13, -3.51594212696711094779e-01) (14, -3.39145955745163707462e-01) (15, -6.50052880393494403322e-01) (16, -1.11593395518011262446e+00) (17, -1.33210254219900559036e+00) (18, -9.90730382780367180295e-01) (19, -5.41918037172513744615e-01) (20, -2.61981461086503164548e-01) (21, 4.49396529797289556729e-01) (22, 3.31988298201031706292e-01) (23, 2.13156243165140341089e-01) (24, 9.23297146440291427449e-02) (25, 1.77030997005726498106e-01) (26, 2.38419646052147549131e-01) (27, 9.87365583062911333911e-02) (28, 2.56863439110542934873e-01) (29, 1.82216809717442196348e-01) (30, 9.76940209151053728931e-02) (31, 2.36115131723954679854e-01) (32, 7.98727164150023760669e-02) (33, 2.12316447523857754209e-01) (34, 2.81008699563767117002e-01) (35, 1.91609436301018398741e-01) (36, 2.58303785351540249327e-01) (37, 1.90127053884293240049e-01) (38, 2.45108310329988005050e-01) (39, 2.28150490868165495284e-01) (40, 2.18037966835572721847e-01) (41, 2.56835509288384944426e-01) (42, 1.27227302837445793715e-01) (43, 1.71170848434182204523e-01) (44, 1.12147728924962122865e-01) (45, 1.10356966977330286928e-01) (46, 2.13103863423081435480e-01) (47, 8.01118342330180005506e-02) (48, 8.31247186412535504774e-02) (49, 1.20687077765675623842e-01) (50, 2.24782765625030106493e-01) (51, 9.21128771882358809986e-02) (52, -6.28987436827379120530e-01) (53, -3.27267761921763378208e-01) (54, -6.10344755110798706244e-02) (55, -6.40924918112812935789e-02) (56, -3.52141990029876672530e-01) (57, -2.68076873087947809005e-01) (58, -1.85744992160861960295e-01) (59, -3.10754817223258206216e-01) (60, -3.18561028933234402505e-01) (61, -3.39411380932489903373e-01) (62, -3.73415651962915928763e-01) (63, -2.98514298509245157298e-01) (64, -4.54457330922483526692e-01) (65, -1.13428987166416894716e+00) (66, -1.34524065015446137039e+00) (67, -1.18483022359739775808e+00) (68, -1.08049216912931611567e+00) (69, -6.75944594191540515382e-01) (70, -3.41178770756602245395e-01) (71, -2.96927545828217009927e-01) (72, 2.70669047587580646752e-01) (73, -6.68645238028992450197e-01) (74, -6.82153933710970217241e-01) (75, -6.37628831930078798784e-01) (76, -6.30144839543637758084e-01) (77, 2.64115908615700889506e-01) (78, 1.66664134907796385177e-01) (79, 2.17009384381844999679e-01) (80, 1.38628597383710056024e-01) (81, 1.74410420482369460382e-01) (82, 1.59276719217511270044e-01) (83, 2.07317533915253676691e-01) (84, 2.29307758634301223077e-01) (85, 2.98307502143494829294e-01) (86, 3.23427008119846981504e-01) (87, 2.17446450340821745284e-01) (88, 1.15291346061303645598e-01) (89, 2.02998432082067803428e-01) (90, 2.29428666395078917351e-01) (91, 2.33947310793473722823e-01) (92, 2.45033968436791899093e-01) (93, 1.47784854297848794458e-01) (94, 6.36032177259646391843e-02) (95, 2.22827303235741652765e-01) (96, 9.55452106576267501392e-02) (97, 1.96583435652762955614e-01) (98, 1.46055199919253947405e-01) (99, 1.24471242552014429994e-01) (100, 2.25287318943053788134e-01) (101, 1.72115445850402420946e-01) (102, -6.25699473258214844407e-01) (103, -4.66500043517232121371e-01) (104, 6.22268048467579382166e-02) (105, -1.11501166738614501672e-01) (106, -1.95241174364154751464e-01) (107, -2.36058919394081051513e-01) (108, -2.60090923571651422286e-01) (109, -5.97664530984016451054e-02) (110, 5.09663303991384833425e-02) (111, -2.77751306157950961229e-01) (112, -2.90220057677869403001e-01) (113, -4.50281009779080254596e-01) (114, -6.03916324049090902371e-01) (115, -4.42443731456632072252e-01) (116, -1.28679875416289801748e+00) (117, -1.15187286344896788748e+00) (118, -1.16640286194032860578e+00) (119, -8.60743161662024691694e-01) (120, -4.53877817487597534640e-01) (121, -2.29838144642704494958e-01) (122, -2.77249310774200896645e-01) (123, -5.81302253054608031313e-01) (124, -8.25427454262774640270e-01) (125, -6.95123681677574212223e-01) (126, -7.21307554311670595659e-01) (127, 1.88748564934844681451e-01) (128, 1.96676292889229942240e-01) (129, 1.08946617889478236663e-01) (130, 1.27711321239682290551e-01) (131, 4.64006362079491946337e-02) (132, 9.89677158712258808748e-02) (133, -6.07232027064651645742e-03) (134, 1.92217302431141240371e-01) (135, 1.27259444761589429751e-01) (136, 1.92043975359315582940e-01) (137, 1.34080540585591850844e-01) (138, 1.93051988941561059043e-01) (139, 2.59652646941076536979e-01) (140, 2.16849553150068541374e-01) (141, 2.25284742874037047233e-01) (142, 1.86991777467801628676e-01) (143, 8.64577671325914287603e-02) (144, 1.67186337535592116632e-01) (145, 1.44084836368771646020e-01) (146, 4.11756915459316613637e-02) (147, -5.10299626945577081139e-02) (148, -9.31930069088063584015e-02) (149, 1.54987680738183114526e-01) (150, 5.97813092314023908358e+00) (151, 2.36814118430028042184e+00) (152, 1.05906314611635021805e+00) (153, 7.16231290804173054143e-02) (154, 1.21866622559798354342e-01) (155, 2.57118785408760708311e-01) (156, 2.73895615366722744444e-01) (157, 2.04691683252458761499e-01) (158, 3.27180849043156307676e-01) (159, -2.11917693374215065916e-02) (160, -4.89219355976462544344e-01) (161, -4.42750844752669403537e-01) (162, -4.46497995054602692111e-01) (163, -6.61738035725582873781e-01) (164, -6.08347741412151976625e-01) (165, -6.77758452939022815187e-01) (166, -6.63589199530113971193e-01) (167, -7.20846862988699710328e-01) (168, -6.50473763691414630372e-01) (169, 1.00796901402980448870e-01) (170, 6.17169670443836332341e-02) (171, 4.52520705442730070134e-02) (172, 1.19725503740817668108e-01) (173, 2.01272073214264907159e-01) (174, 2.23141702835770644464e-01) (175, 4.00268589966940258051e+00) (176, 1.86325727743329228048e+00) (177, 1.43038041711916474874e+00) (178, 4.35900641527916687945e-01) (179, -2.98158343199401654200e-01) (180, 1.32959141147266701743e-01) (181, 1.69398577538754174787e-01) (182, -3.29307492470622020786e-01) (183, -4.04040861523032257541e-01) (184, 1.35550600829066475450e-02) (185, -4.99260145819068135165e-01) (186, -3.98327719068408081515e-01) (187, -4.27071231996893951877e-01) (188, -7.56101434575547015626e-01) (189, -5.73958513783444090883e-01) (190, -6.98034477876652514894e-01) (191, -6.42649700390328093569e-01) (192, -5.90662745284069701235e-01) (193, -6.45967354523171222169e-01) (194, -7.50424129413594043214e-01) (195, -7.55525057660568988283e-01) (196, 1.03712425349265696672e-01) (197, 6.29576973300281644841e-02) (198, 1.04664753203602869935e-01) (199, 1.43994915311547372339e-01) (200, 2.47161144960808121240e+00) (201, -2.26776085851160852380e-01) (202, 1.00752440850918212334e+00) (203, 5.17839692404319706931e-01) (204, 1.05073568812397641348e-02) (205, 1.09788088465704300467e-01) (206, 2.27836829920416067408e-01) (207, -3.61999835467219310825e-01) (208, -4.64364133423447789095e-01) (209, -5.01015815532088515383e-01) (210, -5.05769993758082625490e-01) (211, -4.09273210561156342013e-01) (212, -5.72533635135846874498e-01) (213, -7.45154147492874896486e-01) (214, -5.82899732040394469301e-01) (215, -5.73119533704746886293e-01) (216, -5.97164807366360350649e-01) (217, -7.26068472014893329103e-01) (218, -6.09915820406902953188e-01) (219, -6.32559177922238036196e-01) (220, -5.99357990073193236391e-01) (221, 2.03654587982207840868e-01) (222, 1.90917164800674027392e-01) (223, 1.12807721612960459856e-01) (224, 1.34054566745968911645e-01) (225, 9.86805809786043958143e-02) (0, -1.83097517852796515259e-01) (1, -1.91546696247163861226e-01) (2, -1.98832744009731304802e-01) (3, -1.75982727509768427376e-01) (4, -9.07900312803146952723e-02) (5, 3.60816825423444120791e-01) (6, 3.08798092621534125968e-01) (7, 4.94608720136302970616e-01) (8, 5.57296444965022952367e-01) (9, 8.98491179388084121316e-02) (10, -5.82179447598080331006e-03) (11, 4.97224530045323021010e-01) (12, 4.85965741917630367208e-01) (13, 5.51410948977013704031e-01) (14, 4.81499980907378277717e-01) (15, 2.32201301321411646139e-01) (16, -5.11009761880948723545e-02) (17, -1.36296569723994981382e-01) (18, 1.32298249695021220840e-02) (19, 3.32374694556904104470e-01) (20, -2.07345104898587734299e-01) (21, -9.75985000363334756490e-03) (22, -1.81881497736350622452e-01) (23, -1.56181122298614055710e-01) (24, -2.54001748956678430336e-01) (25, -1.92077706690208044327e-01) (26, -1.23877610202209095802e-01) (27, -1.28900305576561013954e-01) (28, -2.12050533975736171799e-01) (29, -2.07138999487535030442e-01) (30, -3.03014324255226175087e-01) (31, -1.90375843293903362907e-01) (32, -2.75596068449256936805e-01) (33, -1.27785246010200109756e-01) (34, -1.03911048614377582444e-01) (35, -2.37674105103389238236e-01) (36, -2.62505407567397597290e-01) (37, -2.02181066508666545944e-01) (38, -1.75028444476364175575e-01) (39, -1.31762282200096170204e-01) (40, -1.57275513954399148719e-01) (41, -1.58252583093879739540e-01) (42, -1.80038334079025280632e-01) (43, -1.40977139593664285711e-01) (44, -2.84505250872674919638e-01) (45, -1.61455417992178051900e-01) (46, -2.64632711921943486466e-01) (47, -1.55190563564313821487e-01) (48, -1.60969382886899881058e-01) (49, -2.84055712641778923544e-01) (50, -2.07676282887472085648e-01) (51, -2.86764728845659233603e-01) (52, -1.28432587929008523719e-01) (53, 2.83337797242372291251e-01) (54, 4.44712516162598936464e-01) (55, 4.43617563936913816836e-01) (56, 5.79524983955043593298e-01) (57, 5.44936855626720340062e-01) (58, 4.22165145469326041905e-01) (59, 5.82224247817329509935e-01) (60, 4.78574944500259891189e-01) (61, 4.42249855145951331625e-01) (62, 3.12547282431661129637e-03) (63, 1.33517585851988251910e-02) (64, 9.74655871179170713026e-02) (65, -2.23351854470043992285e-01) (66, -2.41111326391610314435e-01) (67, -3.14912881131085675701e-01) (68, -2.65787299361496753836e-01) (69, 2.91885617430197474853e-01) (70, 2.37465034161433191651e-01) (71, 3.36479558531865174942e-01) (72, 2.73541337732895850632e-01) (73, 2.17194716687189703919e-01) (74, 2.53878164346205414947e-01) (75, 1.94116449950632513621e-01) (76, 1.77125085912706869973e-01) (77, -1.95837811775444042839e-01) (78, -2.74792381770847360389e-01) (79, -2.64122554309604684608e-01) (80, -6.77787061701050963514e-01) (81, -7.12243031630746092908e-01) (82, -8.13682954678765502088e-01) (83, -7.14415635833970275037e-01) (84, -1.95218647839132397603e-01) (85, -1.13559530325172519660e-01) (86, -1.79701808030978765762e-01) (87, -1.66113824792144815223e-01) (88, -2.80076850627896056789e-01) (89, -2.68152327485321084755e-01) (90, -2.64770825602052728431e-01) (91, -2.31873342044590063926e-01) (92, -1.23881028242347757118e-01) (93, -3.05007587195936180624e-01) (94, -1.44206519247594949773e-01) (95, -1.60606156112257092428e-01) (96, -1.91082021956457070999e-01) (97, -1.96726077452278186319e-01) (98, -3.12267900660610109309e-01) (99, -2.14136782111230966619e-01) (100, -2.80283867185128987565e-01) (101, -2.02592688621584027242e-01) (102, 1.91241661817741631646e-01) (103, 2.04300801473825094368e-01) (104, 3.33200690803730215084e-01) (105, 3.25559256134235586178e-01) (106, 5.71202789736408145238e-01) (107, 4.73854546738285087315e-01) (108, 5.42008851957935244847e-01) (109, 4.55593677613761294243e-01) (110, 4.28368003020585086382e-01) (111, 4.09853929707624686785e-01) (112, 3.38592777082540763445e-01) (113, 1.69745559617506702743e-01) (114, 2.83797295463333099086e-01) (115, -3.23280418468819760736e-02) (116, -4.06569789523991864666e-01) (117, -3.75236737902077843732e-01) (118, -3.28803132858544122641e-01) (119, -2.83414624250765356805e-01) (120, -9.94973230079579523677e-02) (121, 2.16293572370633097046e-01) (122, 3.07719512765034786117e-01) (123, 2.49715443010317478256e-01) (124, 3.85711161864148929790e-02) (125, -3.64636805525117638216e-02) (126, 4.34753450378736194804e-02) (127, -2.84491412710889457482e-01) (128, -1.93857112176654827751e-01) (129, -1.85199254400966656364e-01) (130, -8.13780013392201628797e-01) (131, -8.23196442773145964367e-01) (132, -7.48319784154695799572e-01) (133, -8.96396065106195738537e-01) (134, -8.14390132179064085705e-01) (135, -6.63106556902161914380e-01) (136, -2.35432894177673379676e-01) (137, -1.49283142037628185905e-01) (138, -2.06863668238159964519e-01) (139, -1.74164028115509073036e-01) (140, -2.03366228587863961952e-01) (141, -2.04864063508747140663e-01) (142, -1.78933323569534313835e-01) (143, -3.48755670651176796770e-01) (144, -2.33693229974809763005e-01) (145, -1.65367088084234198364e-01) (146, -8.63908175346706275199e-01) (147, -1.45008558946894416941e+00) (148, -4.73311433036239959105e-01) (149, -2.96630132021013237509e-01) (150, 2.66458307908389002705e+00) (151, 8.58014384080866832072e-01) (152, 6.14224666905273802842e-02) (153, 2.98700178217758648136e-02) (154, -7.20538390624651942096e-02) (155, -2.56673189933673384644e-01) (156, -1.80185343261138525284e-01) (157, -2.48881544108764174439e-01) (158, -2.25912506814376384812e-01) (159, -7.21215672277544239677e-02) (160, 3.48849355165585572891e-01) (161, 3.72808932249173219375e-01) (162, 2.61455609385594311966e-01) (163, 1.57154083512719505711e-01) (164, 1.40454127489027441600e-01) (165, 1.29545539878304832859e-01) (166, 1.86842248104508751316e-01) (167, 1.72564626000817650242e-01) (168, 8.72165735810600042943e-03) (169, -2.07391361714902966451e-01) (170, -3.08257135571542717489e-01) (171, -1.59344176770750134420e-01) (172, -1.79264794112745401433e-01) (173, -1.85094709517065136861e-01) (174, -1.68396855713430521062e-01) (175, 8.72658290132389935501e-01) (176, 3.10860075125555690434e-01) (177, 2.87360585853496108832e-01) (178, -7.17240380683685507801e-02) (179, -1.72202888340586918181e-01) (180, -2.96858185179470102089e-01) (181, -8.01703288511196460187e-02) (182, 3.47350641076191957168e-01) (183, 1.83692692701443643921e-01) (184, 2.98004816196051347532e-01) (185, 3.54626043622120912246e-01) (186, 2.61719874028786603226e-01) (187, 5.07921577974394383714e-02) (188, 1.34567752741273305439e-01) (189, -4.81830511242546406098e-03) (190, 1.33761048577721974873e-01) (191, 3.68390756472905811503e-02) (192, 6.92690091952642000850e-02) (193, 1.19268849752839439793e-01) (194, 6.64658325537999666865e-02) (195, -3.00992998303476311239e-01) (196, -2.71039142282310463461e-01) (197, -2.36583891333643075994e-01) (198, -1.47169972778860208562e-01) (199, -1.67402560831609842351e-01) (200, 3.65803079314184820259e-01) (201, -4.91745462430752178218e-01) (202, 7.86572068930886381111e-02) (203, -3.71923695472510862370e-01) (204, -2.65854020799585311075e-01) (205, -2.80913406193457927673e-02) (206, -1.90539571578876104629e-01) (207, 3.71459065858944947891e-01) (208, 3.74174474660977418594e-01) (209, 2.12050235752686472290e-01) (210, 1.80435943621366140510e-01) (211, 1.36530537587372352570e-01) (212, 1.77747953707884959185e-01) (213, 3.24469809424739047410e-02) (214, 5.98452356648307010056e-02) (215, 1.42198298592553645792e-01) (216, 5.02136577856402560593e-02) (217, 6.43830713820319477936e-02) (218, 9.71123250244667474140e-03) (219, 1.40169550199494868936e-01) (220, -6.89861746461671310193e-01) (221, -2.55332435284866154923e-01) (222, -2.45502090816511059357e-01) (223, -2.26913495724214514526e-01) (224, -2.08318940167440347366e-01) (225, -2.87904071630540825399e-01) (0, 3.50184741785575293083e-01) (1, 5.00769163837482267354e-01) (2, 3.66249093247489276859e-01) (3, 4.33860199097300780480e-01) (4, 3.42570960831378612532e-01) (5, -6.14445970359100077096e-02) (6, -1.12098101374005956754e-01) (7, -2.74772373408570858011e-01) (8, 2.66250781684623016865e-01) (9, 2.26587720844406065313e-01) (10, 2.55765185389179305897e-01) (11, 2.41372883948940269994e-01) (12, 6.03166261649610083162e-02) (13, 7.78676459527494341240e-02) (14, -8.78247708351920092218e-02) (15, -4.78342482246887287789e-02) (16, 8.26262885579204103825e-02) (17, 4.90609273913292093239e-02) (18, 1.02072830928231536585e-01) (19, -1.69841927197320080589e-01) (20, 2.78522752195105804951e-01) (21, 7.23511311628294712106e-02) (22, 1.49885550111041460086e-01) (23, 2.15331718295321800083e-01) (24, 2.29852937791007877477e-01) (25, 2.73531965881095184834e-01) (26, 1.40650361746058855106e-01) (27, 2.60258399579185562001e-01) (28, 2.98031426935897236774e-01) (29, 4.69786034468318236534e-01) (30, 4.35120062364177051517e-01) (31, 3.73472181541756931278e-01) (32, 4.57599767876700702640e-01) (33, 3.64549228492881072228e-01) (34, 2.94893966559077513878e-01) (35, 3.98907670322562468712e-01) (36, 3.57141548339034331505e-01) (37, 3.93910260442401183312e-01) (38, 3.90965068174437824222e-01) (39, 4.60454755855635944339e-01) (40, 3.73607979549006763431e-01) (41, 3.39891137016848865482e-01) (42, 4.60862079096869770023e-01) (43, 4.26382969489146612663e-01) (44, 3.64412508329202078361e-01) (45, 4.26833744516421698112e-01) (46, 3.40500737896014593620e-01) (47, 3.41742324998427771110e-01) (48, 4.08976237645198248405e-01) (49, 4.09366960992862127799e-01) (50, 3.76349750330497168083e-01) (51, 4.56083636155177496452e-01) (52, 3.36580292714671436283e-01) (53, -7.76956638658996973090e-02) (54, -1.68291618156697325714e-01) (55, -1.74598862457539610871e-01) (56, -2.85281428516402812967e-01) (57, -2.27419746488824431330e-01) (58, -1.46165450484052189539e-01) (59, -2.44607322570426083397e-01) (60, 2.04809821661547181160e-01) (61, 8.26264670527463856997e-02) (62, 1.75296881649542379833e-01) (63, 9.37926919983612661369e-02) (64, 1.80984810665995837775e-01) (65, 2.49062503703455284665e-01) (66, 3.28101797879019607684e-01) (67, 3.54520215571204055927e-01) (68, 1.51921796644602091764e-01) (69, 1.13650636229563326007e-01) (70, 1.66445880757475100920e-01) (71, -2.52570649058118434915e-01) (72, -2.57380438417687984476e-01) (73, -2.18525564764751573099e-01) (74, -1.50136681740297428522e-01) (75, -1.66409332251065862629e-02) (76, -1.36644642757340867290e-01) (77, 3.79075599657196726788e-01) (78, 4.88244572115973773929e-01) (79, 4.37231653762893024417e-01) (80, 4.69819511642505072135e-01) (81, 4.02190554311324499626e-01) (82, 3.62416855415154837150e-01) (83, 4.85929648747493170280e-01) (84, 3.65191436728288076896e-01) (85, 5.02746411469067844280e-01) (86, 3.12767551783229125206e-01) (87, 4.25544516576365772220e-01) (88, 4.37355452610091510746e-01) (89, 3.42284357437493302889e-01) (90, 3.67977274844052293368e-01) (91, 3.90170992744998279544e-01) (92, 3.14427436722354236576e-01) (93, 4.99333362450648854391e-01) (94, 4.41415581276465796012e-01) (95, 4.17360845377494238395e-01) (96, 3.29491096904326818962e-01) (97, 5.02706091275264554952e-01) (98, 3.27000442316581152458e-01) (99, 4.42182059755374334831e-01) (100, 4.99680485000659535544e-01) (101, 4.75534017553378485221e-01) (102, -2.87952608932699784250e-02) (103, -6.79255610669609738439e-02) (104, -1.61962484050061278351e-01) (105, -4.54037582346015933243e-01) (106, -2.56639917761579128275e-01) (107, -2.49562350482240291605e-01) (108, -2.96961036891236984658e-01) (109, -1.46499684037708112483e-02) (110, 6.26670340430504346774e-02) (111, 1.19275182854375785824e-01) (112, 1.48554653298101413395e-01) (113, 1.25343100117957129136e-01) (114, 1.78312221151308930578e-01) (115, 2.16288904674867943356e-01) (116, 3.02236749708929774982e-01) (117, 2.40750900388041283451e-01) (118, 2.31037492895994428510e-01) (119, 2.91858852580935690391e-01) (120, 1.91120102630758487150e-01) (121, 1.98079153524542056486e-01) (122, 1.58808454500341617033e-01) (123, 1.68153980228949118114e-01) (124, 2.63682951380101893157e-01) (125, 3.28354032100122428250e-02) (126, 1.71203743720537565620e-02) (127, 3.28471103338455860943e-01) (128, 3.34511221256341251262e-01) (129, 4.09157836271361652347e-01) (130, 4.33081048896361731071e-01) (131, 3.57461005629303330000e-01) (132, 4.94889803410770767744e-01) (133, 4.60526138724090927656e-01) (134, 5.06251650052699231352e-01) (135, 4.23533971703053957469e-01) (136, 3.66095073137194526591e-01) (137, 3.24360595477656665775e-01) (138, 4.37862089166047074862e-01) (139, 3.42897964903714158602e-01) (140, 4.80912408122422196932e-01) (141, 4.89501005300881419924e-01) (142, 4.39411127401427570316e-01) (143, 5.80742689463051187104e-01) (144, 3.67536283453751944084e-01) (145, 3.28116025199939154167e-01) (146, 4.08164352189217483069e-01) (147, 6.03889507753983534322e-01) (148, 4.71817081375256686115e-01) (149, 4.00126780738879583854e-01) (150, -1.46996915993710719484e+00) (151, -8.77459069836717064916e-01) (152, 1.70682461387005962594e-01) (153, 1.30799640486758711466e-01) (154, 1.32177852640443127541e-01) (155, 1.94090120464072674045e-01) (156, 1.61608599096045885135e-01) (157, 2.44658365815387052189e-01) (158, 4.28684757593776000206e-01) (159, 3.58801916551326427474e-01) (160, -1.28429386612272017354e-01) (161, 1.19255074893477672898e-02) (162, 7.89644750868330053128e-02) (163, 5.80190395498764929783e-02) (164, 2.57666831398499635020e-02) (165, 1.60401297130633668786e-01) (166, 1.64246988811541871911e-01) (167, -1.12211205716007786544e-03) (168, 4.03638531947625098240e-02) (169, 8.52906843686098592450e-01) (170, 3.94491876831103704948e-01) (171, 3.70794478228141211051e-01) (172, 4.88562743535090826530e-01) (173, 4.19964607229281805534e-01) (174, 4.90935351123858831901e-01) (175, -8.30424679463778736555e-01) (176, -2.02767322921959536330e-02) (177, -2.77350428692026806932e-01) (178, 4.89357095894121102431e-02) (179, 2.69393856285093602487e-01) (180, 2.82890803555928826984e-01) (181, 1.66219461678967866947e-01) (182, -1.61958936449384444112e-01) (183, -1.19261130538081808194e-01) (184, -1.59032386768128447541e-01) (185, -9.29263418878075314611e-02) (186, -8.84750968183037195258e-02) (187, -7.64195284212585840278e-02) (188, -2.63702589964383699028e-02) (189, 7.17905064607156084833e-02) (190, 8.27532460475457337656e-02) (191, 1.33567658581782600091e-01) (192, 1.71363515176822023278e-01) (193, 6.37099645381099168734e-03) (194, -2.28862116550909849844e-02) (195, 3.96821591427375219840e-01) (196, 3.26288926770736120719e-01) (197, 4.83859236707736395378e-01) (198, 3.67981317808677099723e-01) (199, 4.07791215350676916618e-01) (200, 2.83021122692033078039e+00) (201, 8.67250990435274360379e+00) (202, 3.41587784380257009076e+00) (203, 3.81610916354062579270e-01) (204, 3.28348576179189388657e-01) (205, 2.21350540768967367355e-02) (206, 1.43546104400859270145e-01) (207, -3.31093332136628004658e-02) (208, -1.43809493478631728047e-01) (209, -8.15197637642380151801e-02) (210, -1.78027268346643202657e-01) (211, 2.03048923646453015335e-02) (212, 1.42464153896127154741e-02) (213, -3.44750750755780932533e-02) (214, -6.81047160124295530848e-02) (215, 4.08509423518670020115e-02) (216, 8.14771106029046204844e-02) (217, 8.55936606908333924570e-02) (218, 7.24792008781922625360e-02) (219, 5.76653679395211157810e-02) (220, 4.27240821888495825309e-01) (221, 3.82214135845948599357e-01) (222, 4.18760943582106970329e-01) (223, 4.61012076010753057975e-01) (224, 3.75702782889653585929e-01) (225, 3.82428280433465384025e-01) (0, -1.03861860425963362098e-01) (1, -1.67641832919611932784e-01) (2, -1.43387387865642507156e-01) (3, -2.20441195431740039057e-01) (4, -2.94881258602103901723e-01) (5, 2.98793897872010383310e-01) (6, 3.82241772588700068347e-01) (7, 2.51088621195763306293e-01) (8, -1.08068774703533362902e-01) (9, -1.64554245197633702835e-01) (10, -2.10746778794417249925e-01) (11, 2.50210604361406296903e-01) (12, 3.00528832627972364300e-01) (13, 3.87264952911576032513e-01) (14, 4.22752379151765722565e-01) (15, 4.15736628620134107681e-01) (16, 3.31772404301734324950e-01) (17, 4.61782088371115395642e-01) (18, 4.12696238164002859872e-01) (19, 4.55658759882939967678e-01) (20, 4.07338606294602167956e-01) (21, -2.76577983493766499379e-01) (22, -3.07082755886932234901e-01) (23, -1.18113206047454163961e-01) (24, -9.45197878570433747125e-02) (25, -2.15721578616538373074e-01) (26, -2.36678351043090734462e-01) (27, -1.38736468235864468523e-01) (28, -2.29986557084956494412e-01) (29, -1.75149393547215787015e-01) (30, -1.01618663796889385775e-01) (31, -1.01322667130934795932e-01) (32, -1.26564615795123153186e-01) (33, -1.93287429679074612698e-01) (34, -1.85852457164153966884e-01) (35, -1.40806552348956975917e-01) (36, -4.14292600936082139329e-02) (37, -9.28561625069764390306e-02) (38, -1.99478016623961501574e-01) (39, -2.35290093512412097632e-02) (40, -4.85451830716010085398e-02) (41, -9.53536195845481049371e-02) (42, -2.04716713556754165149e-01) (43, -6.35325158553266822192e-02) (44, -1.52350447567000391036e-01) (45, -1.15271508188738783240e-01) (46, -1.29494823010458948165e-01) (47, -1.80783144624724390059e-01) (48, -1.83598659427657129317e-01) (49, -1.03896490724577864051e-01) (50, -1.49601254107251169234e-01) (51, -1.09639621766104658485e-01) (52, -1.00172418528656020920e-01) (53, 3.61475261029213679187e-01) (54, 1.66340612714329955102e-01) (55, 1.78111300711671111108e-01) (56, 2.69880453225582850330e-01) (57, 3.94222604211777460925e-01) (58, 4.12562655385941279285e-01) (59, 2.79410487032076659819e-01) (60, 3.60198864704510512968e-01) (61, 3.77159085078591249651e-01) (62, 2.56044033868664644427e-01) (63, 2.32394183895138162210e-01) (64, 2.79500231760081152554e-01) (65, 4.51472074406679857450e-01) (66, 3.98961363228159615613e-01) (67, 3.99399204047518441296e-01) (68, 3.51116227496238109129e-01) (69, 3.49896958021627291213e-01) (70, 3.16166345100961421188e-01) (71, 1.20467843375357791524e-01) (72, 1.11619791901688775182e-01) (73, 4.39049197284684888931e-01) (74, 3.29794412402616365920e-01) (75, 2.84757090656267031203e-01) (76, 3.30344707627879208278e-01) (77, -5.56446882242410331698e-02) (78, -1.68211576024904080340e-01) (79, -1.98179629127397366473e-01) (80, -6.13442696282027605248e-02) (81, 1.87063570481661195499e-01) (82, 1.82182878564811329136e-01) (83, -1.47356651688492101826e-01) (84, -6.36683739372848195304e-02) (85, -1.40927572762414715646e-01) (86, -1.50526281772479925136e-01) (87, -1.75520786473261886096e-01) (88, -1.74272456595408492541e-01) (89, -1.93693937191474013781e-01) (90, -1.04402018875952937865e-02) (91, -6.49392469019767076821e-02) (92, -3.05348051876898791968e-02) (93, -1.88212848694815637618e-01) (94, -5.46678895669126738155e-02) (95, -1.64527825506224634200e-01) (96, -1.80459491403594018966e-01) (97, -1.44030969084992410689e-01) (98, -8.97731179909849047460e-02) (99, -1.78031786771311761886e-01) (100, -1.41528754921450616866e-01) (101, -3.51113075928831327999e-02) (102, 3.65217031902214828154e-01) (103, 2.85370009120911372058e-01) (104, 2.65368067567387733163e-01) (105, 3.32480044012108955087e-01) (106, 3.45442654665917170398e-01) (107, 2.79622084720916208589e-01) (108, 1.42061158343143117966e-01) (109, 2.05211705259195326123e-01) (110, -3.24944812773992688926e-02) (111, -1.29732235260386657982e-01) (112, -7.37602331646450004587e-02) (113, -1.51194921971178813935e-01) (114, 3.94131457828560793910e-01) (115, 4.70846246484811270516e-01) (116, 4.13215516002970406628e-01) (117, 8.39817409902077649519e-01) (118, 8.14648182743645143944e-01) (119, 4.55526349989877454849e-01) (120, 4.29309461336694342393e-01) (121, 1.16777913532408877950e-01) (122, 9.49078490501453209127e-02) (123, 1.64444850625855093496e-01) (124, 3.22746160188376263189e-01) (125, 3.26803541490494564581e-01) (126, 2.98338414554918829324e-01) (127, -1.69378058081313814798e-01) (128, -1.01136979674741528390e-01) (129, -1.57130856494321652361e-01) (130, -1.52431036772027017623e-01) (131, 2.13048129541391212394e-01) (132, 2.34460442525857765128e-01) (133, 1.11323899788373786857e-01) (134, -1.15131983788862593543e-01) (135, -2.07616949992625948740e-01) (136, -1.68560569202348436990e-01) (137, -1.45369265655889340350e-01) (138, -8.76130875748537402137e-02) (139, -1.73960836061942153430e-01) (140, -1.56265710869538360095e-01) (141, -1.54308983513819747424e-01) (142, -6.76314396948691637368e-02) (143, -6.44466101354998766038e-02) (144, -6.11883545832777250850e-02) (145, -1.54091409833922388106e-01) (146, -1.62521308932766422872e-01) (147, 7.37732402390096041189e-03) (148, -6.87278384774341888352e-02) (149, -1.86669401319518091231e-01) (150, -1.85984923622078857086e+00) (151, -1.90328185488904821909e+00) (152, -3.97640815940449920962e-01) (153, -4.19721122112302502671e-01) (154, -3.08499613892862123432e-01) (155, -8.83053944144556041129e-02) (156, -2.26691070261986010737e-01) (157, -7.47899518046686168082e-02) (158, -7.26689354214975352653e-02) (159, 1.81440711860696074487e-01) (160, 2.46282350342832218049e-01) (161, 2.48778009888142331851e-01) (162, 3.44494473260007483262e-01) (163, 3.50972121505246981155e-01) (164, 4.18439013807283155533e-01) (165, 3.34562634973035677444e-01) (166, 7.61328225047459228314e-01) (167, 7.27252532751431091107e-01) (168, 2.79979569761262758743e-01) (169, -2.12769950347089786824e-02) (170, -1.63811690600409509688e-01) (171, -1.44284646453156473189e-01) (172, -1.53338033200993539840e-01) (173, -1.13648302348151167274e-01) (174, -4.84166885333204496944e-02) (175, -1.49258503549479892847e+00) (176, -1.68643791158061562285e+00) (177, -1.40551890969439957635e-01) (178, -3.76507349906396615591e-01) (179, -2.35130667314888436303e-01) (180, -5.81530244329513112955e-02) (181, -1.81849652249255505643e-01) (182, 3.10768680747956049792e-01) (183, 4.21736110072694403428e-01) (184, 2.38087267522851170343e-01) (185, 3.04965723376832698044e-01) (186, 3.59230261366925818223e-01) (187, 3.83386436920724493760e-01) (188, 4.08157138077722303482e-01) (189, 3.27180476783023699294e-01) (190, 3.52372413424955233108e-01) (191, 3.53317504672513715835e-01) (192, 4.37270445672975294205e-01) (193, 4.34431893674836866470e-01) (194, 3.26855564413772448074e-01) (195, -1.76450155170454980880e-01) (196, -1.59130952747359277755e-01) (197, -7.52330715375089525976e-02) (198, -3.70728919078352429223e-03) (199, -6.96402038054609179296e-02) (200, 7.96155923880417115690e-01) (201, 9.99196822394166850323e-01) (202, 1.15468421606325222228e+00) (203, -8.77709334807190266758e-01) (204, -2.77010162856126396225e-01) (205, -3.82149091404044183307e-01) (206, -2.19831572193541852078e-01) (207, 3.48614843663185847156e-01) (208, 2.83023113485783350818e-01) (209, 2.82960647818058741443e-01) (210, 2.52076339047513697800e-01) (211, 2.28300819274395577763e-01) (212, 4.09696306994451198147e-01) (213, 3.67451665846811048599e-01) (214, 3.90125235466466657730e-01) (215, 4.64944628922448865982e-01) (216, 3.54408068506227247330e-01) (217, 3.66456633357511274429e-01) (218, 4.66739399282441846939e-01) (219, 3.19240311084495409499e-01) (220, -1.66058323772444726973e-01) (221, -1.03437430651678999305e-01) (222, -3.41629529910230864131e-02) (223, -1.38105593116774560958e-01) (224, -1.01985431702628095985e-01) (225, -3.04416562037611096447e-02) (0, -1.29011153930795569034e-01) (1, -5.30084816161516814148e-02) (2, -1.87792423962543676697e-02) (3, 1.84674032489184680728e-01) (4, 1.95365926501196218723e-01) (5, 2.60575536866513746137e-01) (6, -3.02921185720567420763e-01) (7, -8.36648553357478008685e-02) (8, -1.25893609945571055553e-01) (9, 3.19404125000169791804e-01) (10, 2.82165176953008689509e-01) (11, -2.60897589479754277164e-01) (12, -1.42586627172931940111e-01) (13, 1.72636647348554141124e-02) (14, -1.16523724616001758680e-01) (15, -7.13545666830803226865e-02) (16, -3.56390126363003045817e-01) (17, -2.21131326283241946840e-01) (18, -4.46760949984536526181e-01) (19, -2.03044632836959310085e-01) (20, 4.70753243655624986630e-01) (21, 5.98032313800185066910e-01) (22, 3.42876857609215379696e-01) (23, 3.75657139808598161679e-01) (24, 2.31989982500890229433e-01) (25, 4.20915550083580614071e-01) (26, 3.71894864828053228756e-01) (27, 3.99360786155084079851e-01) (28, 4.22029531092110277157e-01) (29, 1.25528686205271966525e-01) (30, 1.20915880441765904996e-01) (31, 4.40860819221545394142e-02) (32, -3.42912766932438675682e-02) (33, 3.28793127281469699241e-01) (34, 2.27949395967525836326e-01) (35, 3.47303200704855319358e-01) (36, 3.26586086494726535179e-01) (37, 3.34108431083959933616e-01) (38, 1.33752621638133090132e-01) (39, 1.26405350791766207807e-01) (40, 4.10464554303427153759e-02) (41, 1.39552652114172982822e-02) (42, 9.23867895477552825145e-02) (43, 2.03694968019286458405e-02) (44, -4.89343700353030430783e-02) (45, -2.50091379321853296558e-03) (46, 4.50927788578232152661e-03) (47, 2.49996709283467136165e-02) (48, 7.04509789310654027661e-03) (49, 4.43919526990528834354e-02) (50, -6.70832095090273666793e-02) (51, -3.01040110532168579682e-02) (52, -6.34158793686817878754e-02) (53, -2.91290213247415108455e-01) (54, 1.40955263999145874454e-01) (55, 2.57170716550987499271e-01) (56, -2.70320906982775450988e-02) (57, -9.89819004879351621584e-02) (58, -1.63215725570259373445e-01) (59, -1.95647890135428853542e-01) (60, -1.62021810576102626156e-01) (61, 2.84786286456324942706e-02) (62, 7.20566539931712518596e-02) (63, 8.43184059181974615571e-02) (64, -7.61486199591780016371e-02) (65, -4.25250835094302254147e-02) (66, -1.79357763732696851022e-01) (67, -1.59541134144092822122e-01) (68, -7.71774678384892914851e-02) (69, 6.20535525185801906112e-02) (70, 2.76751501221123463736e-01) (71, -1.69899231641826908845e-01) (72, -4.34985671930888176395e-02) (73, -1.33428688281206297983e-01) (74, -1.99482339554456905573e-01) (75, -4.80298896426333277176e-01) (76, -4.80203970670600832626e-01) (77, 2.93889768503178494541e-01) (78, 6.65244218112040763824e-02) (79, 8.66651442051936393707e-02) (80, -6.52764586154345322067e-02) (81, -6.39759895745638657027e-02) (82, -6.95524340308944361011e-03) (83, -5.92660603467348862106e-02) (84, -3.77528400625427792980e-02) (85, 2.72435872462619188550e-01) (86, 1.98551196796697915214e-01) (87, 2.31865345710059213291e-02) (88, 4.23090680712004119091e-02) (89, 3.47876697057028158588e-02) (90, 2.26609333627959298740e-02) (91, 8.62504534657202240333e-03) (92, 1.07315741407229450766e-01) (93, -6.87959746922691406379e-02) (94, -5.28438610378626494324e-02) (95, -1.09231710189950856349e-01) (96, -1.98081505838755798921e-02) (97, -7.81131533328417587692e-02) (98, -1.03057694975260891179e-02) (99, 2.84120964463825988189e-02) (100, -4.03661576453570591916e-02) (101, 3.51522142254074394449e-03) (102, -4.92945696562429425125e-01) (103, -3.22245900412675423397e-01) (104, 2.68650407221954601322e-01) (105, 1.12374877608148501795e-01) (106, -8.93450885758753782229e-02) (107, 6.51393982311526675844e-03) (108, -9.08998831854220395998e-02) (109, 2.47568343337700308426e-01) (110, 3.21194981548127422855e-01) (111, 1.02851275584059362322e-01) (112, 2.27249633750277096889e-01) (113, -7.46680275907402480479e-03) (114, -1.04611693033995659108e-01) (115, -2.12833441171496433320e-02) (116, -1.69379454458977007913e-01) (117, -5.41096146953356782472e-02) (118, -8.96323948061101410945e-02) (119, -2.89336002740710300507e-02) (120, 2.07053564137137102730e-01) (121, 2.18606784588015246040e-01) (122, 1.70756777483883626090e-01) (123, 1.31866856168005669447e-01) (124, -1.88922816746539795618e-01) (125, -5.92655431030955748284e-01) (126, -5.77354234749449468644e-01) (127, 3.04903271255124508343e-01) (128, 1.02765671678003434053e-01) (129, 1.20744964122872472378e-01) (130, -8.57491006497268087871e-02) (131, -2.32862670047259655293e-02) (132, -1.84124520800826585454e-01) (133, -1.92539936683890855473e-01) (134, -2.59251604474221020169e-02) (135, 1.30273792938990551349e-01) (136, 1.48244250069951288840e-01) (137, 9.23003330105085784130e-02) (138, 3.77478002780218535595e-02) (139, -2.64182538515786748123e-02) (140, 1.34732969033076327436e-01) (141, 3.29968698556623672019e-03) (142, 4.11319725449285893831e-03) (143, -3.48310893523307241182e-01) (144, 2.82800125535603331939e-02) (145, -6.03924987260226059371e-02) (146, -5.03632585204277782864e-02) (147, -4.78666365228179069291e-01) (148, -6.54649153433325747820e-01) (149, -5.53104726020220427429e-02) (150, 7.29822844835582018597e-01) (151, -7.33599809875631475586e-02) (152, 1.69861130849790681330e-01) (153, -5.05244207061977673723e-02) (154, -3.45849155574126480850e-03) (155, 4.25193189461616827263e-01) (156, 3.76200467723524556440e-01) (157, 3.58078351706925035458e-01) (158, 2.98109487155799102176e-01) (159, 7.72993959155720999910e-01) (160, -2.35362564107057248286e-01) (161, -1.73296195348378784251e-01) (162, -1.46040475826843020590e-02) (163, -1.21012841294436124251e-01) (164, -1.44264546166090634749e-01) (165, -1.35649715493349698470e-01) (166, -1.46312628815798428938e-01) (167, -1.57793608437208798811e-01) (168, -1.18721504638819377875e-01) (169, 2.13727815678945137767e-01) (170, -1.26690625900400061221e-01) (171, -5.18735048714998869812e-02) (172, -5.21354133260646789710e-04) (173, -1.24885931367051963847e-01) (174, -1.20280116552484425685e-01) (175, 1.09198780556510194328e-01) (176, -1.71171264441798920419e-01) (177, -3.84366382735040867935e-01) (178, 5.37150826633697592305e-02) (179, -7.48250669732935941303e-02) (180, 2.93660484119027898053e-01) (181, 4.76136781650698170942e-01) (182, -2.49151457925912506175e-01) (183, -3.23114198526021523250e-01) (184, 2.75165567424934642826e-01) (185, -1.60437566121694213939e-01) (186, -3.08666647305366081966e-01) (187, -1.94927615007039645167e-01) (188, -4.36777209037913172196e-01) (189, -1.10950951407580031272e-01) (190, -2.34032613168386999236e-01) (191, -6.75916717750116580188e-02) (192, -9.45318387252374880969e-02) (193, -7.79946790439172976672e-02) (194, -1.37975265215067532942e-01) (195, -1.21059603745115193507e-01) (196, -1.12731379810694851140e-02) (197, -3.01891488376979065522e-02) (198, 4.85539960321064723026e-02) (199, -1.15681931132448109767e-01) (200, -5.80499288533467439066e-01) (201, -1.09870043525814131691e+00) (202, -5.01120579822327383290e-01) (203, 1.24175473989739437730e-01) (204, 3.89580581018896601742e-02) (205, 1.58188865067432737899e-01) (206, 4.23143990713274464888e-01) (207, 5.42474990326782188776e-02) (208, -2.44869244178411132884e-01) (209, -1.52004060228940612864e-01) (210, -1.66889575203534729075e-01) (211, -3.47575512608167214168e-01) (212, -5.32745636403461397812e-01) (213, -4.93692231470717335373e-01) (214, 6.22227641838510175942e-02) (215, 1.19024873884821594250e-02) (216, -4.73729865056558979708e-02) (217, -7.91947887641474002063e-02) (218, -1.08335171769289625998e-01) (219, -7.06461117965265505969e-02) (220, -1.20278104895723256251e-01) (221, -7.66063181105974960738e-02) (222, -8.49355680290583975323e-02) (223, -7.46296194735888290817e-02) (224, -6.25803468171480942184e-02) (225, 4.96266859229679835330e-02) (0, 1.98808161140944433809e-01) (1, 2.22739358378555102336e-01) (2, 2.84701255096103555964e-01) (3, 2.89854785685147442464e-01) (4, -3.15008877753036986569e-01) (5, -2.01711452542561092693e-01) (6, -3.06962599692047644062e-01) (7, -2.94671645102203894062e-01) (8, -3.20572709378899145527e-01) (9, 3.50677472485210306452e-01) (10, 3.40351250899936563776e-01) (11, -4.30915932819415370414e-01) (12, -4.39506262831990623940e-01) (13, -3.44360973977153206338e-01) (14, -4.25404978858043292256e-01) (15, -5.00720646498494015297e-01) (16, -5.10363366720967270851e-01) (17, -5.75516823945336208901e-01) (18, -6.09746467588238583168e-01) (19, -4.35452688139997490246e-01) (20, 2.63277966885419989485e-01) (21, 8.04009174877718058028e-01) (22, 5.73040641770164116409e-01) (23, 4.60088633912170918983e-01) (24, 2.63026173326363021943e-01) (25, 2.32907597331853982725e-01) (26, 1.97228443233820077696e-01) (27, 3.23022703739990757477e-01) (28, 1.94787253050657388487e-01) (29, 3.08675375192018708326e-01) (30, 2.11666918459524677765e-01) (31, 2.23282556149353550445e-01) (32, 2.47239555332054661285e-01) (33, 3.07300236432405671216e-01) (34, 3.14334746806474885084e-01) (35, 3.43223866431566437818e-01) (36, 2.82745276002737133680e-01) (37, 2.19257038442941781797e-01) (38, 1.57703953894962833893e-01) (39, 2.67772692355503494355e-01) (40, 1.93062427553524540436e-01) (41, 3.35524705184604532526e-01) (42, 2.67828677726890340693e-01) (43, 2.19455412385151121812e-01) (44, 2.52545674277450338252e-01) (45, 2.39404273165370745646e-01) (46, 1.59340952579933858857e-01) (47, 1.00493168834309115622e-01) (48, 1.89819632474045235648e-01) (49, 1.86586131287719531047e-01) (50, 2.56298964442278787157e-01) (51, 2.72685776564468795868e-01) (52, 1.65100489689018053996e-01) (53, -2.42265542683304302418e-01) (54, -2.36327058612125912029e-01) (55, -1.96396878896969356854e-01) (56, -3.85009383496941137714e-01) (57, -4.27020882901848364277e-01) (58, -3.14232220587433386250e-01) (59, -3.03454387650061885306e-01) (60, -3.68810217544604579398e-01) (61, -4.28730372630660439004e-01) (62, -4.33925763063733482827e-01) (63, -3.52843415283267403115e-01) (64, -5.43415354810021233867e-01) (65, -5.48685666439823860330e-01) (66, -6.58577550468735561928e-01) (67, -6.11340228734307156166e-01) (68, -4.93798699496083126625e-01) (69, -5.59880643722789450578e-01) (70, -4.17596022894785645629e-01) (71, 3.13702739555447696063e-01) (72, 5.59916105603786240508e-01) (73, 4.16808284502232395674e-01) (74, -2.92110606178989651305e-01) (75, -3.51056234149635937314e-01) (76, -2.98402888318819281555e-01) (77, 2.66950622276586668757e-01) (78, 1.67181450042118595611e-01) (79, 1.56020770880569981109e-01) (80, 1.78529846581806705963e-01) (81, 3.04439891221732904410e-04) (82, -3.29552573672507037594e-02) (83, 1.00661215845492924004e-01) (84, 3.43385781261314915191e-01) (85, 2.22177821311344669830e-01) (86, 2.80039395305504368316e-01) (87, 1.59365262004723118316e-01) (88, 1.89290451917042301666e-01) (89, 3.42027987453331516754e-01) (90, 2.01659015479673908722e-01) (91, 2.20482136222710178863e-01) (92, 1.80642875942577885162e-01) (93, 1.18684193846866778421e-01) (94, 1.09382438269541013010e-01) (95, 1.74766986426994480608e-01) (96, 8.73211160336537228766e-02) (97, 2.06990374628166634574e-01) (98, 8.81907627020878659430e-02) (99, 3.12190647336830662262e-01) (100, 3.10977679734188883209e-01) (101, 3.35527159695764354286e-01) (102, -4.31503566995611431700e-01) (103, -3.09432802787548311141e-01) (104, -2.93855725764053832272e-01) (105, -2.80682674585598479489e-01) (106, -3.76342182693184423847e-01) (107, -3.57342464563549566670e-01) (108, -4.34686465254551179793e-01) (109, -3.55320494339038173148e-01) (110, -3.06960176967685127725e-01) (111, -4.42255690985028648843e-01) (112, -3.53993710421626472939e-01) (113, -3.34880989336078072061e-01) (114, -4.48967719695828326731e-01) (115, -5.67165736375145779213e-01) (116, -6.53052050886444912514e-01) (117, -5.44293742893032894692e-01) (118, -6.43635858116440640053e-01) (119, -4.73077185091750784807e-01) (120, -3.11883348336622956420e-01) (121, 2.26601384360402252627e-01) (122, 6.47480924164863580472e-01) (123, 2.57711152245917118897e-01) (124, -6.49528797982029781899e-01) (125, -5.29010337112240658364e-01) (126, -3.61617972692770239806e-01) (127, 2.11072444991392327296e-01) (128, 2.22697640869011448395e-01) (129, 2.16673302564014957916e-01) (130, -1.93460111054486988413e-01) (131, -1.70456451538426284609e-01) (132, -9.40874975057667956024e-02) (133, -1.61132828507048492250e-01) (134, 9.15061518584294186773e-02) (135, -9.59577776165722734492e-02) (136, 3.09160481306900547516e-01) (137, 1.97448521020998524200e-01) (138, 2.54670429143299514863e-01) (139, 1.83310429665436314117e-01) (140, 2.35782998713841007721e-01) (141, 3.42171575042595432770e-01) (142, 2.15006067517389820587e-01) (143, 2.60934493300602310395e-01) (144, 1.09962987509653317697e-01) (145, 1.26479497555355507865e-01) (146, 1.41943348947624642387e-01) (147, 2.42887555066208432608e-01) (148, 2.12221620980362374320e-01) (149, 2.98920611950745152008e-01) (150, 2.41161942493682968092e+00) (151, 2.95619924928078914306e+00) (152, 1.93342077732022565861e+00) (153, 1.24623812345083107012e+00) (154, 4.53036784697471273109e-01) (155, 1.88891155902947416312e-01) (156, 3.01612031071039399244e-01) (157, 3.12858146040292939283e-01) (158, 3.26182600467058381177e-01) (159, 3.34184459164403757647e-01) (160, -3.95669286784828710957e-01) (161, -3.75790736934349778320e-01) (162, -2.49605658760473997360e-01) (163, -2.92354566594881293273e-01) (164, -2.97880811235231635070e-01) (165, -3.77385308584493872619e-01) (166, -4.09399317195934531188e-01) (167, -2.68754643937868353820e-01) (168, -4.53747314950746771789e-01) (169, 1.90077099117626713287e-01) (170, 1.63279491576542423736e-01) (171, 1.75770375046124027740e-01) (172, 2.56206696390576749156e-01) (173, 1.17991601585812955211e-01) (174, 1.19717576686323157187e-01) (175, 2.27356941694381431418e+00) (176, 2.41107216173770622092e+00) (177, 3.27971722332057247229e+00) (178, 9.70913213101896932500e-01) (179, 6.02447722289278786434e-01) (180, 4.36657707859185117982e-01) (181, 2.29238938896509286680e-01) (182, -2.56920027842924836303e-01) (183, -3.89628338923857453491e-01) (184, -4.18223108461306336547e-01) (185, -4.22688079712093878193e-01) (186, -2.92871584829987097187e-01) (187, -2.67174144921005773945e-01) (188, -4.22687586688105965127e-01) (189, -4.72833331965510750283e-01) (190, -4.72424689971511269082e-01) (191, -4.04388089024131203164e-01) (192, -3.13172828697268867959e-01) (193, -4.58196316205565834512e-01) (194, -4.68006786250178719033e-01) (195, 2.09117284772083494859e-01) (196, 2.18246853706524107652e-01) (197, 2.58841565606281631684e-01) (198, 1.34221127984211180406e-01) (199, 2.38600170967266406175e-01) (200, -8.68236463133674796211e+00) (201, -8.72746174399238761055e+00) (202, -1.61870598285385036696e+00) (203, -4.28887666540506806712e-01) (204, 5.62038890313530825615e-01) (205, 7.01239373691978196135e-01) (206, 3.96419177894446583821e-01) (207, -2.68765678343475866718e-01) (208, -3.07089980056689026977e-01) (209, -4.08245069620312261982e-01) (210, -3.49236866173447180195e-01) (211, -3.98362641868294287129e-01) (212, -2.83331248626281062553e-01) (213, -3.83669350587432289590e-01) (214, -2.93371748470370674600e-01) (215, -4.61672444187705421914e-01) (216, -4.91358679079120064248e-01) (217, -4.27902464114730263223e-01) (218, -3.19401931308810616006e-01) (219, -5.21795414027946158342e-01) (220, 1.77828683314010776995e-01) (221, 1.50881550070926878648e-01) (222, 2.50365963933155410981e-01) (223, 8.49183562967035371338e-02) (224, 2.06894120928928587633e-01) (225, 3.33973263920809781968e-01) (0, 3.39112355290306977107e-01) (1, 2.20472923396481390590e-01) (2, 2.47547990558995067989e-01) (3, 3.02692454629637119901e-01) (4, -1.66992530010035750143e-01) (5, -2.41431734386307744744e-01) (6, -3.10236232184999627393e-01) (7, -2.97407315873735589307e-01) (8, -2.81732501291864556592e-01) (9, 1.81849424117304203641e-01) (10, 3.39340854829939642112e-01) (11, -3.21708075467364629230e-01) (12, -2.73261017862574895343e-01) (13, -4.13351259053123865073e-01) (14, -4.35193016052616510336e-01) (15, -5.41020044015097623102e-01) (16, -6.90346630591610832539e-01) (17, -5.45852216262082023945e-01) (18, -6.16807052527938548536e-01) (19, -4.81627389598672461801e-01) (20, -3.95080582999818963330e-01) (21, 6.10518433554087969206e-01) (22, 5.21022073752833381199e-01) (23, 4.17986087329341116092e-01) (24, 3.04132547550894138944e-01) (25, 3.49034663611151096951e-01) (26, 2.18935635262228367459e-01) (27, 2.44663771563269016873e-01) (28, 2.57406954043604141447e-01) (29, 2.32121963375307438504e-01) (30, 2.67210033112264877531e-01) (31, 1.92439075880743382108e-01) (32, 3.12288268385781220271e-01) (33, 1.95452228582295078896e-01) (34, 1.55404132253321308754e-01) (35, 2.67003428584726976158e-01) (36, 3.16313568896445074241e-01) (37, 2.71821823364885972740e-01) (38, 2.99087185806425848167e-01) (39, 3.48221797889860906761e-01) (40, 3.48825163196870180471e-01) (41, 2.64729869014414476158e-01) (42, 3.04704282826575079124e-01) (43, 1.50057158421822683936e-01) (44, 1.63463941691769476527e-01) (45, 2.97556026755227021052e-01) (46, 1.83205685494793768520e-01) (47, 2.97152279792679718806e-01) (48, 1.97477443991555090541e-01) (49, 1.62547356365574713344e-01) (50, 2.92553394018067292048e-01) (51, 3.04065241394890717341e-01) (52, 1.83630972085846777553e-01) (53, -3.67546470665567559521e-01) (54, -2.52084917250496809427e-01) (55, -2.99959740463120405618e-01) (56, -3.90534998678796929639e-01) (57, -2.78810845517748040479e-01) (58, -3.30789344215028924268e-01) (59, -3.26923675600306828937e-01) (60, -3.32063801351802190265e-01) (61, -3.38516431853723376300e-01) (62, -4.03656694099855273272e-01) (63, -4.15944597676944582965e-01) (64, -4.21055554954665900436e-01) (65, -6.14843700767398804174e-01) (66, -5.70585714954594536152e-01) (67, -7.47863515483053409305e-01) (68, -4.93552321230445345535e-01) (69, -5.39510905552689989939e-01) (70, -4.36694435540454228839e-01) (71, 1.13063806692837443002e-02) (72, 4.63680240615809702298e-01) (73, 3.22615082531597097137e-01) (74, -4.07539785853533453874e-01) (75, -4.08348114243654913835e-01) (76, -3.91661373652118949273e-01) (77, 3.43811141737339731606e-01) (78, 3.25621929341055271756e-01) (79, 3.21119975620008824002e-01) (80, 2.52074151216400865749e-01) (81, 2.56070994096138041668e-03) (82, 6.46124681110892690183e-02) (83, 1.68542255985311001387e-01) (84, 2.86045885633775087697e-01) (85, 3.44824355570529539339e-01) (86, 1.82155926174315113686e-01) (87, 2.84374315685423650901e-01) (88, 2.69018259293230699303e-01) (89, 1.79516945428045887612e-01) (90, 3.35976959748832515462e-01) (91, 2.56487500316294358971e-01) (92, 1.75149333125742573403e-01) (93, 2.62009731892057728952e-01) (94, 1.29707110447974477418e-01) (95, 1.56733452258957739467e-01) (96, 7.76414305412641801707e-03) (97, 4.27562590110500267970e-02) (98, 1.57720379101057767146e-01) (99, 2.73841964253211056501e-01) (100, 2.26679979740036841029e-01) (101, 1.69531471012486334438e-01) (102, -3.48974754787582663873e-01) (103, -4.46926483714216393750e-01) (104, -3.91991465214116041604e-01) (105, -3.09170021537167494241e-01) (106, -3.87704038822286767285e-01) (107, -2.98852862619989556592e-01) (108, -3.76964682542913598340e-01) (109, -3.95747668806330998859e-01) (110, -4.56742860142009099444e-01) (111, -3.92447351336849603598e-01) (112, -3.03286298036945733969e-01) (113, -3.73534797549618158286e-01) (114, -5.70789717392254480899e-01) (115, -5.14751557947040527807e-01) (116, -7.45553895102651797977e-01) (117, -9.10884409414442264286e-01) (118, -7.80452296220631280832e-01) (119, -5.10337991513965971713e-01) (120, -2.95925147596614201984e-01) (121, 1.20784735123324230011e-01) (122, 4.66450157865489267728e-01) (123, 4.71057171250574446830e-01) (124, -4.94002682513399515862e-01) (125, -5.60730246252222452874e-01) (126, -2.85517057157654075006e-01) (127, 3.11340855844853159340e-01) (128, 2.11777478931401835771e-01) (129, 2.63483908421190904381e-01) (130, -1.58769298994655277957e-01) (131, -2.95571855125165185163e-02) (132, -1.59206630927059694658e-01) (133, -1.77345941108200594316e-01) (134, 2.18412030484273794739e-01) (135, 9.77848533052671359256e-04) (136, 3.43443524567340452425e-01) (137, 1.74728032595308918618e-01) (138, 2.43799750155600208901e-01) (139, 3.32224626487883367698e-01) (140, 2.89481718230966911243e-01) (141, 1.76435722958394186621e-01) (142, 3.15321911520155706565e-01) (143, 1.37265425269641833106e-01) (144, 2.07240586502642848421e-01) (145, 2.00051647944541194368e-01) (146, 1.68416123833253744690e-01) (147, 1.13018811059404089558e-01) (148, 1.28352724326062844762e-01) (149, 3.39118926702393463923e-01) (150, 2.04040236172019406879e+00) (151, 1.94474073100171684914e+00) (152, 1.38252475319159739975e+00) (153, 3.84049534971437067643e-01) (154, 4.21750106091222376481e-01) (155, 2.77936052924784349205e-01) (156, 2.60943461603315995934e-01) (157, 2.66401503628882097008e-01) (158, 1.97030999087787983548e-01) (159, -2.65229082527977888528e-01) (160, -2.72341774606340569775e-01) (161, -4.05158316546314400952e-01) (162, -4.52812613749139947217e-01) (163, -3.89688750482696799615e-01) (164, -3.38094090796608237603e-01) (165, -3.86609209455150870660e-01) (166, -3.80235491074222831109e-01) (167, -4.57181920982498435357e-01) (168, -2.95786162592071799615e-01) (169, 3.06289791046036652400e-01) (170, 1.71785681424988623256e-01) (171, 1.61037347195996161098e-01) (172, 3.13862143932236603572e-01) (173, 1.78288658483119283327e-01) (174, 2.04917368812651851107e-01) (175, -1.70809044276503285698e-01) (176, 2.36140731726557406844e+00) (177, 3.28344447009354389877e+00) (178, 1.39361995522274173531e+00) (179, 5.63945565307764296037e-01) (180, 4.37774303537998010771e-01) (181, 2.64487732595595048668e-01) (182, -3.78073006633536656818e-01) (183, -4.05312904917829675000e-01) (184, -4.51060766183965844434e-01) (185, -3.35304381155603570264e-01) (186, -4.17696473949783486646e-01) (187, -3.81632016801469964307e-01) (188, -4.57421904183525351861e-01) (189, -3.29197903848785666803e-01) (190, -4.68562593437332419732e-01) (191, -3.70737245060104636529e-01) (192, -4.20107869185108451227e-01) (193, -3.92178533352512626031e-01) (194, -3.83823146797317771295e-01) (195, 2.06824754698367335726e-01) (196, 2.11136770768256459840e-01) (197, 2.83064094705672730790e-01) (198, 1.65753041727633748659e-01) (199, 1.18787666184993104257e-01) (200, -7.97677330526677508260e+00) (201, -7.91344167146054644491e+00) (202, -7.89852934929696459676e+00) (203, 4.94358385338532990705e-01) (204, 5.33796469709715615259e-01) (205, 7.19705168916906279364e-01) (206, 3.33446342891844549339e-01) (207, -3.90990964833514531573e-01) (208, -3.17475603723161858838e-01) (209, -3.69559252464407128613e-01) (210, -3.39296908878915948193e-01) (211, -3.20249261164301080029e-01) (212, -3.86311882936590356152e-01) (213, -3.11900770045418052057e-01) (214, -3.55467146016258506158e-01) (215, -3.75460771597523002008e-01) (216, -4.08358944333690909723e-01) (217, -3.27928026891845969537e-01) (218, -3.25551172472137717584e-01) (219, -3.77744836486477164605e-01) (220, 1.65098903102965627321e-01) (221, 1.24634408725591047662e-01) (222, 2.37975699229331288942e-01) (223, 1.65121225042434011110e-01) (224, 9.98180260492280285733e-02) (225, 2.10946514187706823940e-01) (0, 3.98578217120785227578e-02) (1, 1.75883153107105720536e-02) (2, -6.77631028903369903027e-02) (3, 3.31496991414506336771e-02) (4, -1.81598847511840709446e-02) (5, 5.75263900935309324680e-01) (6, 4.59971283068128844462e-01) (7, 6.77372818124235109849e-01) (8, 1.76865297567785045851e-01) (9, 1.78584506392775149708e-01) (10, 1.05598607689438392376e-01) (11, 2.31606362045107455616e-01) (12, 2.22053399910773413550e-01) (13, 5.07570297171916706702e-01) (14, 6.65999640311122576009e-01) (15, 4.99323428486458997799e-01) (16, 3.64263015524768418718e-01) (17, 3.15243157283687180925e-01) (18, 3.45964939064156484783e-01) (19, 6.47173188329039472677e-01) (20, 6.87977266740739779038e-01) (21, 3.98254535852333446666e-01) (22, 1.66959363233983776320e-01) (23, 8.95664297345262067074e-02) (24, 1.78775695741472812061e-01) (25, 1.95741630357444545973e-01) (26, 3.10057143878877394805e-01) (27, 1.33968410671053500538e-01) (28, 3.19841976475656264434e-01) (29, 1.48380421299416989656e-02) (30, -9.42935650576606498863e-02) (31, 1.09101938675388466377e-02) (32, -2.93968883682742924968e-02) (33, -3.86167146068136513115e-02) (34, -7.63160414796392877479e-02) (35, -8.37770627836044445846e-02) (36, -8.68848713139351025436e-02) (37, 8.01458282371704244795e-02) (38, -6.99065356089293987729e-02) (39, -3.32871703936279406122e-02) (40, 2.84594194458305214945e-02) (41, 3.45324440463179666364e-03) (42, -7.52432076765716106870e-02) (43, -1.36929651549277858757e-01) (44, -4.90967387465815960357e-02) (45, -4.13509288935046612212e-02) (46, -5.74589202312808106088e-02) (47, 1.54319276900906146577e-02) (48, -1.08091188421664735619e-01) (49, 3.89845838637966624063e-02) (50, -5.86566085128169198426e-02) (51, -1.14290977117782882599e-01) (52, 3.69335806953067224967e-02) (53, 5.14353830804296752177e-01) (54, 5.15244713306086454807e-01) (55, 5.97744761287825387974e-01) (56, 7.45738436710775332017e-01) (57, 6.41814311277807192369e-01) (58, 5.89156312179506480575e-01) (59, 6.89153574109373945333e-01) (60, 5.75561947822867292501e-01) (61, 2.17418705572403031523e-01) (62, 1.03371101788741620586e-01) (63, 1.97472083739501452770e-01) (64, 9.68084436060045322447e-02) (65, 2.94009741389258325017e-02) (66, -7.14750239913138421533e-03) (67, 5.91477786534580357580e-02) (68, 1.06547457629303843341e-01) (69, 6.61909946118466208098e-01) (70, 7.30590065252721743150e-01) (71, 6.43160143178642229600e-01) (72, 6.08526465725839682541e-01) (73, 6.21626139333094962502e-01) (74, 6.17879957606639274026e-01) (75, 4.63722046763507866896e-01) (76, 4.13855550355767209947e-01) (77, 4.35158171770234747378e-01) (78, -1.34337928645755416701e-01) (79, -1.46228415299907606173e-02) (80, 2.75842866607585376904e-02) (81, -9.78008152238449418592e-02) (82, -4.53954466871342027234e-02) (83, -6.82314240626415297042e-02) (84, -7.16535652188639848870e-02) (85, 9.32453927259227627333e-02) (86, 2.34949205672698030467e-02) (87, -1.31126332147282476104e-01) (88, 4.57218484447776546409e-02) (89, -6.69666035606086285092e-02) (90, -1.68752278148991408102e-02) (91, -2.93458308040959146845e-02) (92, -2.76019005610168462195e-02) (93, -2.96590233353953881823e-02) (94, 4.82601394744534076264e-02) (95, 3.57161929698604982408e-02) (96, 9.46475769001431724292e-03) (97, 1.49943138081021437938e-03) (98, -7.13814551143031328362e-02) (99, 1.94428136439937955526e-02) (100, -9.69509201256614217002e-02) (101, -1.26852298376327887741e-01) (102, -8.11428108228092193066e-02) (103, 4.07823634366316911670e-01) (104, 4.93009117239429306423e-01) (105, 8.00012209188603717891e-01) (106, 7.24256416094243959947e-01) (107, 5.93421642911375224472e-01) (108, 6.53505129051149324937e-01) (109, 7.82835326696297295612e-01) (110, 2.97442878544259659002e-01) (111, 3.31807928047593625465e-01) (112, 3.00567107162889146643e-01) (113, 1.53731609341924785328e-01) (114, 2.19645294189557749309e-01) (115, 1.50760720476042886506e-01) (116, 1.26581575476482827147e-01) (117, 4.35681526892933157491e-02) (118, 6.52975420233465470021e-02) (119, 9.33725413085077227127e-02) (120, 1.95821177963681841705e-01) (121, 6.06488173139036246262e-01) (122, 6.62691285145223574204e-01) (123, 5.59975677285424522367e-01) (124, 5.37894663858980437432e-01) (125, 2.84552620248634369204e-01) (126, 4.38062738926021599806e-01) (127, 3.84639014569183035341e-01) (128, 1.32490934664784322516e-03) (129, 5.32476561735614889459e-02) (130, -7.29258337310871168624e-02) (131, -3.17436328124740929635e-01) (132, -3.53628814135583446898e-01) (133, -4.78020168756040142455e-01) (134, 2.49872166147801881564e-03) (135, -1.03848729906768161291e-01) (136, 7.19216614539567034026e-02) (137, -3.06260614229858472990e-02) (138, -4.14208079635960055298e-02) (139, 3.31729372084277190913e-02) (140, -6.96903224050861858085e-02) (141, -9.25737152755123637871e-02) (142, -9.37609988212448619560e-02) (143, -1.27113169138343251596e-01) (144, -9.48472412435393819052e-02) (145, 2.99485495181698209433e-02) (146, -1.33546061742775140635e-01) (147, -1.81757068740800636908e-01) (148, -1.81737719582990425726e-01) (149, 3.61931791396755617174e-02) (150, 6.01038920539255272502e+00) (151, 1.67104587434518903066e+00) (152, 6.84790118767514388587e-01) (153, 3.73582415419301760995e-01) (154, 3.26467070442345852488e-01) (155, 3.15618449574705639549e-01) (156, 2.13290515553891918410e-01) (157, 2.54189568769872475951e-01) (158, -5.29618335776735858766e-03) (159, 2.20288338359760221818e-02) (160, 3.46858110715814849101e-01) (161, 3.34548484970995207988e-01) (162, 4.46709190000959655009e-01) (163, 4.90597289354412102735e-01) (164, 2.97009472102729821241e-01) (165, 4.66630708725063347853e-01) (166, 4.90856137425510541394e-01) (167, 4.47433006317226433790e-01) (168, 4.34927609116642022169e-01) (169, 1.27308091827312112876e-02) (170, -1.39607595500713721481e-01) (171, -6.93894496533930815740e-02) (172, -1.13041388091808608918e-01) (173, 2.91645398231167203573e-02) (174, -1.03999128392158052270e-01) (175, 3.06528949163834640856e+00) (176, 1.32217249122449209686e+00) (177, 1.35303316107576798721e+00) (178, 4.20934920807897461348e-01) (179, 1.13209105179518557116e-01) (180, 1.24494401922378025716e-01) (181, 3.12462921452462905059e-01) (182, 4.38945975591608306132e-01) (183, 4.55273833562799712382e-01) (184, 5.57606963693755064426e-01) (185, 4.99850411405035222057e-01) (186, 4.76053450693556090556e-01) (187, 5.20650405873724242412e-01) (188, 4.20736696869937920606e-01) (189, 3.50054521412460351026e-01) (190, 3.94715395123569512403e-01) (191, 4.10129774660675072706e-01) (192, 4.79636531622020745314e-01) (193, 4.79432087690441155470e-01) (194, 4.43513538987247490919e-01) (195, -8.28515982601702727361e-02) (196, 2.86879220631062019364e-02) (197, -1.26658873853451148239e-01) (198, -3.99735475091319500396e-02) (199, -1.07828767797170183007e-01) (200, -1.06035040328354823735e+00) (201, -2.57431216319434419404e+00) (202, 5.85194926588541441959e-01) (203, 3.65661104987510865438e-01) (204, 2.20086973946553632331e-01) (205, 3.73550257352286252388e-01) (206, 1.60823018974062537101e-01) (207, 3.60828210105367919169e-01) (208, 5.30041907419630309306e-01) (209, 5.04624251713224669658e-01) (210, 5.10095555772253295146e-01) (211, 4.66241870512434264384e-01) (212, 3.85344689257000883043e-01) (213, 4.17471770495979332960e-01) (214, 4.76440068633167290724e-01) (215, 3.56450435072986626661e-01) (216, 4.90861382634250775769e-01) (217, 3.35731666833965325392e-01) (218, 4.70560994298069024122e-01) (219, 3.47714397880071746094e-01) (220, 4.29107973005711171299e-02) (221, -8.28635191891253508611e-02) (222, 2.82905975010334480302e-02) (223, -4.06639074367099156299e-03) (224, -1.64904723076205773913e-02) (225, -2.79167199639659448229e-02) (0, -4.13345734187590185815e-01) (1, -3.98717547365652624780e-01) (2, -2.90477174121096970438e-01) (3, -1.04997769651291830706e-01) (4, 3.11139313372608194985e-01) (5, 7.85135842772957448510e-01) (6, 2.74544307353618177725e-01) (7, 5.29888368917114771506e-01) (8, 5.63002072048790491721e-01) (9, -1.59834175100280959092e-02) (10, -8.43431873907997536888e-02) (11, 4.37022710383897228237e-01) (12, 3.03291316321405490797e-01) (13, 2.77793782940420230787e-01) (14, 3.25331567849703184869e-01) (15, 4.04221232389747164859e-01) (16, 1.62611125806267659000e-01) (17, 1.45042394476026403893e-01) (18, 2.95032913989859757464e-01) (19, 3.45710555256371898647e-01) (20, 7.47530737048454629878e-02) (21, 1.60831069796410153216e-01) (22, 1.04017315161830908865e-01) (23, 1.26038693910903998319e-02) (24, -5.00771253099395741160e-02) (25, -2.02961995178393937722e-02) (26, 7.54947193986244546871e-02) (27, -4.34916837801887640191e-02) (28, 6.12086781388588227482e-02) (29, -2.52857067344067598658e-01) (30, -4.06023318666175137004e-01) (31, -2.73593011099055649638e-01) (32, -3.17655320066169144511e-01) (33, -8.81250656222085787528e-02) (34, -1.70625933167813326197e-01) (35, -1.62816987094758058863e-01) (36, -1.17858708557961447405e-01) (37, -1.04110122380135519671e-01) (38, -4.16205796199992650308e-01) (39, -4.10574401515677922525e-01) (40, -3.63789642947867752909e-01) (41, -2.52297240096286179423e-01) (42, -3.99531735825494060954e-01) (43, -4.21862947353350226098e-01) (44, -3.47428503045069281274e-01) (45, -3.27806966909395758325e-01) (46, -3.48465832480417792016e-01) (47, -3.62213748105989996606e-01) (48, -4.23300291010366980249e-01) (49, -3.04838317045198980981e-01) (50, -3.14489486226069037134e-01) (51, -3.21599202760683600122e-01) (52, -3.62274090546325089335e-01) (53, 2.48194461079957545691e-01) (54, 7.48588129791256551293e-01) (55, 6.78772039624687906212e-01) (56, 3.99256035459644942343e-01) (57, 4.25447761786587386190e-01) (58, 4.29668679607517867147e-01) (59, 2.93837504626279222286e-01) (60, 4.11473194302087230678e-01) (61, 2.92831028988870700758e-01) (62, 2.71833720794233346663e-01) (63, -8.26293052714571589490e-03) (64, -1.06293289566278939540e-01) (65, 1.57269931591588169040e-01) (66, -2.97382980549248443491e-01) (67, -2.93802574241074310191e-01) (68, 1.12671154389079042346e-01) (69, 2.80142861595663150709e-01) (70, 5.20490504575378931662e-01) (71, 4.12900343311436324178e-01) (72, 5.45257933211929834982e-01) (73, 3.80484434953245242994e-01) (74, 4.62545502176794132154e-01) (75, 1.43660254291070960120e-01) (76, 1.88674262982651858023e-01) (77, -1.46068440469440674612e-01) (78, -2.61112275320247055888e-01) (79, -3.53788117665007950663e-01) (80, -4.08858078130709234888e-01) (81, -3.74599205860125128442e-01) (82, -3.85756159731375281030e-01) (83, -3.00770747074114386255e-01) (84, -3.50939559349047247583e-01) (85, -2.21676075309103076671e-01) (86, -1.84701242205975557642e-01) (87, -3.11054038602069260477e-01) (88, -3.24869367080882431864e-01) (89, -3.19245490032390000223e-01) (90, -3.98657801347926388225e-01) (91, -2.81384098130420090556e-01) (92, -2.62196841436580063700e-01) (93, -4.34445275523888174707e-01) (94, -4.18607214995848242456e-01) (95, -4.28281525680052344018e-01) (96, -4.24559014448153082544e-01) (97, -4.60320542165266521906e-01) (98, -3.04232629546152655298e-01) (99, -3.34840553411470953638e-01) (100, -3.62090411194788519555e-01) (101, -3.50433173188196722680e-01) (102, 6.90720372617694422512e-02) (103, 3.74087148668887647940e-01) (104, 8.27000372025009755639e-01) (105, 6.65217276929942036290e-01) (106, 4.58572342765934615194e-01) (107, 5.54590679479248560568e-01) (108, 5.34809447599060461265e-01) (109, 5.77719958569136493587e-01) (110, 6.31861946549708841658e-01) (111, 2.18992098405188018173e-01) (112, 1.85219376518553191513e-01) (113, 1.37817721548643828955e-01) (114, -1.66838093304873008593e-01) (115, -1.81921968195601857499e-01) (116, -1.70772351288708434947e-01) (117, -3.48891429567249999888e-01) (118, -1.28527229966230005509e-01) (119, -9.71540316381937080203e-02) (120, 1.02169620426301954730e-01) (121, 5.60687543767738189038e-02) (122, 4.01764750254757552206e-01) (123, 2.90693524470838626783e-01) (124, 2.81006701279915782621e-01) (125, -3.12389601116032922246e-01) (126, 1.31209112218393347815e-01) (127, -1.67791710885700440237e-01) (128, -3.00168828516786667659e-01) (129, -3.96868160712674389323e-01) (130, -4.55152875342594631647e-01) (131, -1.47871573642066778120e+00) (132, -1.49977104365996183333e+00) (133, -1.37628240138462842879e+00) (134, -1.45159641871681199810e+00) (135, -4.66561292441386110674e-01) (136, -3.17630314677541825130e-01) (137, -2.72028627592280747294e-01) (138, -4.16437942767042823533e-01) (139, -3.78701734143451096415e-01) (140, -2.79809388118937851786e-01) (141, -3.96153679835751781901e-01) (142, -3.94599730867102871379e-01) (143, -7.02531621627927926887e-01) (144, -3.17932563432680670434e-01) (145, -3.89610710152613226587e-01) (146, -5.74182091063504818074e-01) (147, -1.13113663086460580764e+00) (148, -9.92004496248231060207e-01) (149, -3.35433738836275641138e-01) (150, 1.02002080645172910067e+00) (151, 5.30759485250466345185e-01) (152, 2.83834768168919171494e-01) (153, 1.25225368888366800357e-01) (154, 1.08920261059699929884e-01) (155, -3.65870392793349874516e-02) (156, 7.53225513821907388667e-02) (157, -6.02959043258361471196e-02) (158, -1.80458464381573702173e-01) (159, 2.43413010480638514199e-01) (160, 2.47622669997336924963e-01) (161, 2.76999303462626966787e-01) (162, 2.10029655459048808508e-01) (163, 1.43719981227054590528e-02) (164, -1.12366867449150125563e-02) (165, -1.63658862199649868252e-02) (166, -2.28966404881343899014e-02) 